{"learner":{"attributes":{"scikit_learn":"{\"_estimator_type\": \"classifier\"}"},"feature_names":["purchases","time_spent","n_visits","customer_group_2","customer_group_3","customer_group_4","customer_group_5","customer_group_6","customer_group_7","customer_group_8","customer_group_9","onboarding_True"],"feature_types":["float","float","float","float","float","float","float","float","float","float","float","float"],"gradient_booster":{"model":{"cats":{"enc":[],"feature_segments":[],"sorted_idx":[]},"gbtree_model_param":{"num_parallel_tree":"100","num_trees":"100"},"iteration_indptr":[0,100],"tree_info":[0,0,0,0,0,0,0,0,0,0,0,0,0,0,0,0,0,0,0,0,0,0,0,0,0,0,0,0,0,0,0,0,0,0,0,0,0,0,0,0,0,0,0,0,0,0,0,0,0,0,0,0,0,0,0,0,0,0,0,0,0,0,0,0,0,0,0,0,0,0,0,0,0,0,0,0,0,0,0,0,0,0,0,0,0,0,0,0,0,0,0,0,0,0,0,0,0,0,0,0],"trees":[{"base_weights":[-6.791409E-2,-1.538561E0,1.1019547E0,-4.2614355E-3,-1.8503878E-3,3.245131E-1,1.4636979E0,-3.8967013E-2,6.2292576E-1,2.8445786E-3,3.9672595E-3,-2.9323812E-4,5.0535616E-3,5.804283E-4,2.4611934E-3],"categories":[],"categories_nodes":[],"categories_segments":[],"categories_sizes":[],"default_left":[0,0,0,0,0,0,0,0,0,0,0,0,0,0,0],"id":0,"left_children":[1,3,5,-1,-1,7,9,11,13,-1,-1,-1,-1,-1,-1],"loss_changes":[7.1455865E2,3.6470947E1,6.505493E1,0E0,0E0,7.967392E0,8.783417E0,6.114682E0,6.3521137E0,0E0,0E0,0E0,0E0,0E0,0E0],"parents":[2147483647,0,0,1,1,2,2,5,5,6,6,7,7,8,8],"right_children":[2,4,6,-1,-1,8,10,12,14,-1,-1,-1,-1,-1,-1],"split_conditions":[2.8123736E-1,1.8749157E-1,4.6872893E-1,-4.2614355E-3,-1.8503878E-3,1E0,6.562205E-1,9.4451874E-1,3.7498313E-1,2.8445786E-3,3.9672595E-3,-2.9323812E-4,5.0535616E-3,5.804283E-4,2.4611934E-3],"split_indices":[2,2,2,0,0,11,2,0,2,0,0,0,0,0,0],"split_type":[0,0,0,0,0,0,0,0,0,0,0,0,0,0,0],"sum_hessian":[4.1532907E2,1.840097E2,2.3131937E2,1.3670003E2,4.7309666E1,7.345448E1,1.5786488E2,3.3116764E1,4.0337715E1,7.07155E1,8.714938E1,3.1871775E1,1.2449912E0,2.116485E1,1.9172865E1],"tree_param":{"num_deleted":"0","num_feature":"12","num_nodes":"15","size_leaf_vector":"1"}},{"base_weights":[7.6121695E-2,-3.5288944E-3,1.1977923E0,3.4296057E-1,1.5972341E0,1.0553678E-4,1.4521414E-3,2.849429E-3,4.027961E-3],"categories":[],"categories_nodes":[],"categories_segments":[],"categories_sizes":[],"default_left":[0,0,0,0,0,0,0,0,0],"id":1,"left_children":[1,-1,3,5,7,-1,-1,-1,-1],"loss_changes":[7.239196E2,0E0,8.1961E1,6.171275E0,6.7300415E0,0E0,0E0,0E0,0E0],"parents":[2147483647,0,0,2,2,3,3,4,4],"right_children":[2,-1,4,6,8,-1,-1,-1,-1],"split_conditions":[2.8123736E-1,-3.5288944E-3,4.6872893E-1,1E0,5.624747E-1,1.0553678E-4,1.4521414E-3,2.849429E-3,4.027961E-3],"split_indices":[2,0,2,11,2,0,0,0,0],"split_type":[0,0,0,0,0,0,0,0,0],"sum_hessian":[4.1184308E2,1.7180879E2,2.400343E2,7.644246E1,1.6359184E2,3.6353745E1,4.008872E1,3.4361755E1,1.2923009E2],"tree_param":{"num_deleted":"0","num_feature":"12","num_nodes":"9","size_leaf_vector":"1"}},{"base_weights":[4.9783498E-2,-1.6666504E0,1.0189265E0,-4.4518914E-3,-2.8238783E-3,1.0975135E-1,3.5065203E-3,-7.577759E-5,5.679024E-1,8.8680984E-4,5.05358E-3],"categories":[],"categories_nodes":[],"categories_segments":[],"categories_sizes":[],"default_left":[0,0,0,0,0,0,0,0,0,0,0],"id":2,"left_children":[1,3,5,-1,-1,7,-1,-1,9,-1,-1],"loss_changes":[6.668638E2,1.4680206E1,1.07758575E2,0E0,0E0,5.6119175E0,0E0,0E0,6.183102E0,0E0,0E0],"parents":[2147483647,0,0,1,1,2,2,5,5,8,8],"right_children":[2,4,6,-1,-1,8,-1,-1,10,-1,-1],"split_conditions":[2.3436446E-1,1.4061868E-1,4.2185605E-1,-4.4518914E-3,-2.8238783E-3,3.7498313E-1,3.5065203E-3,-7.577759E-5,1E0,8.8680984E-4,5.05358E-3],"split_indices":[2,2,2,0,0,2,0,0,7,0,0],"split_type":[0,0,0,0,0,0,0,0,0,0,0],"sum_hessian":[4.0088718E2,1.4466798E2,2.5621918E2,9.95993E1,4.506868E1,8.640239E1,1.698168E2,6.5984535E1,2.0417856E1,1.8176872E1,2.2409842E0],"tree_param":{"num_deleted":"0","num_feature":"12","num_nodes":"11","size_leaf_vector":"1"}},{"base_weights":[1.2366489E-2,-3.5294176E-3,2.6404427E-3],"categories":[],"categories_nodes":[],"categories_segments":[],"categories_sizes":[],"default_left":[0,0,0],"id":3,"left_children":[1,-1,-1],"loss_changes":[6.938876E2,0E0,0E0],"parents":[2147483647,0,0],"right_children":[2,-1,-1],"split_conditions":[2.8123736E-1,-3.5294176E-3,2.6404427E-3],"split_indices":[2,0,0],"split_type":[0,0,0],"sum_hessian":[4.1831705E2,1.7703775E2,2.412793E2],"tree_param":{"num_deleted":"0","num_feature":"12","num_nodes":"3","size_leaf_vector":"1"}},{"base_weights":[-3.7083194E-2,-1.5295261E0,1.1171155E0,-4.2755376E-3,-1.6685147E-3,2.4359314E-4,1.4874014E0,2.7375424E-3,3.8384665E-3],"categories":[],"categories_nodes":[],"categories_segments":[],"categories_sizes":[],"default_left":[0,0,0,0,0,0,0,0,0],"id":4,"left_children":[1,3,5,-1,-1,-1,7,-1,-1],"loss_changes":[7.0814417E2,4.093344E1,8.705734E1,0E0,0E0,0E0,7.5472717E0,0E0,0E0],"parents":[2147483647,0,0,1,1,2,2,6,6],"right_children":[2,4,6,-1,-1,-1,8,-1,-1],"split_conditions":[2.8123736E-1,1.8749157E-1,4.2185605E-1,-4.2755376E-3,-1.6685147E-3,2.4359314E-4,5.624747E-1,2.7375424E-3,3.8384665E-3],"split_indices":[2,2,2,0,0,0,2,0,0],"split_type":[0,0,0,0,0,0,0,0,0],"sum_hessian":[4.110961E2,1.7927873E2,2.3181737E2,1.3421005E2,4.506868E1,6.200056E1,1.698168E2,4.9052654E1,1.20764145E2],"tree_param":{"num_deleted":"0","num_feature":"12","num_nodes":"9","size_leaf_vector":"1"}},{"base_weights":[8.030158E-2,-3.5302301E-3,1.1863462E0,5.567722E-4,1.5288507E0,2.7330115E-3,3.9891363E-3],"categories":[],"categories_nodes":[],"categories_segments":[],"categories_sizes":[],"default_left":[0,0,0,0,0,0,0],"id":5,"left_children":[1,-1,3,-1,5,-1,-1],"loss_changes":[7.242207E2,0E0,7.965335E1,0E0,1.05312195E1,0E0,0E0],"parents":[2147483647,0,0,2,2,4,4],"right_children":[2,-1,4,-1,6,-1,-1],"split_conditions":[2.8123736E-1,-3.5302301E-3,4.2185605E-1,5.567722E-4,5.624747E-1,2.7330115E-3,3.9891363E-3],"split_indices":[2,0,2,0,2,0,0],"split_type":[0,0,0,0,0,0,0],"sum_hessian":[4.1657407E2,1.7205779E2,2.4451627E2,6.473954E1,1.7977673E2,5.3036625E1,1.26740105E2],"tree_param":{"num_deleted":"0","num_feature":"12","num_nodes":"7","size_leaf_vector":"1"}},{"base_weights":[-5.95854E-3,-1.5295261E0,1.1426997E0,-4.4518914E-3,-2.4355748E-3,4.1584094E-4,1.4819041E0,2.3377463E-3,3.9785756E-3],"categories":[],"categories_nodes":[],"categories_segments":[],"categories_sizes":[],"default_left":[0,0,0,0,0,0,0,0,0],"id":6,"left_children":[1,3,5,-1,-1,-1,7,-1,-1],"loss_changes":[7.299006E2,3.1530884E1,7.799924E1,0E0,0E0,0E0,1.7317566E1,0E0,0E0],"parents":[2147483647,0,0,1,1,2,2,6,6],"right_children":[2,4,6,-1,-1,-1,8,-1,-1],"split_conditions":[2.8123736E-1,1.4061868E-1,4.2185605E-1,-4.4518914E-3,-2.4355748E-3,4.1584094E-4,5.624747E-1,2.3377463E-3,3.9785756E-3],"split_indices":[2,2,2,0,0,0,2,0,0],"split_type":[0,0,0,0,0,0,0,0,0],"sum_hessian":[4.1707205E2,1.7927873E2,2.3779332E2,1.05326256E2,7.395248E1,6.1751564E1,1.7604175E2,5.0546642E1,1.2549511E2],"tree_param":{"num_deleted":"0","num_feature":"12","num_nodes":"9","size_leaf_vector":"1"}},{"base_weights":[-4.681024E-3],"categories":[],"categories_nodes":[],"categories_segments":[],"categories_sizes":[],"default_left":[0],"id":7,"left_children":[-1],"loss_changes":[0E0],"parents":[2147483647],"right_children":[-1],"split_conditions":[-1.1079287E-5],"split_indices":[0],"split_type":[0],"sum_hessian":[4.1732104E2],"tree_param":{"num_deleted":"0","num_feature":"12","num_nodes":"1","size_leaf_vector":"1"}},{"base_weights":[9.1994175E-4,-1.5242039E0,1.132202E0,-4.4518914E-3,-1.0163587E0,9.4628986E-4,3.5900332E-3,-3.0116648E-3,-1.0721602E-3],"categories":[],"categories_nodes":[],"categories_segments":[],"categories_sizes":[],"default_left":[0,0,0,0,0,0,0,0,0],"id":8,"left_children":[1,3,5,-1,7,-1,-1,-1,-1],"loss_changes":[7.041275E2,3.148639E1,6.599838E1,0E0,1.0345482E1,0E0,0E0,0E0,0E0],"parents":[2147483647,0,0,1,1,2,2,4,4],"right_children":[2,4,6,-1,8,-1,-1,-1,-1],"split_conditions":[2.8123736E-1,1.4061868E-1,4.6872893E-1,-4.4518914E-3,2.3436446E-1,9.4628986E-4,3.5900332E-3,-3.0116648E-3,-1.0721602E-3],"split_indices":[2,2,2,0,2,0,0,0,0],"split_type":[0,0,0,0,0,0,0,0,0],"sum_hessian":[4.0810812E2,1.7380077E2,2.3430734E2,1.0208928E2,7.1711494E1,8.067543E1,1.5363191E2,4.930165E1,2.2409842E1],"tree_param":{"num_deleted":"0","num_feature":"12","num_nodes":"9","size_leaf_vector":"1"}},{"base_weights":[-2.9247224E-2,-1.5035454E0,1.1158231E0,-4.4518914E-3,-9.301278E-1,6.523445E-4,3.6598805E-3,-2.7188454E-3,-1.2833934E-3],"categories":[],"categories_nodes":[],"categories_segments":[],"categories_sizes":[],"default_left":[0,0,0,0,0,0,0,0,0],"id":9,"left_children":[1,3,5,-1,7,-1,-1,-1,-1],"loss_changes":[6.855952E2,3.8418976E1,8.2676605E1,0E0,5.9748077E0,0E0,0E0,0E0,0E0],"parents":[2147483647,0,0,1,1,2,2,4,4],"right_children":[2,4,6,-1,8,-1,-1,-1,-1],"split_conditions":[2.8123736E-1,1.4061868E-1,4.6872893E-1,-4.4518914E-3,2.3436446E-1,6.523445E-4,3.6598805E-3,-2.7188454E-3,-1.2833934E-3],"split_indices":[2,2,2,0,2,0,0,0,0],"split_type":[0,0,0,0,0,0,0,0,0],"sum_hessian":[4.0611612E2,1.7753575E2,2.2858038E2,1.07069244E2,7.04665E1,7.743845E1,1.5114194E2,4.506868E1,2.539782E1],"tree_param":{"num_deleted":"0","num_feature":"12","num_nodes":"9","size_leaf_vector":"1"}},{"base_weights":[-3.4259707E-2,-7.4699445E-4,1.6748276E-2,1.8820871E-1,-7.634644E-2,-8.944201E-2,3.8419744E-1,-1.4870112E0,1.127037E0,-3.736423E-3,2.741454E-3,-3.756366E-3,2.7575889E-3,-4.2970786E-3,-1.3690285E-3,9.1018155E-4,3.8291651E-3],"categories":[],"categories_nodes":[],"categories_segments":[],"categories_sizes":[],"default_left":[0,0,0,0,0,0,0,0,0,0,0,0,0,0,0,0,0],"id":10,"left_children":[1,-1,3,5,7,9,11,13,15,-1,-1,-1,-1,-1,-1,-1,-1],"loss_changes":[5.913913E0,0E0,5.5683103E0,6.679949E0,3.8380447E2,9.438341E1,1.1077207E2,3.1066788E1,4.446089E1,0E0,0E0,0E0,0E0,0E0,0E0,0E0,0E0],"parents":[2147483647,0,0,2,2,3,3,4,4,5,5,6,6,7,7,8,8],"right_children":[2,-1,4,6,8,10,12,14,16,-1,-1,-1,-1,-1,-1,-1,-1],"split_conditions":[2.345584E-1,-7.4699445E-4,4.6924174E-1,3.552754E-1,2.8123736E-1,2.8123736E-1,2.3436446E-1,1.8749157E-1,5.156018E-1,-3.736423E-3,2.741454E-3,-3.756366E-3,2.7575889E-3,-4.2970786E-3,-1.3690285E-3,9.1018155E-4,3.8291651E-3],"split_indices":[1,0,1,1,2,2,2,2,2,0,0,0,0,0,0,0,0],"split_type":[0,0,0,0,0,0,0,0,0,0,0,0,0,0,0,0,0],"sum_hessian":[4.1209207E2,6.3245552E1,3.4884653E2,1.22756134E2,2.2609041E2,5.079564E1,7.1960495E1,1.0408126E2,1.2200914E2,2.3156836E1,2.7638805E1,2.0417856E1,5.1542637E1,7.644246E1,2.7638805E1,4.8554657E1,7.345448E1],"tree_param":{"num_deleted":"0","num_feature":"12","num_nodes":"17","size_leaf_vector":"1"}},{"base_weights":[-5.2587047E-2],"categories":[],"categories_nodes":[],"categories_segments":[],"categories_sizes":[],"default_left":[0],"id":11,"left_children":[-1],"loss_changes":[0E0],"parents":[2147483647],"right_children":[-1],"split_conditions":[-1.2446572E-4],"split_indices":[0],"split_type":[0],"sum_hessian":[4.1458206E2],"tree_param":{"num_deleted":"0","num_feature":"12","num_nodes":"1","size_leaf_vector":"1"}},{"base_weights":[2.104472E-2],"categories":[],"categories_nodes":[],"categories_segments":[],"categories_sizes":[],"default_left":[0],"id":12,"left_children":[-1],"loss_changes":[0E0],"parents":[2147483647],"right_children":[-1],"split_conditions":[4.980972E-5],"split_indices":[0],"split_type":[0],"sum_hessian":[4.1483105E2],"tree_param":{"num_deleted":"0","num_feature":"12","num_nodes":"1","size_leaf_vector":"1"}},{"base_weights":[3.194963E-2,-3.516258E-3,1.1332139E0,3.5834152E-1,1.5352702E0,5.357817E-4,2.074267E-3,2.9260183E-3,4.1798376E-3],"categories":[],"categories_nodes":[],"categories_segments":[],"categories_sizes":[],"default_left":[0,0,0,0,0,0,0,0,0],"id":13,"left_children":[1,-1,3,5,7,-1,-1,-1,-1],"loss_changes":[6.9370374E2,0E0,7.4935974E1,5.617689E0,1.0925476E1,0E0,0E0,0E0,0E0],"parents":[2147483647,0,0,2,2,3,3,4,4],"right_children":[2,-1,4,6,8,-1,-1,-1,-1],"split_conditions":[2.8123736E-1,-3.516258E-3,4.6872893E-1,4.2185605E-1,6.562205E-1,5.357817E-4,2.074267E-3,2.9260183E-3,4.1798376E-3],"split_indices":[2,0,2,2,2,0,0,0,0],"split_type":[0,0,0,0,0,0,0,0,0],"sum_hessian":[4.1508008E2,1.7454776E2,2.405323E2,8.216942E1,1.5836288E2,6.5486534E1,1.6682882E1,6.897251E1,8.9390366E1],"tree_param":{"num_deleted":"0","num_feature":"12","num_nodes":"9","size_leaf_vector":"1"}},{"base_weights":[-1.6057672E-2,-1.5051267E0,1.1365622E0,-4.238285E-3,-1.5793522E-3,5.5387795E-1,3.9797593E-3,2.4494046E-4,1.9651742E-3],"categories":[],"categories_nodes":[],"categories_segments":[],"categories_sizes":[],"default_left":[0,0,0,0,0,0,0,0,0],"id":14,"left_children":[1,3,5,-1,-1,7,-1,-1,-1],"loss_changes":[7.013032E2,4.2654816E1,7.312811E1,0E0,0E0,1.3856403E1,0E0,0E0,0E0],"parents":[2147483647,0,0,1,1,2,2,5,5],"right_children":[2,4,6,-1,-1,8,-1,-1,-1],"split_conditions":[2.8123736E-1,1.8749157E-1,5.624747E-1,-4.238285E-3,-1.5793522E-3,3.7498313E-1,3.9797593E-3,2.4494046E-4,1.9651742E-3],"split_indices":[2,2,2,0,0,2,0,0,0],"split_type":[0,0,0,0,0,0,0,0,0],"sum_hessian":[4.086061E2,1.7828275E2,2.3032336E2,1.3296506E2,4.531768E1,1.11302216E2,1.1902116E2,4.23297E1,6.897251E1],"tree_param":{"num_deleted":"0","num_feature":"12","num_nodes":"9","size_leaf_vector":"1"}},{"base_weights":[-4.423143E-2,-1.5580608E0,1.1224045E0,-4.4518914E-3,-2.5099088E-3,8.7602827E-4,1.5122E0,2.4886269E-3,3.8654152E-3],"categories":[],"categories_nodes":[],"categories_segments":[],"categories_sizes":[],"default_left":[0,0,0,0,0,0,0,0,0],"id":15,"left_children":[1,3,5,-1,-1,-1,7,-1,-1],"loss_changes":[7.163572E2,2.8364258E1,6.717392E1,0E0,0E0,0E0,8.408661E0,0E0,0E0],"parents":[2147483647,0,0,1,1,2,2,6,6],"right_children":[2,4,6,-1,-1,-1,8,-1,-1],"split_conditions":[2.8123736E-1,1.4061868E-1,4.6872893E-1,-4.4518914E-3,-2.5099088E-3,8.7602827E-4,5.624747E-1,2.4886269E-3,3.8654152E-3],"split_indices":[2,2,2,0,0,0,2,0,0],"split_type":[0,0,0,0,0,0,0,0,0],"sum_hessian":[4.0561813E2,1.7653975E2,2.2907838E2,1.07069244E2,6.947051E1,7.818545E1,1.5089293E2,3.1373777E1,1.1951916E2],"tree_param":{"num_deleted":"0","num_feature":"12","num_nodes":"9","size_leaf_vector":"1"}},{"base_weights":[2.3883173E-2,-1.4555007E0,1.1549888E0,-1.7650853E0,-1.4182233E-3,3.575435E-1,3.6606872E-3,-4.4518914E-3,-3.0939628E-3,1.4347941E-4,1.5353345E-3],"categories":[],"categories_nodes":[],"categories_segments":[],"categories_sizes":[],"default_left":[0,0,0,0,0,0,0,0,0,0,0],"id":16,"left_children":[1,3,5,7,-1,9,-1,-1,-1,-1,-1],"loss_changes":[6.808202E2,4.67341E1,7.201401E1,6.8681335E0,0E0,6.5650845E0,0E0,0E0,0E0,0E0,0E0],"parents":[2147483647,0,0,1,1,2,2,3,3,5,5],"right_children":[2,4,6,8,-1,10,-1,-1,-1,-1,-1],"split_conditions":[2.8123736E-1,1.8749157E-1,4.6872893E-1,1.4061868E-1,-1.4182233E-3,3.7498313E-1,3.6606872E-3,-4.4518914E-3,-3.0939628E-3,1.4347941E-4,1.5353345E-3],"split_indices":[2,2,2,2,0,2,0,0,0,0,0],"split_type":[0,0,0,0,0,0,0,0,0,0,0],"sum_hessian":[4.0686313E2,1.7629076E2,2.3057237E2,1.2947908E2,4.681167E1,7.5944466E1,1.5462791E2,1.0333427E2,2.6144815E1,3.7598736E1,3.834573E1],"tree_param":{"num_deleted":"0","num_feature":"12","num_nodes":"11","size_leaf_vector":"1"}},{"base_weights":[1.1459871E-3,-1.6688633E0,9.9332803E-1,-4.4518914E-3,-2.7620257E-3,1.3409212E-4,1.4658095E0,2.739948E-3,4.2074155E-3],"categories":[],"categories_nodes":[],"categories_segments":[],"categories_sizes":[],"default_left":[0,0,0,0,0,0,0,0,0],"id":17,"left_children":[1,3,5,-1,-1,-1,7,-1,-1],"loss_changes":[6.7085254E2,1.6060822E1,1.1240083E2,0E0,0E0,0E0,1.6223541E1,0E0,0E0],"parents":[2147483647,0,0,1,1,2,2,6,6],"right_children":[2,4,6,-1,-1,-1,8,-1,-1],"split_conditions":[2.3436446E-1,1.4061868E-1,4.2185605E-1,-4.4518914E-3,-2.7620257E-3,1.3409212E-4,6.562205E-1,2.739948E-3,4.2074155E-3],"split_indices":[2,2,2,0,0,0,2,0,0],"split_type":[0,0,0,0,0,0,0,0,0],"sum_hessian":[4.0487112E2,1.5089293E2,2.5397821E2,1.0607325E2,4.4819683E1,8.5157394E1,1.688208E2,8.49084E1,8.391241E1],"tree_param":{"num_deleted":"0","num_feature":"12","num_nodes":"9","size_leaf_vector":"1"}},{"base_weights":[1.1123757E-2,-3.1073263E-1,7.24517E-2,-3.9289993E-1,1.0641974E0,-3.6347527E-3,1.1821871E0,-3.8927437E-3,1.741081E-3,-2.5507726E-3,5.053582E-3,1.3672231E0,2.4119841E-3,1.1064052E-3,4.1701915E-3],"categories":[],"categories_nodes":[],"categories_segments":[],"categories_sizes":[],"default_left":[0,0,0,0,0,0,0,0,0,0,0,0,0,0,0],"id":18,"left_children":[1,3,5,7,9,-1,11,-1,-1,-1,-1,13,-1,-1,-1],"loss_changes":[8.168605E0,7.4826913E0,6.203343E2,8.8289345E1,8.567618E0,0E0,6.2077637E0,0E0,0E0,0E0,0E0,3.422113E1,0E0,0E0,0E0],"parents":[2147483647,0,0,1,1,2,2,3,3,4,4,6,6,11,11],"right_children":[2,4,6,8,10,-1,12,-1,-1,-1,-1,14,-1,-1,-1],"split_conditions":[2.5100005E-1,9.4451874E-1,2.8123736E-1,2.8123736E-1,2.8123736E-1,-3.6347527E-3,1E0,-3.8927437E-3,1.741081E-3,-2.5507726E-3,5.053582E-3,4.6872893E-1,2.4119841E-3,1.1064052E-3,4.1701915E-3],"split_indices":[1,0,2,2,2,0,11,0,0,0,0,2,0,0,0],"split_type":[0,0,0,0,0,0,0,0,0,0,0,0,0,0,0],"sum_hessian":[4.1383508E2,6.623353E1,3.4760153E2,6.2498558E1,3.7349737E0,1.41929E2,2.0567255E2,2.963079E1,3.2867767E1,1.2449912E0,2.4899824E0,9.636232E1,1.0931023E2,2.9381792E1,6.698053E1],"tree_param":{"num_deleted":"0","num_feature":"12","num_nodes":"15","size_leaf_vector":"1"}},{"base_weights":[-3.6560882E-2,-1.512334E0,2.7032283E-3,-4.2406586E-3,-1.7003011E-3],"categories":[],"categories_nodes":[],"categories_segments":[],"categories_sizes":[],"default_left":[0,0,0,0,0],"id":19,"left_children":[1,3,-1,-1,-1],"loss_changes":[7.120557E2,4.0315094E1,0E0,0E0,0E0],"parents":[2147483647,0,0,1,1],"right_children":[2,4,-1,-1,-1],"split_conditions":[2.8123736E-1,1.8749157E-1,2.7032283E-3,-4.2406586E-3,-1.7003011E-3],"split_indices":[2,2,0,0,0],"split_type":[0,0,0,0,0],"sum_hessian":[4.0935312E2,1.8176872E2,2.275844E2,1.3445905E2,4.7309666E1],"tree_param":{"num_deleted":"0","num_feature":"12","num_nodes":"5","size_leaf_vector":"1"}},{"base_weights":[-1.0753874E-2,-1.4992394E0,1.1279612E0,-4.239478E-3,-1.5851551E-3,3.9784997E-4,3.4603516E-3],"categories":[],"categories_nodes":[],"categories_segments":[],"categories_sizes":[],"default_left":[0,0,0,0,0,0,0],"id":20,"left_children":[1,3,5,-1,-1,-1,-1],"loss_changes":[7.069209E2,4.3778534E1,7.576694E1,0E0,0E0,0E0,0E0],"parents":[2147483647,0,0,1,1,2,2],"right_children":[2,4,6,-1,-1,-1,-1],"split_conditions":[2.8123736E-1,1.8749157E-1,4.2185605E-1,-4.239478E-3,-1.5851551E-3,3.9784997E-4,3.4603516E-3],"split_indices":[2,2,2,0,0,0,0],"split_type":[0,0,0,0,0,0,0],"sum_hessian":[4.1707205E2,1.8077272E2,2.3629933E2,1.3371205E2,4.706067E1,6.100457E1,1.7529475E2],"tree_param":{"num_deleted":"0","num_feature":"12","num_nodes":"7","size_leaf_vector":"1"}},{"base_weights":[-7.729593E-3],"categories":[],"categories_nodes":[],"categories_segments":[],"categories_sizes":[],"default_left":[0],"id":21,"left_children":[-1],"loss_changes":[0E0],"parents":[2147483647],"right_children":[-1],"split_conditions":[-1.8294797E-5],"split_indices":[0],"split_type":[0],"sum_hessian":[4.115941E2],"tree_param":{"num_deleted":"0","num_feature":"12","num_nodes":"1","size_leaf_vector":"1"}},{"base_weights":[5.4532003E-2,-1.4706571E0,1.1529843E0,-4.2452505E-3,-1.4342744E-3,3.5443795E-1,1.5454692E0,1.5325431E-4,1.542018E-3,3.0881802E-3,4.0556495E-3],"categories":[],"categories_nodes":[],"categories_segments":[],"categories_sizes":[],"default_left":[0,0,0,0,0,0,0,0,0,0,0],"id":22,"left_children":[1,3,5,-1,-1,7,9,-1,-1,-1,-1],"loss_changes":[6.924833E2,4.8327667E1,7.530896E1,0E0,0E0,6.8141136E0,6.516693E0,0E0,0E0,0E0,0E0],"parents":[2147483647,0,0,1,1,2,2,5,5,6,6],"right_children":[2,4,6,-1,-1,8,10,-1,-1,-1,-1],"split_conditions":[2.8123736E-1,1.8749157E-1,4.6872893E-1,-4.2452505E-3,-1.4342744E-3,3.7498313E-1,6.562205E-1,1.5325431E-4,1.542018E-3,3.0881802E-3,4.0556495E-3],"split_indices":[2,2,2,0,0,2,2,0,0,0,0],"split_type":[0,0,0,0,0,0,0,0,0,0,0],"sum_hessian":[4.1333707E2,1.7305377E2,2.402833E2,1.2599311E2,4.706067E1,7.918144E1,1.6110187E2,4.008872E1,3.9092724E1,6.623353E1,9.486833E1],"tree_param":{"num_deleted":"0","num_feature":"12","num_nodes":"11","size_leaf_vector":"1"}},{"base_weights":[1.3086648E-2,-1.4989842E0,1.1416155E0,-4.269794E-3,-6.7402554E-1,8.426992E-4,3.5788633E-3,-2.5305676E-3,-7.07303E-4],"categories":[],"categories_nodes":[],"categories_segments":[],"categories_sizes":[],"default_left":[0,0,0,0,0,0,0,0,0],"id":23,"left_children":[1,3,5,-1,7,-1,-1,-1,-1],"loss_changes":[7.1084845E2,4.4797424E1,6.9421234E1,0E0,7.1245804E0,0E0,0E0,0E0,0E0],"parents":[2147483647,0,0,1,1,2,2,4,4],"right_children":[2,4,6,-1,8,-1,-1,-1,-1],"split_conditions":[2.8123736E-1,1.8749157E-1,4.6872893E-1,-4.269794E-3,2.3436446E-1,8.426992E-4,3.5788633E-3,-2.5305676E-3,-7.07303E-4],"split_indices":[2,2,2,0,2,0,0,0,0],"split_type":[0,0,0,0,0,0,0,0,0],"sum_hessian":[4.1657407E2,1.7803374E2,2.3854031E2,1.2997708E2,4.805666E1,7.644246E1,1.6209785E2,2.3405834E1,2.4650826E1],"tree_param":{"num_deleted":"0","num_feature":"12","num_nodes":"9","size_leaf_vector":"1"}},{"base_weights":[-6.195329E-2,-1.2221146E0,3.1783686E-3,-4.266599E-3,-4.3215817E-1,-2.3497143E-3,-5.173832E-4],"categories":[],"categories_nodes":[],"categories_segments":[],"categories_sizes":[],"default_left":[0,0,0,0,0,0,0],"id":24,"left_children":[1,3,-1,-1,5,-1,-1],"loss_changes":[6.5946094E2,1.0162869E2,0E0,0E0,1.1238722E1,0E0,0E0],"parents":[2147483647,0,0,1,1,4,4],"right_children":[2,4,-1,-1,6,-1,-1],"split_conditions":[3.7498313E-1,1.8749157E-1,3.1783686E-3,-4.266599E-3,2.3436446E-1,-2.3497143E-3,-5.173832E-4],"split_indices":[2,2,0,0,2,0,0],"split_type":[0,0,0,0,0,0,0],"sum_hessian":[4.0462213E2,2.2160843E2,1.830137E2,1.277361E2,9.387234E1,2.5895817E1,6.797652E1],"tree_param":{"num_deleted":"0","num_feature":"12","num_nodes":"7","size_leaf_vector":"1"}},{"base_weights":[6.4057395E-2,-3.8936571E-3,2.5291324E-3],"categories":[],"categories_nodes":[],"categories_segments":[],"categories_sizes":[],"default_left":[0,0,0],"id":25,"left_children":[1,-1,-1],"loss_changes":[7.079233E2,0E0,0E0],"parents":[2147483647,0,0],"right_children":[2,-1,-1],"split_conditions":[2.3436446E-1,-3.8936571E-3,2.5291324E-3],"split_indices":[2,0,0],"split_type":[0,0,0],"sum_hessian":[4.123411E2,1.5263593E2,2.5970517E2],"tree_param":{"num_deleted":"0","num_feature":"12","num_nodes":"3","size_leaf_vector":"1"}},{"base_weights":[-4.3474466E-2,-1.5042524E0,1.1039406E0,-4.2422116E-3,-1.5109652E-3,3.502282E-1,3.4975973E-3,6.739376E-4,4.322397E-3],"categories":[],"categories_nodes":[],"categories_segments":[],"categories_sizes":[],"default_left":[0,0,0,0,0,0,0,0,0],"id":26,"left_children":[1,3,5,-1,-1,7,-1,-1,-1],"loss_changes":[6.8779376E2,4.5031403E1,6.4750854E1,0E0,0E0,7.364854E0,0E0,0E0,0E0],"parents":[2147483647,0,0,1,1,2,2,5,5],"right_children":[2,4,6,-1,-1,8,-1,-1,-1],"split_conditions":[2.8123736E-1,1.8749157E-1,4.6872893E-1,-4.2422116E-3,-1.5109652E-3,1E0,3.4975973E-3,6.739376E-4,4.322397E-3],"split_indices":[2,2,2,0,0,0,0,0,0],"split_type":[0,0,0,0,0,0,0,0,0],"sum_hessian":[4.103491E2,1.8052373E2,2.2982538E2,1.3545505E2,4.506868E1,7.619346E1,1.5363191E2,7.295648E1,3.236977E0],"tree_param":{"num_deleted":"0","num_feature":"12","num_nodes":"9","size_leaf_vector":"1"}},{"base_weights":[1.588608E-2,-1.4658632E0,1.1175814E0,-4.2828214E-3,-1.5097149E-3,9.599538E-5,3.4541823E-3],"categories":[],"categories_nodes":[],"categories_segments":[],"categories_sizes":[],"default_left":[0,0,0,0,0,0,0],"id":27,"left_children":[1,3,5,-1,-1,-1,-1],"loss_changes":[6.824694E2,5.07276E1,8.827606E1,0E0,0E0,0E0,0E0],"parents":[2147483647,0,0,1,1,2,2],"right_children":[2,4,6,-1,-1,-1,-1],"split_conditions":[2.8123736E-1,1.8749157E-1,4.2185605E-1,-4.2828214E-3,-1.5097149E-3,9.599538E-5,3.4541823E-3],"split_indices":[2,2,2,0,0,0,0],"split_type":[0,0,0,0,0,0,0],"sum_hessian":[4.1806805E2,1.7828275E2,2.3978531E2,1.2599311E2,5.228963E1,5.7767593E1,1.8201772E2],"tree_param":{"num_deleted":"0","num_feature":"12","num_nodes":"7","size_leaf_vector":"1"}},{"base_weights":[-7.113849E-2,-1.2210345E-1,2.1582083E-1,-1.5269517E0,1.0046643E0,-1.1419729E0,3.7504286E-3,-4.247911E-3,-1.7446305E-3,4.520213E-1,3.6076289E-3,-3.9824825E-3,-3.472464E-4,4.5416952E-4,1.9049069E-3],"categories":[],"categories_nodes":[],"categories_segments":[],"categories_sizes":[],"default_left":[0,0,0,0,0,0,0,0,0,0,0,0,0,0,0],"id":28,"left_children":[1,3,5,7,9,11,-1,-1,-1,13,-1,-1,-1,-1,-1],"loss_changes":[6.012227E0,5.525965E2,1.1522632E2,3.286487E1,5.5623978E1,1.6747398E1,0E0,0E0,0E0,8.615297E0,0E0,0E0,0E0,0E0,0E0],"parents":[2147483647,0,0,1,1,2,2,3,3,4,4,5,5,9,9],"right_children":[2,4,6,8,10,12,-1,-1,-1,14,-1,-1,-1,-1,-1],"split_conditions":[7.565547E-1,2.8123736E-1,3.7498313E-1,1.8749157E-1,5.624747E-1,2.3436446E-1,3.7504286E-3,-4.247911E-3,-1.7446305E-3,4.2185605E-1,3.6076289E-3,-3.9824825E-3,-3.472464E-4,4.5416952E-4,1.9049069E-3],"split_indices":[1,2,2,2,2,2,0,0,0,2,0,0,0,0,0],"split_type":[0,0,0,0,0,0,0,0,0,0,0,0,0,0,0],"sum_hessian":[4.110961E2,3.4909552E2,6.200056E1,1.5537491E2,1.9372063E2,3.112478E1,3.0875782E1,1.1603318E2,3.934172E1,9.387234E1,9.98483E1,2.0168858E1,1.0955922E1,5.403262E1,3.9839718E1],"tree_param":{"num_deleted":"0","num_feature":"12","num_nodes":"15","size_leaf_vector":"1"}},{"base_weights":[-1.97595E-2,-1.5138122E0,1.1205218E0,-4.234623E-3,-7.8007627E-1,4.972496E-4,1.433483E0,-2.762025E-3,-1.0761085E-3,2.4053047E-3,3.7874626E-3],"categories":[],"categories_nodes":[],"categories_segments":[],"categories_sizes":[],"default_left":[0,0,0,0,0,0,0,0,0,0,0],"id":29,"left_children":[1,3,5,-1,7,-1,9,-1,-1,-1,-1],"loss_changes":[7.075714E2,3.631778E1,6.7115906E1,0E0,6.175701E0,0E0,1.2194366E1,0E0,0E0,0E0,0E0],"parents":[2147483647,0,0,1,1,2,2,4,4,6,6],"right_children":[2,4,6,-1,8,-1,10,-1,-1,-1,-1],"split_conditions":[2.8123736E-1,1.8749157E-1,4.2185605E-1,-4.234623E-3,2.3436446E-1,4.972496E-4,5.624747E-1,-2.762025E-3,-1.0761085E-3,2.4053047E-3,3.7874626E-3],"split_indices":[2,2,2,0,2,0,2,0,0,0,0],"split_type":[0,0,0,0,0,0,0,0,0,0,0],"sum_hessian":[4.1532907E2,1.7977673E2,2.3555234E2,1.3072408E2,4.9052654E1,6.0257572E1,1.7529475E2,2.2409842E1,2.664281E1,5.0048645E1,1.2524612E2],"tree_param":{"num_deleted":"0","num_feature":"12","num_nodes":"11","size_leaf_vector":"1"}},{"base_weights":[5.552605E-2,-1.3630913E-1,1.3048686E-1,-1.5663092E0,1.114941E0,-1.3275062E0,3.1466805E-3,-4.2790635E-3,-1.892719E-3,-1.6510028E-4,3.3648084E-3,-3.965025E-3,-4.8503198E-4],"categories":[],"categories_nodes":[],"categories_segments":[],"categories_sizes":[],"default_left":[0,0,0,0,0,0,0,0,0,0,0,0,0],"id":30,"left_children":[1,3,5,7,9,11,-1,-1,-1,-1,-1,-1,-1],"loss_changes":[5.925934E0,2.0717128E2,5.179828E2,1.0007996E1,2.2437065E1,5.2194458E1,0E0,0E0,0E0,0E0,0E0,0E0,0E0],"parents":[2147483647,0,0,1,1,2,2,3,3,4,4,5,5],"right_children":[2,4,6,8,10,12,-1,-1,-1,-1,-1,-1,-1],"split_conditions":[3.552754E-1,2.8123736E-1,3.2811025E-1,1.8749157E-1,3.7498313E-1,2.3436446E-1,3.1466805E-3,-4.2790635E-3,-1.892719E-3,-1.6510028E-4,3.3648084E-3,-3.965025E-3,-4.8503198E-4],"split_indices":[1,2,2,2,2,2,0,0,0,0,0,0,0],"split_type":[0,0,0,0,0,0,0,0,0,0,0,0,0],"sum_hessian":[4.1209207E2,1.1578418E2,2.963079E2,5.403262E1,6.1751564E1,1.3371205E2,1.6259586E2,4.108471E1,1.2947908E1,1.269891E1,4.9052654E1,1.0208928E2,3.1622776E1],"tree_param":{"num_deleted":"0","num_feature":"12","num_nodes":"13","size_leaf_vector":"1"}},{"base_weights":[3.9062268E-4,-1.4793249E0,2.651894E-3,-4.286098E-3,-1.4140533E-3],"categories":[],"categories_nodes":[],"categories_segments":[],"categories_sizes":[],"default_left":[0,0,0,0,0],"id":31,"left_children":[1,3,-1,-1,-1],"loss_changes":[6.800887E2,5.169272E1,0E0,0E0,0E0],"parents":[2147483647,0,0,1,1],"right_children":[2,4,-1,-1,-1],"split_conditions":[2.8123736E-1,1.8749157E-1,2.651894E-3,-4.286098E-3,-1.4140533E-3],"split_indices":[2,2,0,0,0],"split_type":[0,0,0,0,0],"sum_hessian":[4.103491E2,1.7678876E2,2.3356035E2,1.284831E2,4.830566E1],"tree_param":{"num_deleted":"0","num_feature":"12","num_nodes":"5","size_leaf_vector":"1"}},{"base_weights":[2.3099842E-2],"categories":[],"categories_nodes":[],"categories_segments":[],"categories_sizes":[],"default_left":[0],"id":32,"left_children":[-1],"loss_changes":[0E0],"parents":[2147483647],"right_children":[-1],"split_conditions":[5.4673892E-5],"split_indices":[0],"split_type":[0],"sum_hessian":[4.086061E2],"tree_param":{"num_deleted":"0","num_feature":"12","num_nodes":"1","size_leaf_vector":"1"}},{"base_weights":[2.9987624E-2,-1.4365534E0,1.1688803E0,-1.7719704E0,-1.4211544E-3,3.4726322E-1,3.6956742E-3,-4.4518914E-3,-3.0799636E-3,1.8203647E-4,1.5480295E-3],"categories":[],"categories_nodes":[],"categories_segments":[],"categories_sizes":[],"default_left":[0,0,0,0,0,0,0,0,0,0,0],"id":33,"left_children":[1,3,5,7,-1,9,-1,-1,-1,-1,-1],"loss_changes":[6.878739E2,5.048758E1,7.476715E1,6.589508E0,0E0,6.2161846E0,0E0,0E0,0E0,0E0,0E0],"parents":[2147483647,0,0,1,1,2,2,3,3,5,5],"right_children":[2,4,6,8,-1,10,-1,-1,-1,-1,-1],"split_conditions":[2.8123736E-1,1.8749157E-1,4.6872893E-1,1.4061868E-1,-1.4211544E-3,3.7498313E-1,3.6956742E-3,-4.4518914E-3,-3.0799636E-3,1.8203647E-4,1.5480295E-3],"split_indices":[2,2,2,2,0,2,0,0,0,0,0],"split_type":[0,0,0,0,0,0,0,0,0,0,0],"sum_hessian":[4.1184308E2,1.8002573E2,2.3181737E2,1.284831E2,5.1542637E1,7.494847E1,1.568689E2,1.0433026E2,2.415283E1,3.9839718E1,3.5108753E1],"tree_param":{"num_deleted":"0","num_feature":"12","num_nodes":"11","size_leaf_vector":"1"}},{"base_weights":[8.560262E-3,-1.4758528E0,1.0941058E0,-1.7715465E0,-1.4946267E-3,5.9595096E-1,3.6709846E-3,-4.4518914E-3,-3.1211216E-3,3.4008655E-1,2.2519825E-3,1.6119572E-3,1.7240252E-4],"categories":[],"categories_nodes":[],"categories_segments":[],"categories_sizes":[],"default_left":[0,0,0,0,0,0,0,0,0,0,0,0,0],"id":34,"left_children":[1,3,5,7,-1,9,-1,-1,-1,11,-1,-1,-1],"loss_changes":[6.5922955E2,4.314496E1,5.3782623E1,6.3401184E0,0E0,1.0283051E1,0E0,0E0,0E0,5.989996E0,0E0,0E0,0E0],"parents":[2147483647,0,0,1,1,2,2,3,3,5,5,9,9],"right_children":[2,4,6,8,-1,10,-1,-1,-1,12,-1,-1,-1],"split_conditions":[2.8123736E-1,1.8749157E-1,5.624747E-1,1.4061868E-1,-1.4946267E-3,4.2185605E-1,3.6709846E-3,-4.4518914E-3,-3.1211216E-3,4.318479E-1,2.2519825E-3,1.6119572E-3,1.7240252E-4],"split_indices":[2,2,2,2,0,2,0,0,0,1,0,0,0],"split_type":[0,0,0,0,0,0,0,0,0,0,0,0,0],"sum_hessian":[4.091041E2,1.7280478E2,2.3629933E2,1.2798509E2,4.4819683E1,1.13045204E2,1.2325413E2,1.0308527E2,2.4899824E1,6.5735535E1,4.7309666E1,2.8883797E1,3.6851738E1],"tree_param":{"num_deleted":"0","num_feature":"12","num_nodes":"13","size_leaf_vector":"1"}},{"base_weights":[-2.5566595E-3,-1.4968354E0,1.1205218E0,-4.248467E-3,-1.7015709E-3,2.8249648E-1,1.5821224E0,2.1281825E-5,1.3315711E-3,1.3381903E0,4.1649863E-3,3.988986E-3,2.3891828E-3],"categories":[],"categories_nodes":[],"categories_segments":[],"categories_sizes":[],"default_left":[0,0,0,0,0,0,0,0,0,0,0,0,0],"id":35,"left_children":[1,3,5,-1,-1,7,9,-1,-1,11,-1,-1,-1],"loss_changes":[6.924055E2,4.1061676E1,9.1119385E1,0E0,0E0,6.4092393E0,6.5799255E0,0E0,0E0,7.3035965E0,0E0,0E0,0E0],"parents":[2147483647,0,0,1,1,2,2,5,5,6,6,9,9],"right_children":[2,4,6,-1,-1,8,10,-1,-1,12,-1,-1,-1],"split_conditions":[2.8123736E-1,1.8749157E-1,4.6872893E-1,-4.248467E-3,-1.7015709E-3,3.7498313E-1,6.562205E-1,2.1281825E-5,1.3315711E-3,1E0,4.1649863E-3,3.988986E-3,2.3891828E-3],"split_indices":[2,2,2,0,0,2,2,0,0,11,0,0,0],"split_type":[0,0,0,0,0,0,0,0,0,0,0,0,0],"sum_hessian":[4.125901E2,1.7703775E2,2.3555234E2,1.2798509E2,4.9052654E1,8.366341E1,1.5188893E2,4.23297E1,4.1333706E1,6.3992546E1,8.789638E1,3.112478E1,3.2867767E1],"tree_param":{"num_deleted":"0","num_feature":"12","num_nodes":"13","size_leaf_vector":"1"}},{"base_weights":[3.672548E-2,-1.5244763E0,1.1269863E0,-4.4518914E-3,-9.576945E-1,4.8797115E-4,3.442727E-3,-2.7583835E-3,-5.422365E-1,-3.5877493E-3,-5.034555E-4],"categories":[],"categories_nodes":[],"categories_segments":[],"categories_sizes":[],"default_left":[0,0,0,0,0,0,0,0,0,0,0],"id":36,"left_children":[1,3,5,-1,7,-1,-1,-1,9,-1,-1],"loss_changes":[6.9676697E2,3.4006866E1,7.270328E1,0E0,5.608673E0,0E0,0E0,0E0,6.9499736E0,0E0,0E0],"parents":[2147483647,0,0,1,1,2,2,4,4,8,8],"right_children":[2,4,6,-1,8,-1,-1,-1,10,-1,-1],"split_conditions":[2.8123736E-1,1.4061868E-1,4.2185605E-1,-4.4518914E-3,2.3436446E-1,4.8797115E-4,3.442727E-3,-2.7583835E-3,3.749628E-1,-3.5877493E-3,-5.034555E-4],"split_indices":[2,2,2,0,2,0,0,0,1,0,0],"split_type":[0,0,0,0,0,0,0,0,0,0,0],"sum_hessian":[4.0935312E2,1.6832281E2,2.4103029E2,1.0333427E2,6.498854E1,6.3245552E1,1.7778474E2,4.3325695E1,2.1662848E1,5.477961E0,1.6184885E1],"tree_param":{"num_deleted":"0","num_feature":"12","num_nodes":"11","size_leaf_vector":"1"}},{"base_weights":[-4.5006264E-2,-1.5240741E0,2.5452077E-3,-4.4518914E-3,-9.931663E-1,-2.6268365E-3,-3.7810823E-4],"categories":[],"categories_nodes":[],"categories_segments":[],"categories_sizes":[],"default_left":[0,0,0,0,0,0,0],"id":37,"left_children":[1,3,-1,-1,5,-1,-1],"loss_changes":[6.7874835E2,3.3447174E1,0E0,0E0,6.9006653E0,0E0,0E0],"parents":[2147483647,0,0,1,1,4,4],"right_children":[2,4,-1,-1,6,-1,-1],"split_conditions":[2.8123736E-1,1.4061868E-1,2.5452077E-3,-4.4518914E-3,7.804371E-1,-2.6268365E-3,-3.7810823E-4],"split_indices":[2,2,0,0,1,0,0],"split_type":[0,0,0,0,0,0,0],"sum_hessian":[4.096021E2,1.7653975E2,2.3306235E2,1.0557526E2,7.09645E1,6.224956E1,8.714938E0],"tree_param":{"num_deleted":"0","num_feature":"12","num_nodes":"7","size_leaf_vector":"1"}},{"base_weights":[1.4609239E-3,-1.5290374E0,1.1301054E0,-4.273552E-3,-7.365637E-1,3.7454115E-4,1.4798126E0,-2.7236189E-3,-3.646543E-1,2.6657481E-3,3.8421175E-3,-2.931008E-3,-1.5488759E-4],"categories":[],"categories_nodes":[],"categories_segments":[],"categories_sizes":[],"default_left":[0,0,0,0,0,0,0,0,0,0,0,0,0],"id":38,"left_children":[1,3,5,-1,7,-1,9,-1,11,-1,-1,-1,-1],"loss_changes":[7.286177E2,3.9235626E1,8.251056E1,0E0,7.1338882E0,0E0,9.056549E0,0E0,6.3792305E0,0E0,0E0,0E0,0E0],"parents":[2147483647,0,0,1,1,2,2,4,4,6,6,8,8],"right_children":[2,4,6,-1,8,-1,10,-1,12,-1,-1,-1,-1],"split_conditions":[2.8123736E-1,1.8749157E-1,4.2185605E-1,-4.273552E-3,2.3436446E-1,3.7454115E-4,5.624747E-1,-2.7236189E-3,3.7180197E-1,2.6657481E-3,3.8421175E-3,-2.931008E-3,-1.5488759E-4],"split_indices":[2,2,2,0,2,0,2,0,1,0,0,0,0],"split_type":[0,0,0,0,0,0,0,0,0,0,0,0,0],"sum_hessian":[4.21803E2,1.7902974E2,2.4277328E2,1.3271606E2,4.631367E1,6.424155E1,1.7853174E2,2.1911844E1,2.4401827E1,5.1542637E1,1.26989105E2,6.224956E0,1.8176872E1],"tree_param":{"num_deleted":"0","num_feature":"12","num_nodes":"13","size_leaf_vector":"1"}},{"base_weights":[6.557711E-2,-1.6873876E0,1.0660412E0,-4.4518914E-3,-2.9134296E-3,3.2914532E-4,1.5227336E0,2.7247558E-3,3.9689504E-3],"categories":[],"categories_nodes":[],"categories_segments":[],"categories_sizes":[],"default_left":[0,0,0,0,0,0,0,0,0],"id":39,"left_children":[1,3,5,-1,-1,-1,7,-1,-1],"loss_changes":[6.982637E2,1.2780762E1,1.0730914E2,0E0,0E0,0E0,9.725708E0,0E0,0E0],"parents":[2147483647,0,0,1,1,2,2,6,6],"right_children":[2,4,6,-1,-1,-1,8,-1,-1],"split_conditions":[2.3436446E-1,1.4061868E-1,4.2185605E-1,-4.4518914E-3,-2.9134296E-3,3.2914532E-4,5.624747E-1,2.7247558E-3,3.9689504E-3],"split_indices":[2,2,2,0,0,0,2,0,0],"split_type":[0,0,0,0,0,0,0,0,0],"sum_hessian":[3.981482E2,1.4466798E2,2.5348021E2,1.0159128E2,4.3076694E1,8.366341E1,1.698168E2,4.979965E1,1.2001715E2],"tree_param":{"num_deleted":"0","num_feature":"12","num_nodes":"9","size_leaf_vector":"1"}},{"base_weights":[-2.0357748E-2],"categories":[],"categories_nodes":[],"categories_segments":[],"categories_sizes":[],"default_left":[0],"id":40,"left_children":[-1],"loss_changes":[0E0],"parents":[2147483647],"right_children":[-1],"split_conditions":[-4.8183763E-5],"split_indices":[0],"split_type":[0],"sum_hessian":[4.0686313E2],"tree_param":{"num_deleted":"0","num_feature":"12","num_nodes":"1","size_leaf_vector":"1"}},{"base_weights":[5.1164688E-3,-1.3736933E0,1.2111825E0,-4.2610182E-3,-5.8685994E-1,9.6312305E-4,3.5992914E-3,-2.3627712E-3,-3.7770402E-1,1.1074525E-4,-1.6185229E-3],"categories":[],"categories_nodes":[],"categories_segments":[],"categories_sizes":[],"default_left":[0,0,0,0,0,0,0,0,0,0,0],"id":41,"left_children":[1,3,5,-1,7,-1,-1,-1,9,-1,-1],"loss_changes":[6.815561E2,6.418851E1,5.442331E1,0E0,5.7851086E0,0E0,0E0,0E0,5.791894E0,0E0,0E0],"parents":[2147483647,0,0,1,1,2,2,4,4,8,8],"right_children":[2,4,6,-1,8,-1,-1,-1,10,-1,-1],"split_conditions":[3.2811025E-1,1.8749157E-1,4.6872893E-1,-4.2610182E-3,2.3436446E-1,9.6312305E-4,3.5992914E-3,-2.3627712E-3,4.400935E-1,1.1074525E-4,-1.6185229E-3],"split_indices":[2,2,2,0,2,0,0,0,1,0,0],"split_type":[0,0,0,0,0,0,0,0,0,0,0],"sum_hessian":[4.098511E2,1.9123065E2,2.1862045E2,1.2400112E2,6.722952E1,6.075557E1,1.5786488E2,2.265884E1,4.4570686E1,1.8674868E1,2.5895817E1],"tree_param":{"num_deleted":"0","num_feature":"12","num_nodes":"11","size_leaf_vector":"1"}},{"base_weights":[-2.4508448E-2],"categories":[],"categories_nodes":[],"categories_segments":[],"categories_sizes":[],"default_left":[0],"id":42,"left_children":[-1],"loss_changes":[0E0],"parents":[2147483647],"right_children":[-1],"split_conditions":[-5.8007852E-5],"split_indices":[0],"split_type":[0],"sum_hessian":[4.0561813E2],"tree_param":{"num_deleted":"0","num_feature":"12","num_nodes":"1","size_leaf_vector":"1"}},{"base_weights":[2.168343E-2,-3.5712356E-3,1.1080782E0,6.0730286E-2,3.4605025E-3,4.5222408E-1,-2.3931974E-1,1.5683247E-4,2.6162935E-3,-2.2792048E-3,2.128182E-5],"categories":[],"categories_nodes":[],"categories_segments":[],"categories_sizes":[],"default_left":[0,0,0,0,0,0,0,0,0,0,0],"id":43,"left_children":[1,-1,3,5,-1,7,9,-1,-1,-1,-1],"loss_changes":[6.7817554E2,0E0,8.843945E1,7.0783224E0,0E0,6.5910354E0,6.129737E0,0E0,0E0,0E0,0E0],"parents":[2147483647,0,0,2,2,3,3,5,5,6,6],"right_children":[2,-1,4,6,-1,8,10,-1,-1,-1,-1],"split_conditions":[2.8123736E-1,-3.5712356E-3,4.2185605E-1,4.3037453E-1,3.4605025E-3,3.4493604E-1,5.2635086E-1,1.5683247E-4,2.6162935E-3,-2.2792048E-3,2.128182E-5],"split_indices":[2,0,2,1,0,1,1,0,0,0,0],"split_type":[0,0,0,0,0,0,0,0,0,0,0],"sum_hessian":[4.0785913E2,1.693188E2,2.3854031E2,6.0257572E1,1.7828275E2,2.6144815E1,3.411276E1,1.6433884E1,9.710932E0,8.714938E0,2.539782E1],"tree_param":{"num_deleted":"0","num_feature":"12","num_nodes":"11","size_leaf_vector":"1"}},{"base_weights":[-6.283833E-2,-1.5203735E0,1.1044797E0,-4.326584E-3,-1.5953182E-3,5.5874807E-1,3.7755524E-3,6.0166186E-4,9.366383E-1,1.568254E-3,3.313158E-3],"categories":[],"categories_nodes":[],"categories_segments":[],"categories_sizes":[],"default_left":[0,0,0,0,0,0,0,0,0,0,0],"id":44,"left_children":[1,3,5,-1,-1,7,-1,-1,9,-1,-1],"loss_changes":[6.8969794E2,4.6934784E1,6.0278076E1,0E0,0E0,1.226469E1,0E0,0E0,6.0367546E0,0E0,0E0],"parents":[2147483647,0,0,1,1,2,2,5,5,8,8],"right_children":[2,4,6,-1,-1,8,-1,-1,10,-1,-1],"split_conditions":[2.8123736E-1,1.8749157E-1,5.624747E-1,-4.326584E-3,-1.5953182E-3,4.2185605E-1,3.7755524E-3,6.0166186E-4,6.148222E-1,1.568254E-3,3.313158E-3],"split_indices":[2,2,2,0,0,2,0,0,1,0,0],"split_type":[0,0,0,0,0,0,0,0,0,0,0],"sum_hessian":[4.0536914E2,1.8027472E2,2.250944E2,1.3221806E2,4.805666E1,1.0657124E2,1.1852316E2,5.9012585E1,4.7558662E1,2.987979E1,1.7678875E1],"tree_param":{"num_deleted":"0","num_feature":"12","num_nodes":"11","size_leaf_vector":"1"}},{"base_weights":[-6.9202255E-3,-5.5691388E-2,3.2887736E-1,-3.5324835E-3,2.5998028E-3,-1.2562083E0,3.6157952E-3,-3.892743E-3,-1.312125E-4],"categories":[],"categories_nodes":[],"categories_segments":[],"categories_sizes":[],"default_left":[0,0,0,0,0,0,0,0,0],"id":45,"left_children":[1,3,5,-1,-1,7,-1,-1,-1],"loss_changes":[6.720385E0,5.941544E2,9.888802E1,0E0,0E0,1.0453758E1,0E0,0E0,0E0],"parents":[2147483647,0,0,1,1,2,2,5,5],"right_children":[2,4,6,-1,-1,8,-1,-1,-1],"split_conditions":[7.804371E-1,2.8123736E-1,3.2811025E-1,-3.5324835E-3,2.5998028E-3,2.3436446E-1,3.6157952E-3,-3.892743E-3,-1.312125E-4],"split_indices":[1,2,2,0,0,2,0,0,0],"split_type":[0,0,0,0,0,0,0,0,0],"sum_hessian":[4.103491E2,3.5830847E2,5.204063E1,1.5960786E2,1.9870059E2,2.2409842E1,2.963079E1,1.693188E1,5.477961E0],"tree_param":{"num_deleted":"0","num_feature":"12","num_nodes":"9","size_leaf_vector":"1"}},{"base_weights":[-5.472098E-3,-3.5734528E-3,1.1535416E0,6.361111E-4,1.4581598E0,2.3902266E-3,3.8967468E-3],"categories":[],"categories_nodes":[],"categories_segments":[],"categories_sizes":[],"default_left":[0,0,0,0,0,0,0],"id":46,"left_children":[1,-1,3,-1,5,-1,-1],"loss_changes":[7.232693E2,0E0,6.3150757E1,0E0,1.470697E1,0E0,0E0],"parents":[2147483647,0,0,2,2,4,4],"right_children":[2,-1,4,-1,6,-1,-1],"split_conditions":[2.8123736E-1,-3.5734528E-3,4.2185605E-1,6.361111E-4,5.624747E-1,2.3902266E-3,3.8967468E-3],"split_indices":[2,0,2,0,2,0,0],"split_type":[0,0,0,0,0,0,0],"sum_hessian":[4.1483105E2,1.8052373E2,2.3430734E2,6.0008575E1,1.7429877E2,5.1542637E1,1.22756134E2],"tree_param":{"num_deleted":"0","num_feature":"12","num_nodes":"7","size_leaf_vector":"1"}},{"base_weights":[3.9701506E-2,-1.4798899E0,1.1581585E0,-4.216965E-3,-1.4717907E-3,1.8678923E-4,1.5349879E0,2.6424523E-3,4.0305057E-3],"categories":[],"categories_nodes":[],"categories_segments":[],"categories_sizes":[],"default_left":[0,0,0,0,0,0,0,0,0],"id":47,"left_children":[1,3,5,-1,-1,-1,7,-1,-1],"loss_changes":[7.0970105E2,4.5843933E1,9.78219E1,0E0,0E0,0E0,1.2529327E1,0E0,0E0],"parents":[2147483647,0,0,1,1,2,2,6,6],"right_children":[2,4,6,-1,-1,-1,8,-1,-1],"split_conditions":[2.8123736E-1,1.8749157E-1,4.2185605E-1,-4.216965E-3,-1.4717907E-3,1.8678923E-4,5.624747E-1,2.6424523E-3,4.0305057E-3],"split_indices":[2,2,2,0,0,0,2,0,0],"split_type":[0,0,0,0,0,0,0,0,0],"sum_hessian":[4.1757004E2,1.7703775E2,2.405323E2,1.3097307E2,4.6064674E1,6.224956E1,1.7828275E2,5.104464E1,1.272381E2],"tree_param":{"num_deleted":"0","num_feature":"12","num_nodes":"9","size_leaf_vector":"1"}},{"base_weights":[-5.472098E-3,-1.508656E0,1.116401E0,-4.2673186E-3,-7.3930377E-1,4.329058E-1,3.7805447E-3,-1.412344E-3,-4.071666E-3,4.5416952E-4,1.9936138E-3],"categories":[],"categories_nodes":[],"categories_segments":[],"categories_sizes":[],"default_left":[0,0,0,0,0,0,0,0,0,0,0],"id":48,"left_children":[1,3,5,-1,7,9,-1,-1,-1,-1,-1],"loss_changes":[6.995635E2,4.0140778E1,7.807709E1,0E0,6.8611755E0,9.680342E0,0E0,0E0,0E0,0E0,0E0],"parents":[2147483647,0,0,1,1,2,2,4,4,5,5],"right_children":[2,4,6,-1,8,10,-1,-1,-1,-1,-1],"split_conditions":[2.8123736E-1,1.8749157E-1,5.156018E-1,-4.2673186E-3,1E0,4.2185605E-1,3.7805447E-3,-1.412344E-3,-4.071666E-3,4.5416952E-4,1.9936138E-3],"split_indices":[2,2,2,0,3,2,0,0,0,0,0],"split_type":[0,0,0,0,0,0,0,0,0,0,0],"sum_hessian":[4.1483105E2,1.7728674E2,2.3754433E2,1.282341E2,4.9052654E1,9.810531E1,1.3943901E2,4.2827698E1,6.224956E0,6.1751564E1,3.6353745E1],"tree_param":{"num_deleted":"0","num_feature":"12","num_nodes":"11","size_leaf_vector":"1"}},{"base_weights":[2.060006E-3,-1.4933673E0,1.1216731E0,-1.7744468E0,-1.6561579E-3,3.1081334E-1,3.6084093E-3,-4.4518914E-3,-3.2310016E-3,3.5173663E-5,1.4585754E-3],"categories":[],"categories_nodes":[],"categories_segments":[],"categories_sizes":[],"default_left":[0,0,0,0,0,0,0,0,0,0,0],"id":49,"left_children":[1,3,5,7,-1,9,-1,-1,-1,-1,-1],"loss_changes":[6.962192E2,3.9714905E1,7.7683685E1,5.7308044E0,0E0,7.135108E0,0E0,0E0,0E0,0E0,0E0],"parents":[2147483647,0,0,1,1,2,2,3,3,5,5],"right_children":[2,4,6,8,-1,10,-1,-1,-1,-1,-1],"split_conditions":[2.8123736E-1,1.8749157E-1,4.6872893E-1,1.4061868E-1,-1.6561579E-3,3.7498313E-1,3.6084093E-3,-4.4518914E-3,-3.2310016E-3,3.5173663E-5,1.4585754E-3],"split_indices":[2,2,2,2,0,2,0,0,0,0,0],"split_type":[0,0,0,0,0,0,0,0,0,0,0],"sum_hessian":[4.1582706E2,1.7803374E2,2.3779332E2,1.3147107E2,4.656267E1,7.893244E1,1.5886087E2,1.0433026E2,2.7140808E1,4.008872E1,3.8843727E1],"tree_param":{"num_deleted":"0","num_feature":"12","num_nodes":"11","size_leaf_vector":"1"}},{"base_weights":[8.704398E-3,-1.5405874E0,1.179354E0,-4.2308336E-3,-2.075518E-3,2.917059E-1,1.4918879E0,6.6773957E-1,2.9269631E-5,2.7451245E-3,3.8727953E-3,8.482116E-5,2.677227E-3],"categories":[],"categories_nodes":[],"categories_segments":[],"categories_sizes":[],"default_left":[0,0,0,0,0,0,0,0,0,0,0,0,0],"id":50,"left_children":[1,3,5,-1,-1,7,9,11,-1,-1,-1,-1,-1],"loss_changes":[7.4288635E2,2.8893005E1,6.472528E1,0E0,0E0,6.3818283E0,8.272766E0,7.5828247E0,0E0,0E0,0E0,0E0,0E0],"parents":[2147483647,0,0,1,1,2,2,5,5,6,6,7,7],"right_children":[2,4,6,-1,-1,8,10,12,-1,-1,-1,-1,-1],"split_conditions":[2.8123736E-1,1.8749157E-1,4.2185605E-1,-4.2308336E-3,-2.075518E-3,4.270111E-1,5.624747E-1,1E0,2.9269631E-5,2.7451245E-3,3.8727953E-3,8.482116E-5,2.677227E-3],"split_indices":[2,2,2,0,0,1,2,11,0,0,0,0,0],"split_type":[0,0,0,0,0,0,0,0,0,0,0,0,0],"sum_hessian":[4.096021E2,1.7629076E2,2.3331136E2,1.284831E2,4.7807663E1,6.075557E1,1.7255579E2,2.5895817E1,3.4859753E1,5.228963E1,1.2026615E2,1.0955922E1,1.4939895E1],"tree_param":{"num_deleted":"0","num_feature":"12","num_nodes":"13","size_leaf_vector":"1"}},{"base_weights":[3.365876E-2],"categories":[],"categories_nodes":[],"categories_segments":[],"categories_sizes":[],"default_left":[0],"id":51,"left_children":[-1],"loss_changes":[0E0],"parents":[2147483647],"right_children":[-1],"split_conditions":[7.966528E-5],"split_indices":[0],"split_type":[0],"sum_hessian":[4.1732104E2],"tree_param":{"num_deleted":"0","num_feature":"12","num_nodes":"1","size_leaf_vector":"1"}},{"base_weights":[3.3942565E-2,-3.5525365E-3,2.7047154E-3],"categories":[],"categories_nodes":[],"categories_segments":[],"categories_sizes":[],"default_left":[0,0,0],"id":52,"left_children":[1,-1,-1],"loss_changes":[6.9413666E2,0E0,0E0],"parents":[2147483647,0,0],"right_children":[2,-1,-1],"split_conditions":[2.8123736E-1,-3.5525365E-3,2.7047154E-3],"split_indices":[2,0,0],"split_type":[0,0,0],"sum_hessian":[4.0785913E2,1.710618E2,2.3679733E2],"tree_param":{"num_deleted":"0","num_feature":"12","num_nodes":"3","size_leaf_vector":"1"}},{"base_weights":[2.8905084E-3],"categories":[],"categories_nodes":[],"categories_segments":[],"categories_sizes":[],"default_left":[0],"id":53,"left_children":[-1],"loss_changes":[0E0],"parents":[2147483647],"right_children":[-1],"split_conditions":[6.841404E-6],"split_indices":[0],"split_type":[0],"sum_hessian":[4.1458206E2],"tree_param":{"num_deleted":"0","num_feature":"12","num_nodes":"1","size_leaf_vector":"1"}},{"base_weights":[5.0765026E-2],"categories":[],"categories_nodes":[],"categories_segments":[],"categories_sizes":[],"default_left":[0],"id":54,"left_children":[-1],"loss_changes":[0E0],"parents":[2147483647],"right_children":[-1],"split_conditions":[1.2015327E-4],"split_indices":[0],"split_type":[0],"sum_hessian":[4.125901E2],"tree_param":{"num_deleted":"0","num_feature":"12","num_nodes":"1","size_leaf_vector":"1"}},{"base_weights":[1.1334988E-2],"categories":[],"categories_nodes":[],"categories_segments":[],"categories_sizes":[],"default_left":[0],"id":55,"left_children":[-1],"loss_changes":[0E0],"parents":[2147483647],"right_children":[-1],"split_conditions":[2.6828231E-5],"split_indices":[0],"split_type":[0],"sum_hessian":[4.0163416E2],"tree_param":{"num_deleted":"0","num_feature":"12","num_nodes":"1","size_leaf_vector":"1"}},{"base_weights":[-5.5437673E-2],"categories":[],"categories_nodes":[],"categories_segments":[],"categories_sizes":[],"default_left":[0],"id":56,"left_children":[-1],"loss_changes":[0E0],"parents":[2147483647],"right_children":[-1],"split_conditions":[-1.3121273E-4],"split_indices":[0],"split_type":[0],"sum_hessian":[4.0810812E2],"tree_param":{"num_deleted":"0","num_feature":"12","num_nodes":"1","size_leaf_vector":"1"}},{"base_weights":[-4.4085912E-4,-1.6543208E0,2.4594918E-3,-4.4518914E-3,-2.7323044E-3],"categories":[],"categories_nodes":[],"categories_segments":[],"categories_sizes":[],"default_left":[0,0,0,0,0],"id":57,"left_children":[1,3,-1,-1,-1],"loss_changes":[7.076716E2,1.7996979E1,0E0,0E0,0E0],"parents":[2147483647,0,0,1,1],"right_children":[2,4,-1,-1,-1],"split_conditions":[2.3436446E-1,1.4061868E-1,2.4594918E-3,-4.4518914E-3,-2.7323044E-3],"split_indices":[2,2,0,0,0],"split_type":[0,0,0,0,0],"sum_hessian":[4.115941E2,1.5886087E2,2.5273322E2,1.0931023E2,4.955065E1],"tree_param":{"num_deleted":"0","num_feature":"12","num_nodes":"5","size_leaf_vector":"1"}},{"base_weights":[-1.6230855E-2,-1.4781575E0,1.0734826E0,-4.2255702E-3,-1.5072548E-3,2.2586834E-1,3.5308772E-3,-2.8041596E-4,1.2170471E-3],"categories":[],"categories_nodes":[],"categories_segments":[],"categories_sizes":[],"default_left":[0,0,0,0,0,0,0,0,0],"id":58,"left_children":[1,3,5,-1,-1,7,-1,-1,-1],"loss_changes":[6.3904254E2,4.4270447E1,8.1490265E1,0E0,0E0,7.540318E0,0E0,0E0,0E0],"parents":[2147483647,0,0,1,1,2,2,5,5],"right_children":[2,4,6,-1,-1,8,-1,-1,-1],"split_conditions":[2.8123736E-1,1.8749157E-1,4.6872893E-1,-4.2255702E-3,-1.5072548E-3,1E0,3.5308772E-3,-2.8041596E-4,1.2170471E-3],"split_indices":[2,2,2,0,0,11,0,0,0],"split_type":[0,0,0,0,0,0,0,0,0],"sum_hessian":[4.0113617E2,1.7131079E2,2.2982538E2,1.2549511E2,4.5815678E1,7.5944466E1,1.538809E2,3.4610756E1,4.1333706E1],"tree_param":{"num_deleted":"0","num_feature":"12","num_nodes":"9","size_leaf_vector":"1"}},{"base_weights":[3.843239E-2],"categories":[],"categories_nodes":[],"categories_segments":[],"categories_sizes":[],"default_left":[0],"id":59,"left_children":[-1],"loss_changes":[0E0],"parents":[2147483647],"right_children":[-1],"split_conditions":[9.096375E-5],"split_indices":[0],"split_type":[0],"sum_hessian":[4.115941E2],"tree_param":{"num_deleted":"0","num_feature":"12","num_nodes":"1","size_leaf_vector":"1"}},{"base_weights":[-3.6810156E-2,-3.625327E-3,1.0816188E0,1.0446066E-4,3.3958226E-3],"categories":[],"categories_nodes":[],"categories_segments":[],"categories_sizes":[],"default_left":[0,0,0,0,0],"id":60,"left_children":[1,-1,3,-1,-1],"loss_changes":[6.9357184E2,0E0,8.693558E1,0E0,0E0],"parents":[2147483647,0,0,2,2],"right_children":[2,-1,4,-1,-1],"split_conditions":[2.8123736E-1,-3.625327E-3,4.2185605E-1,1.0446066E-4,3.3958226E-3],"split_indices":[2,0,2,0,0],"split_type":[0,0,0,0,0],"sum_hessian":[4.1483105E2,1.7753575E2,2.3729532E2,6.0257572E1,1.7703775E2],"tree_param":{"num_deleted":"0","num_feature":"12","num_nodes":"5","size_leaf_vector":"1"}},{"base_weights":[-4.144664E-2,-7.1485996E-2,4.3763444E-1,-3.7163475E-3,2.555015E-3,6.2336266E-2,1.1024475E0,-3.3112273E-3,1.0497267E0,-2.0755115E-3,5.0535933E-3,3.912937E-3,-4.912677E-4],"categories":[],"categories_nodes":[],"categories_segments":[],"categories_sizes":[],"default_left":[0,0,0,0,0,0,0,0,0,0,0,0,0],"id":61,"left_children":[1,3,5,-1,-1,7,9,-1,11,-1,-1,-1,-1],"loss_changes":[5.891118E0,6.644544E2,6.026208E0,0E0,0E0,2.2275526E1,1.7814198E1,0E0,6.9905157E0,0E0,0E0,0E0,0E0],"parents":[2147483647,0,0,1,1,2,2,5,5,6,6,8,8],"right_children":[2,4,6,-1,-1,8,10,-1,12,-1,-1,-1,-1],"split_conditions":[9.4451874E-1,2.8123736E-1,5.599839E-1,-3.7163475E-3,2.555015E-3,2.8123736E-1,2.8123736E-1,-3.3112273E-3,4.6626616E-1,-2.0755115E-3,5.0535933E-3,3.912937E-3,-4.912677E-4],"split_indices":[0,2,1,0,0,2,2,0,1,0,0,0,0],"split_type":[0,0,0,0,0,0,0,0,0,0,0,0,0],"sum_hessian":[4.0935312E2,3.852003E2,2.415283E1,1.6732681E2,2.1787346E2,1.5437891E1,8.714938E0,6.224956E0,9.2129345E0,2.987979E0,5.7269597E0,6.224956E0,2.987979E0],"tree_param":{"num_deleted":"0","num_feature":"12","num_nodes":"13","size_leaf_vector":"1"}},{"base_weights":[-3.8425874E-2],"categories":[],"categories_nodes":[],"categories_segments":[],"categories_sizes":[],"default_left":[0],"id":62,"left_children":[-1],"loss_changes":[0E0],"parents":[2147483647],"right_children":[-1],"split_conditions":[-9.094833E-5],"split_indices":[0],"split_type":[0],"sum_hessian":[4.1682306E2],"tree_param":{"num_deleted":"0","num_feature":"12","num_nodes":"1","size_leaf_vector":"1"}},{"base_weights":[-1.8434362E-2],"categories":[],"categories_nodes":[],"categories_segments":[],"categories_sizes":[],"default_left":[0],"id":63,"left_children":[-1],"loss_changes":[0E0],"parents":[2147483647],"right_children":[-1],"split_conditions":[-4.3631397E-5],"split_indices":[0],"split_type":[0],"sum_hessian":[4.0536914E2],"tree_param":{"num_deleted":"0","num_feature":"12","num_nodes":"1","size_leaf_vector":"1"}},{"base_weights":[-1.2419927E-2],"categories":[],"categories_nodes":[],"categories_segments":[],"categories_sizes":[],"default_left":[0],"id":64,"left_children":[-1],"loss_changes":[0E0],"parents":[2147483647],"right_children":[-1],"split_conditions":[-2.939612E-5],"split_indices":[0],"split_type":[0],"sum_hessian":[4.1209207E2],"tree_param":{"num_deleted":"0","num_feature":"12","num_nodes":"1","size_leaf_vector":"1"}},{"base_weights":[-1.5809454E-2,-1.5203735E0,2.642645E-3,-4.4518914E-3,-9.617581E-1,-2.9510236E-3,-9.126117E-4],"categories":[],"categories_nodes":[],"categories_segments":[],"categories_sizes":[],"default_left":[0,0,0,0,0,0,0],"id":65,"left_children":[1,3,-1,-1,5,-1,-1],"loss_changes":[7.1521844E2,3.6309967E1,0E0,0E0,1.1614517E1,0E0,0E0],"parents":[2147483647,0,0,1,1,4,4],"right_children":[2,4,-1,-1,6,-1,-1],"split_conditions":[2.8123736E-1,1.4061868E-1,2.642645E-3,-4.4518914E-3,2.3436446E-1,-2.9510236E-3,-9.126117E-4],"split_indices":[2,2,0,0,2,0,0],"split_type":[0,0,0,0,0,0,0],"sum_hessian":[4.1981104E2,1.8027472E2,2.395363E2,1.0955923E2,7.07155E1,4.7309666E1,2.3405834E1],"tree_param":{"num_deleted":"0","num_feature":"12","num_nodes":"7","size_leaf_vector":"1"}},{"base_weights":[-3.237183E-2,-1.4810147E0,2.4994388E-3,-4.268388E-3,-6.2461805E-1,-2.709216E-3,-9.3133823E-4],"categories":[],"categories_nodes":[],"categories_segments":[],"categories_sizes":[],"default_left":[0,0,0,0,0,0,0],"id":66,"left_children":[1,3,-1,-1,5,-1,-1],"loss_changes":[6.5248926E2,4.9016296E1,0E0,0E0,5.835911E0,0E0,0E0],"parents":[2147483647,0,0,1,1,4,4],"right_children":[2,4,-1,-1,6,-1,-1],"split_conditions":[2.8123736E-1,1.8749157E-1,2.4994388E-3,-4.268388E-3,3.749628E-1,-2.709216E-3,-9.3133823E-4],"split_indices":[2,2,0,0,1,0,0],"split_type":[0,0,0,0,0,0,0],"sum_hessian":[4.1383508E2,1.7753575E2,2.3629933E2,1.289811E2,4.8554657E1,1.4939895E1,3.361476E1],"tree_param":{"num_deleted":"0","num_feature":"12","num_nodes":"7","size_leaf_vector":"1"}},{"base_weights":[-3.8931098E-2,-1.5476485E0,1.0996939E0,-4.2925817E-3,-7.797475E-1,1.0497728E-3,3.4188991E-3,-3.681172E-3,-1.3897188E-3],"categories":[],"categories_nodes":[],"categories_segments":[],"categories_sizes":[],"default_left":[0,0,0,0,0,0,0,0,0],"id":67,"left_children":[1,3,5,-1,7,-1,-1,-1,-1],"loss_changes":[7.190393E2,3.6769135E1,5.3968292E1,0E0,6.917536E0,0E0,0E0,0E0,0E0],"parents":[2147483647,0,0,1,1,2,2,4,4],"right_children":[2,4,6,-1,8,-1,-1,-1,-1],"split_conditions":[2.8123736E-1,1.8749157E-1,4.6872893E-1,-4.2925817E-3,2.8070077E-1,1.0497728E-3,3.4188991E-3,-3.681172E-3,-1.3897188E-3],"split_indices":[2,2,2,0,1,0,0,0,0],"split_type":[0,0,0,0,0,0,0,0,0],"sum_hessian":[4.1856604E2,1.8002573E2,2.3854031E2,1.3371205E2,4.631367E1,8.216942E1,1.563709E2,9.2129345E0,3.710074E1],"tree_param":{"num_deleted":"0","num_feature":"12","num_nodes":"9","size_leaf_vector":"1"}},{"base_weights":[-8.8432105E-3],"categories":[],"categories_nodes":[],"categories_segments":[],"categories_sizes":[],"default_left":[0],"id":68,"left_children":[-1],"loss_changes":[0E0],"parents":[2147483647],"right_children":[-1],"split_conditions":[-2.0930565E-5],"split_indices":[0],"split_type":[0],"sum_hessian":[4.1557806E2],"tree_param":{"num_deleted":"0","num_feature":"12","num_nodes":"1","size_leaf_vector":"1"}},{"base_weights":[2.7919343E-2,-3.5420803E-3,2.6970317E-3],"categories":[],"categories_nodes":[],"categories_segments":[],"categories_sizes":[],"default_left":[0,0,0],"id":69,"left_children":[1,-1,-1],"loss_changes":[7.0042413E2,0E0,0E0],"parents":[2147483647,0,0],"right_children":[2,-1,-1],"split_conditions":[2.8123736E-1,-3.5420803E-3,2.6970317E-3],"split_indices":[2,0,0],"split_type":[0,0,0],"sum_hessian":[4.1333707E2,1.7429877E2,2.3903831E2],"tree_param":{"num_deleted":"0","num_feature":"12","num_nodes":"3","size_leaf_vector":"1"}},{"base_weights":[6.4619756E-3,-1.5035454E0,2.6477696E-3,-1.696589E0,-8.5272384E-4,-4.4518914E-3,-3.005403E-3],"categories":[],"categories_nodes":[],"categories_segments":[],"categories_sizes":[],"default_left":[0,0,0,0,0,0,0],"id":70,"left_children":[1,3,-1,5,-1,-1,-1],"loss_changes":[7.029693E2,3.918225E1,0E0,1.1950348E1,0E0,0E0,0E0],"parents":[2147483647,0,0,1,1,3,3],"right_children":[2,4,-1,6,-1,-1,-1],"split_conditions":[2.8123736E-1,2.3436446E-1,2.6477696E-3,1.4061868E-1,-8.5272384E-4,-4.4518914E-3,-3.005403E-3],"split_indices":[2,2,0,2,0,0,0],"split_type":[0,0,0,0,0,0,0],"sum_hessian":[4.1856604E2,1.7753575E2,2.4103029E2,1.5188893E2,2.5646818E1,1.0607325E2,4.5815678E1],"tree_param":{"num_deleted":"0","num_feature":"12","num_nodes":"7","size_leaf_vector":"1"}},{"base_weights":[-5.9656333E-3,-2.6359382E-1,8.527769E-2,-3.9539845E-3,1.0099598E0,-1.4268731E0,1.1406972E0,5.2191294E-4,3.4910543E-3,-4.1956785E-3,-5.233817E-1,3.4256753E-1,3.5766526E-3,-8.3823263E-4,-3.5466E-3,5.053582E-3,6.205466E-4],"categories":[],"categories_nodes":[],"categories_segments":[],"categories_sizes":[],"default_left":[0,0,0,0,0,0,0,0,0,0,0,0,0,0,0,0,0],"id":71,"left_children":[1,3,5,-1,7,9,11,-1,-1,-1,13,15,-1,-1,-1,-1,-1],"loss_changes":[9.891849E0,1.9720674E2,4.9594226E2,0E0,2.1207008E1,3.9909454E1,5.4110596E1,0E0,0E0,0E0,5.8342667E0,8.360019E0,0E0,0E0,0E0,0E0,0E0],"parents":[2147483647,0,0,1,1,2,2,4,4,5,5,6,6,10,10,11,11],"right_children":[2,4,6,-1,8,10,12,-1,-1,-1,14,16,-1,-1,-1,-1,-1],"split_conditions":[3.4493604E-1,2.8123736E-1,2.8123736E-1,-3.9539845E-3,4.6872893E-1,1.8749157E-1,4.6872893E-1,5.2191294E-4,3.4910543E-3,-4.1956785E-3,8.323676E-1,3.688376E-1,3.5766526E-3,-8.3823263E-4,-3.5466E-3,5.053582E-3,6.205466E-4],"split_indices":[1,2,2,0,2,2,2,0,0,0,0,1,0,0,0,0,0],"split_type":[0,0,0,0,0,0,0,0,0,0,0,0,0,0,0,0,0],"sum_hessian":[4.2080704E2,1.1005722E2,3.1074982E2,5.228963E1,5.7767593E1,1.277361E2,1.830137E2,2.1413849E1,3.6353745E1,9.237835E1,3.535775E1,5.801659E1,1.24997116E2,3.0128786E1,5.228963E0,2.4899824E0,5.5526608E1],"tree_param":{"num_deleted":"0","num_feature":"12","num_nodes":"17","size_leaf_vector":"1"}},{"base_weights":[3.4638199E-3,-1.4735878E0,2.656654E-3,-1.7781602E0,-6.677395E-1,-4.4518914E-3,-3.1511388E-3,-2.5099083E-3,-7.07303E-4],"categories":[],"categories_nodes":[],"categories_segments":[],"categories_sizes":[],"default_left":[0,0,0,0,0,0,0,0,0],"id":72,"left_children":[1,3,-1,5,7,-1,-1,-1,-1],"loss_changes":[6.6834344E2,4.2779755E1,0E0,5.8083496E0,6.9258347E0,0E0,0E0,0E0,0E0],"parents":[2147483647,0,0,1,1,3,3,4,4],"right_children":[2,4,-1,6,8,-1,-1,-1,-1],"split_conditions":[2.8123736E-1,1.8749157E-1,2.656654E-3,1.4061868E-1,2.3436446E-1,-4.4518914E-3,-3.1511388E-3,-2.5099083E-3,-7.07303E-4],"split_indices":[2,2,0,2,2,0,0,0,0],"split_type":[0,0,0,0,0,0,0,0,0],"sum_hessian":[4.0437314E2,1.7429877E2,2.3007437E2,1.26491104E2,4.7807663E1,1.0283627E2,2.3654833E1,2.3156836E1,2.4650826E1],"tree_param":{"num_deleted":"0","num_feature":"12","num_nodes":"9","size_leaf_vector":"1"}},{"base_weights":[3.3600032E-2,-1.6962076E0,1.0052719E0,-4.4518914E-3,-2.933262E-3,1.6506239E-4,3.4944275E-3],"categories":[],"categories_nodes":[],"categories_segments":[],"categories_sizes":[],"default_left":[0,0,0,0,0,0,0],"id":73,"left_children":[1,3,5,-1,-1,-1,-1],"loss_changes":[6.830208E2,1.2336212E1,1.1468683E2,0E0,0E0,0E0,0E0],"parents":[2147483647,0,0,1,1,2,2],"right_children":[2,4,6,-1,-1,-1,-1],"split_conditions":[2.3436446E-1,1.4061868E-1,4.2185605E-1,-4.4518914E-3,-2.933262E-3,1.6506239E-4,3.4944275E-3],"split_indices":[2,2,2,0,0,0,0],"split_type":[0,0,0,0,0,0,0],"sum_hessian":[4.063651E2,1.4616197E2,2.6020316E2,1.0408126E2,4.2080704E1,8.714938E1,1.7305377E2],"tree_param":{"num_deleted":"0","num_feature":"12","num_nodes":"7","size_leaf_vector":"1"}},{"base_weights":[-2.0799492E-2],"categories":[],"categories_nodes":[],"categories_segments":[],"categories_sizes":[],"default_left":[0],"id":74,"left_children":[-1],"loss_changes":[0E0],"parents":[2147483647],"right_children":[-1],"split_conditions":[-4.9229304E-5],"split_indices":[0],"split_type":[0],"sum_hessian":[4.2255002E2],"tree_param":{"num_deleted":"0","num_feature":"12","num_nodes":"1","size_leaf_vector":"1"}},{"base_weights":[3.287155E-2,-3.5119334E-3,1.1864414E0,3.304584E-1,3.827575E-3,-3.2139826E-5,1.5861889E-3],"categories":[],"categories_nodes":[],"categories_segments":[],"categories_sizes":[],"default_left":[0,0,0,0,0,0,0],"id":75,"left_children":[1,-1,3,5,-1,-1,-1],"loss_changes":[7.240403E2,0E0,8.666144E1,9.1959715E0,0E0,0E0,0E0],"parents":[2147483647,0,0,2,2,3,3],"right_children":[2,-1,4,6,-1,-1,-1],"split_conditions":[2.8123736E-1,-3.5119334E-3,4.6872893E-1,3.7498313E-1,3.827575E-3,-3.2139826E-5,1.5861889E-3],"split_indices":[2,0,2,2,0,0,0],"split_type":[0,0,0,0,0,0,0],"sum_hessian":[4.1383508E2,1.7878073E2,2.3505434E2,7.868344E1,1.563709E2,3.9092724E1,3.959072E1],"tree_param":{"num_deleted":"0","num_feature":"12","num_nodes":"7","size_leaf_vector":"1"}},{"base_weights":[-2.2032626E-3],"categories":[],"categories_nodes":[],"categories_segments":[],"categories_sizes":[],"default_left":[0],"id":76,"left_children":[-1],"loss_changes":[0E0],"parents":[2147483647],"right_children":[-1],"split_conditions":[-5.2147952E-6],"split_indices":[0],"split_type":[0],"sum_hessian":[4.098511E2],"tree_param":{"num_deleted":"0","num_feature":"12","num_nodes":"1","size_leaf_vector":"1"}},{"base_weights":[5.174948E-2,-2.8526261E-3,1.3647444E0,8.4723884E-1,3.915879E-3,1.0512886E-3,2.4700572E-3],"categories":[],"categories_nodes":[],"categories_segments":[],"categories_sizes":[],"default_left":[0,0,0,0,0,0,0],"id":77,"left_children":[1,-1,3,5,-1,-1,-1],"loss_changes":[6.7889307E2,0E0,3.0165161E1,5.7152824E0,0E0,0E0,0E0],"parents":[2147483647,0,0,2,2,3,3],"right_children":[2,-1,4,6,-1,-1,-1],"split_conditions":[3.7498313E-1,-2.8526261E-3,5.624747E-1,4.2185605E-1,3.915879E-3,1.0512886E-3,2.4700572E-3],"split_indices":[2,0,2,2,0,0,0],"split_type":[0,0,0,0,0,0,0],"sum_hessian":[4.113451E2,2.1015451E2,2.0119058E2,7.220949E1,1.289811E2,2.3654833E1,4.8554657E1],"tree_param":{"num_deleted":"0","num_feature":"12","num_nodes":"7","size_leaf_vector":"1"}},{"base_weights":[1.6699778E-2,-1.9140568E-1,9.0901315E-2,-3.9211274E-3,1.0214518E0,-1.5026649E0,2.8255458E-3,6.238572E-4,3.786202E-3,-4.3202364E-3,-6.586451E-1,-2.5795961E-3,-6.232897E-4],"categories":[],"categories_nodes":[],"categories_segments":[],"categories_sizes":[],"default_left":[0,0,0,0,0,0,0,0,0,0,0,0,0],"id":78,"left_children":[1,3,5,-1,7,9,-1,-1,-1,-1,11,-1,-1],"loss_changes":[6.3634214E0,1.924934E2,5.3390216E2,0E0,2.5969692E1,3.38356E1,0E0,0E0,0E0,0E0,5.8576765E0,0E0,0E0],"parents":[2147483647,0,0,1,1,2,2,4,4,5,5,10,10],"right_children":[2,4,6,-1,8,10,-1,-1,-1,-1,12,-1,-1],"split_conditions":[3.4493604E-1,2.8123736E-1,2.8123736E-1,-3.9211274E-3,5.156018E-1,1.8749157E-1,2.8255458E-3,6.238572E-4,3.786202E-3,-4.3202364E-3,2.3436446E-1,-2.5795961E-3,-6.232897E-4],"split_indices":[1,2,2,0,2,2,0,0,0,0,2,0,0],"split_type":[0,0,0,0,0,0,0,0,0,0,0,0,0],"sum_hessian":[4.1209207E2,1.0831423E2,3.0377786E2,4.9052654E1,5.926158E1,1.2425012E2,1.7952773E2,2.5646818E1,3.361476E1,8.988837E1,3.4361755E1,1.6433884E1,1.7927874E1],"tree_param":{"num_deleted":"0","num_feature":"12","num_nodes":"13","size_leaf_vector":"1"}},{"base_weights":[1.4528217E-4,-1.5448357E0,1.1789458E0,-4.286738E-3,-8.071126E-1,6.98242E-4,1.6018211E0,-2.762025E-3,-1.1200687E-3,2.7693352E-3,4.057058E-3],"categories":[],"categories_nodes":[],"categories_segments":[],"categories_sizes":[],"default_left":[0,0,0,0,0,0,0,0,0,0,0],"id":79,"left_children":[1,3,5,-1,7,-1,9,-1,-1,-1,-1],"loss_changes":[7.387217E2,3.4489258E1,8.600067E1,0E0,5.5943527E0,0E0,7.545532E0,0E0,0E0,0E0,0E0],"parents":[2147483647,0,0,1,1,2,2,4,4,6,6],"right_children":[2,4,6,-1,8,-1,10,-1,-1,-1,-1],"split_conditions":[2.8123736E-1,1.8749157E-1,4.6872893E-1,-4.286738E-3,2.3436446E-1,6.98242E-4,5.624747E-1,-2.762025E-3,-1.1200687E-3,2.7693352E-3,4.057058E-3],"split_indices":[2,2,2,0,2,0,2,0,0,0,0],"split_type":[0,0,0,0,0,0,0,0,0,0,0],"sum_hessian":[4.0561813E2,1.7554376E2,2.3007437E2,1.289811E2,4.656267E1,7.445047E1,1.556239E2,2.2409842E1,2.415283E1,3.2120773E1,1.2350313E2],"tree_param":{"num_deleted":"0","num_feature":"12","num_nodes":"11","size_leaf_vector":"1"}},{"base_weights":[2.7799688E-2,-1.4543976E0,1.1795607E0,-4.253485E-3,-1.2833936E-3,6.177049E-4,1.4976832E0,2.5618703E-3,3.960568E-3],"categories":[],"categories_nodes":[],"categories_segments":[],"categories_sizes":[],"default_left":[0,0,0,0,0,0,0,0,0],"id":80,"left_children":[1,3,5,-1,-1,-1,7,-1,-1],"loss_changes":[7.047729E2,5.64328E1,6.788736E1,0E0,0E0,0E0,1.2588196E1,0E0,0E0],"parents":[2147483647,0,0,1,1,2,2,6,6],"right_children":[2,4,6,-1,-1,-1,8,-1,-1],"split_conditions":[2.8123736E-1,1.8749157E-1,4.2185605E-1,-4.253485E-3,-1.2833936E-3,6.177049E-4,5.624747E-1,2.5618703E-3,3.960568E-3],"split_indices":[2,2,2,0,0,0,2,0,0],"split_type":[0,0,0,0,0,0,0,0,0],"sum_hessian":[4.1283908E2,1.8052373E2,2.3231535E2,1.3122208E2,4.930165E1,5.975958E1,1.7255579E2,5.1293636E1,1.21262146E2],"tree_param":{"num_deleted":"0","num_feature":"12","num_nodes":"9","size_leaf_vector":"1"}},{"base_weights":[-1.4995901E-2,-1.5121682E0,1.1094967E0,-4.212412E-3,-1.7735478E-3,1.6756161E-3,1.1697035E0,3.6842973E-4,1.5287013E0,2.5613075E-3,4.019439E-3],"categories":[],"categories_nodes":[],"categories_segments":[],"categories_sizes":[],"default_left":[0,0,0,0,0,0,0,0,0,0,0],"id":81,"left_children":[1,3,5,-1,-1,-1,7,-1,9,-1,-1],"loss_changes":[6.812053E2,3.542621E1,5.586273E0,0E0,0E0,0E0,7.315045E1,0E0,1.1233856E1,0E0,0E0],"parents":[2147483647,0,0,1,1,2,2,6,6,8,8],"right_children":[2,4,6,-1,-1,-1,8,-1,10,-1,-1],"split_conditions":[2.8123736E-1,1.8749157E-1,2.3175856E-1,-4.212412E-3,-1.7735478E-3,1.6756161E-3,4.2185605E-1,3.6842973E-4,5.624747E-1,2.5613075E-3,4.019439E-3],"split_indices":[2,2,1,0,0,0,2,0,2,0,0],"split_type":[0,0,0,0,0,0,0,0,0,0,0],"sum_hessian":[4.0462213E2,1.7355177E2,2.3107037E2,1.284831E2,4.506868E1,3.0128786E1,2.0094157E2,5.2538628E1,1.4840295E2,4.0835712E1,1.0756724E2],"tree_param":{"num_deleted":"0","num_feature":"12","num_nodes":"11","size_leaf_vector":"1"}},{"base_weights":[2.1553062E-2,-1.4862893E0,1.1050701E0,-4.4518914E-3,-2.1434145E-3,3.7434888E-1,1.4913085E0,3.0085514E-4,1.558033E-3,1.1161494E0,3.7695938E-3,3.7374545E-3,1.6095816E-3],"categories":[],"categories_nodes":[],"categories_segments":[],"categories_sizes":[],"default_left":[0,0,0,0,0,0,0,0,0,0,0,0,0],"id":82,"left_children":[1,3,5,-1,-1,7,9,-1,-1,11,-1,-1,-1],"loss_changes":[6.7326495E2,3.9487E1,6.767523E1,0E0,0E0,5.8204327E0,5.9647217E0,0E0,0E0,6.7360077E0,0E0,0E0,0E0],"parents":[2147483647,0,0,1,1,2,2,5,5,6,6,9,9],"right_children":[2,4,6,-1,-1,8,10,-1,-1,12,-1,-1,-1],"split_conditions":[2.8123736E-1,1.4061868E-1,4.6872893E-1,-4.4518914E-3,-2.1434145E-3,3.7498313E-1,5.624747E-1,3.0085514E-4,1.558033E-3,1E0,3.7695938E-3,3.7374545E-3,1.6095816E-3],"split_indices":[2,2,2,0,0,2,2,0,0,11,0,0,0],"split_type":[0,0,0,0,0,0,0,0,0,0,0,0,0],"sum_hessian":[4.1209207E2,1.7230678E2,2.3978531E2,1.0258727E2,6.9719505E1,8.291641E1,1.568689E2,4.4321686E1,3.8594727E1,3.3365765E1,1.2350313E2,1.6184885E1,1.7180878E1],"tree_param":{"num_deleted":"0","num_feature":"12","num_nodes":"13","size_leaf_vector":"1"}},{"base_weights":[9.696396E-3,5.2639607E-2,-7.5804687E-4,-1.6276345E-1,1.2711199E-1,-3.9882082E-3,9.877031E-1,-1.446762E0,1.1891181E0,5.87165E-4,3.4220612E-3,-4.451891E-3,-2.1000167E-3,8.0928847E-4,3.787633E-3],"categories":[],"categories_nodes":[],"categories_segments":[],"categories_sizes":[],"default_left":[0,0,0,0,0,0,0,0,0,0,0,0,0,0,0],"id":83,"left_children":[1,3,-1,5,7,-1,9,11,13,-1,-1,-1,-1,-1,-1],"loss_changes":[5.9134793E0,5.923584E0,0E0,1.661442E2,4.5864316E2,0E0,1.8308464E1,2.6856018E1,5.7071655E1,0E0,0E0,0E0,0E0,0E0,0E0],"parents":[2147483647,0,0,1,1,3,3,4,4,6,6,7,7,8,8],"right_children":[2,4,-1,6,8,-1,10,12,14,-1,-1,-1,-1,-1,-1],"split_conditions":[1E0,3.4493604E-1,-7.5804687E-4,2.8123736E-1,2.8123736E-1,-3.9882082E-3,4.6872893E-1,1.4061868E-1,4.6872893E-1,5.87165E-4,3.4220612E-3,-4.451891E-3,-2.1000167E-3,8.0928847E-4,3.787633E-3],"split_indices":[8,1,0,2,2,0,2,2,2,0,0,0,0,0,0],"split_type":[0,0,0,0,0,0,0,0,0,0,0,0,0,0,0],"sum_hessian":[4.1732104E2,3.692644E2,4.805666E1,9.486833E1,2.7439606E2,4.0835712E1,5.403262E1,1.1055522E2,1.6384084E2,2.0666853E1,3.3365765E1,6.224956E1,4.830566E1,5.3534622E1,1.1030622E2],"tree_param":{"num_deleted":"0","num_feature":"12","num_nodes":"15","size_leaf_vector":"1"}},{"base_weights":[-6.0999254E-3,-1.5163448E0,1.1795748E0,-4.4518914E-3,-2.2686508E-3,6.416454E-1,3.9839814E-3,7.476945E-4,2.3902266E-3],"categories":[],"categories_nodes":[],"categories_segments":[],"categories_sizes":[],"default_left":[0,0,0,0,0,0,0,0,0],"id":84,"left_children":[1,3,5,-1,-1,7,-1,-1,-1],"loss_changes":[7.2587805E2,3.6259216E1,6.1526093E1,0E0,0E0,1.31713295E1,0E0,0E0,0E0],"parents":[2147483647,0,0,1,1,2,2,5,5],"right_children":[2,4,6,-1,-1,8,-1,-1,-1],"split_conditions":[2.8123736E-1,1.4061868E-1,5.624747E-1,-4.4518914E-3,-2.2686508E-3,4.2185605E-1,3.9839814E-3,7.476945E-4,2.3902266E-3],"split_indices":[2,2,2,0,0,2,0,0,0],"split_type":[0,0,0,0,0,0,0,0,0],"sum_hessian":[4.0536914E2,1.7828275E2,2.270864E2,1.0781624E2,7.04665E1,1.0980822E2,1.1727817E2,5.8265587E1,5.1542637E1],"tree_param":{"num_deleted":"0","num_feature":"12","num_nodes":"9","size_leaf_vector":"1"}},{"base_weights":[-6.1059315E-3,-4.009776E-3,9.70067E-1,1.80363E-4,1.4326347E0,2.6647863E-3,3.6709846E-3],"categories":[],"categories_nodes":[],"categories_segments":[],"categories_sizes":[],"default_left":[0,0,0,0,0,0,0],"id":85,"left_children":[1,-1,3,-1,5,-1,-1],"loss_changes":[6.7412683E2,0E0,1.0717497E2,0E0,6.202057E0,0E0,0E0],"parents":[2147483647,0,0,2,2,4,4],"right_children":[2,-1,4,-1,6,-1,-1],"split_conditions":[2.3436446E-1,-4.009776E-3,4.2185605E-1,1.80363E-4,5.624747E-1,2.6647863E-3,3.6709846E-3],"split_indices":[2,0,2,0,2,0,0],"split_type":[0,0,0,0,0,0,0],"sum_hessian":[4.091041E2,1.4989694E2,2.5920715E2,8.839438E1,1.7081279E2,4.7558662E1,1.2325413E2],"tree_param":{"num_deleted":"0","num_feature":"12","num_nodes":"7","size_leaf_vector":"1"}},{"base_weights":[5.4532003E-2,-3.494404E-3,1.1301054E0,7.627208E-4,1.522949E0,2.9974487E-3,4.062387E-3],"categories":[],"categories_nodes":[],"categories_segments":[],"categories_sizes":[],"default_left":[0,0,0,0,0,0,0],"id":86,"left_children":[1,-1,3,-1,5,-1,-1],"loss_changes":[6.806102E2,0E0,7.704663E1,0E0,8.10434E0,0E0,0E0],"parents":[2147483647,0,0,2,2,4,4],"right_children":[2,-1,4,-1,6,-1,-1],"split_conditions":[2.8123736E-1,-3.494404E-3,4.6872893E-1,7.627208E-4,6.562205E-1,2.9974487E-3,4.062387E-3],"split_indices":[2,0,2,0,2,0,0],"split_type":[0,0,0,0,0,0,0],"sum_hessian":[4.1333707E2,1.705638E2,2.4277328E2,7.9430435E1,1.6334285E2,7.021751E1,9.312534E1],"tree_param":{"num_deleted":"0","num_feature":"12","num_nodes":"7","size_leaf_vector":"1"}},{"base_weights":[-2.834839E-3,-1.5247144E0,1.1300659E0,-4.247672E-3,-7.856362E-1,9.599538E-5,1.4875846E0,-1.4814246E-3,-4.0998305E-3,2.571872E-3,3.9031354E-3],"categories":[],"categories_nodes":[],"categories_segments":[],"categories_sizes":[],"default_left":[0,0,0,0,0,0,0,0,0,0,0],"id":87,"left_children":[1,3,5,-1,7,-1,9,-1,-1,-1,-1],"loss_changes":[7.0320557E2,3.4723663E1,9.107327E1,0E0,7.0399647E0,0E0,1.1399567E1,0E0,0E0,0E0,0E0],"parents":[2147483647,0,0,1,1,2,2,4,4,6,6],"right_children":[2,4,6,-1,8,-1,10,-1,-1,-1,-1],"split_conditions":[2.8123736E-1,1.8749157E-1,4.2185605E-1,-4.247672E-3,1E0,9.599538E-5,5.624747E-1,-1.4814246E-3,-4.0998305E-3,2.571872E-3,3.9031354E-3],"split_indices":[2,2,2,0,3,0,2,0,0,0,0],"split_type":[0,0,0,0,0,0,0,0,0,0,0],"sum_hessian":[4.0785913E2,1.7404977E2,2.3380934E2,1.274871E2,4.656267E1,5.7767593E1,1.7604175E2,3.9839718E1,6.7229524E0,5.0546642E1,1.2549511E2],"tree_param":{"num_deleted":"0","num_feature":"12","num_nodes":"11","size_leaf_vector":"1"}},{"base_weights":[-2.1946363E-2,-1.538781E0,1.132202E0,-4.4518914E-3,-1.0303035E0,4.1772597E-4,1.4667698E0,-2.9430825E-3,-1.4754233E-3,2.6532244E-3,3.7963623E-3],"categories":[],"categories_nodes":[],"categories_segments":[],"categories_sizes":[],"default_left":[0,0,0,0,0,0,0,0,0,0,0],"id":88,"left_children":[1,3,5,-1,7,-1,9,-1,-1,-1,-1],"loss_changes":[7.223019E2,3.101709E1,7.491983E1,0E0,6.220253E0,0E0,8.23349E0,0E0,0E0,0E0,0E0],"parents":[2147483647,0,0,1,1,2,2,4,4,6,6],"right_children":[2,4,6,-1,8,-1,10,-1,-1,-1,-1],"split_conditions":[2.8123736E-1,1.4061868E-1,4.2185605E-1,-4.4518914E-3,2.3436446E-1,4.1772597E-4,5.624747E-1,-2.9430825E-3,-1.4754233E-3,2.6532244E-3,3.7963623E-3],"split_indices":[2,2,2,0,2,0,2,0,0,0,0],"split_type":[0,0,0,0,0,0,0,0,0,0,0],"sum_hessian":[4.125901E2,1.7828275E2,2.3430734E2,1.0657124E2,7.1711494E1,6.075557E1,1.7355177E2,4.706067E1,2.4650826E1,4.930165E1,1.2425012E2],"tree_param":{"num_deleted":"0","num_feature":"12","num_nodes":"11","size_leaf_vector":"1"}},{"base_weights":[1.9043983E-3,-3.5546562E-3,1.1363158E0,3.9478292E-4,1.4788973E0,2.5858292E-3,3.874771E-3],"categories":[],"categories_nodes":[],"categories_segments":[],"categories_sizes":[],"default_left":[0,0,0,0,0,0,0],"id":89,"left_children":[1,-1,3,-1,5,-1,-1],"loss_changes":[7.2209247E2,0E0,8.0138336E1,0E0,1.0897644E1,0E0,0E0],"parents":[2147483647,0,0,2,2,4,4],"right_children":[2,-1,4,-1,6,-1,-1],"split_conditions":[2.8123736E-1,-3.5546562E-3,4.2185605E-1,3.9478292E-4,5.624747E-1,2.5858292E-3,3.874771E-3],"split_indices":[2,0,2,0,2,0,0],"split_type":[0,0,0,0,0,0,0],"sum_hessian":[4.23297E2,1.8201772E2,2.412793E2,6.2996555E1,1.7828275E2,5.1791634E1,1.26491104E2],"tree_param":{"num_deleted":"0","num_feature":"12","num_nodes":"7","size_leaf_vector":"1"}},{"base_weights":[-3.191768E-2],"categories":[],"categories_nodes":[],"categories_segments":[],"categories_sizes":[],"default_left":[0],"id":90,"left_children":[-1],"loss_changes":[0E0],"parents":[2147483647],"right_children":[-1],"split_conditions":[-7.5544405E-5],"split_indices":[0],"split_type":[0],"sum_hessian":[4.2130502E2],"tree_param":{"num_deleted":"0","num_feature":"12","num_nodes":"1","size_leaf_vector":"1"}},{"base_weights":[5.3914677E-2,-1.4422972E0,1.1748811E0,-1.7702545E0,-1.4120635E-3,5.8042846E-4,1.4896127E0,-4.4518914E-3,-3.0209562E-3,2.6431177E-3,3.8990886E-3],"categories":[],"categories_nodes":[],"categories_segments":[],"categories_sizes":[],"default_left":[0,0,0,0,0,0,0,0,0,0,0],"id":91,"left_children":[1,3,5,7,-1,-1,9,-1,-1,-1,-1],"loss_changes":[6.874036E2,4.868747E1,6.855597E1,6.9144897E0,0E0,0E0,1.0297455E1,0E0,0E0,0E0,0E0],"parents":[2147483647,0,0,1,1,2,2,3,3,6,6],"right_children":[2,4,6,8,-1,-1,10,-1,-1,-1,-1],"split_conditions":[2.8123736E-1,1.8749157E-1,4.2185605E-1,1.4061868E-1,-1.4120635E-3,5.8042846E-4,5.624747E-1,-4.4518914E-3,-3.0209562E-3,2.6431177E-3,3.8990886E-3],"split_indices":[2,2,2,2,0,0,2,0,0,0,0],"split_type":[0,0,0,0,0,0,0,0,0,0,0],"sum_hessian":[4.098511E2,1.7554376E2,2.3430734E2,1.26491104E2,4.9052654E1,5.926158E1,1.7504576E2,1.0333427E2,2.3156836E1,5.204063E1,1.2300513E2],"tree_param":{"num_deleted":"0","num_feature":"12","num_nodes":"11","size_leaf_vector":"1"}},{"base_weights":[-2.1181984E-2,-3.5620155E-3,1.0834254E0,3.3857537E-4,1.4243965E0,2.2472178E-3,3.8580655E-3],"categories":[],"categories_nodes":[],"categories_segments":[],"categories_sizes":[],"default_left":[0,0,0,0,0,0,0],"id":92,"left_children":[1,-1,3,-1,5,-1,-1],"loss_changes":[6.741913E2,0E0,7.5607635E1,0E0,1.690207E1,0E0,0E0],"parents":[2147483647,0,0,2,2,4,4],"right_children":[2,-1,4,-1,6,-1,-1],"split_conditions":[2.8123736E-1,-3.5620155E-3,4.2185605E-1,3.3857537E-4,5.624747E-1,2.2472178E-3,3.8580655E-3],"split_indices":[2,0,2,0,2,0,0],"split_type":[0,0,0,0,0,0,0],"sum_hessian":[4.113451E2,1.7554376E2,2.3580133E2,6.2747555E1,1.7305377E2,5.228963E1,1.20764145E2],"tree_param":{"num_deleted":"0","num_feature":"12","num_nodes":"7","size_leaf_vector":"1"}},{"base_weights":[3.3573233E-2,-3.5877558E-3,1.121829E0,3.5953103E-4,1.4455819E0,2.5991315E-3,3.7615933E-3],"categories":[],"categories_nodes":[],"categories_segments":[],"categories_sizes":[],"default_left":[0,0,0,0,0,0,0],"id":93,"left_children":[1,-1,3,-1,5,-1,-1],"loss_changes":[6.9401044E2,0E0,7.592206E1,0E0,9.050354E0,0E0,0E0],"parents":[2147483647,0,0,2,2,4,4],"right_children":[2,-1,4,-1,6,-1,-1],"split_conditions":[2.8123736E-1,-3.5877558E-3,4.2185605E-1,3.5953103E-4,5.624747E-1,2.5991315E-3,3.7615933E-3],"split_indices":[2,0,2,0,2,0,0],"split_type":[0,0,0,0,0,0,0],"sum_hessian":[4.115941E2,1.698168E2,2.417773E2,6.0506573E1,1.8127072E2,5.3036625E1,1.282341E2],"tree_param":{"num_deleted":"0","num_feature":"12","num_nodes":"7","size_leaf_vector":"1"}},{"base_weights":[3.7125878E-2,-1.501834E0,1.1343024E0,-4.2251204E-3,-1.6274019E-3,4.1584094E-4,3.4851278E-3],"categories":[],"categories_nodes":[],"categories_segments":[],"categories_sizes":[],"default_left":[0,0,0,0,0,0,0],"id":94,"left_children":[1,3,5,-1,-1,-1,-1],"loss_changes":[6.848906E2,3.894168E1,7.676364E1,0E0,0E0,0E0,0E0],"parents":[2147483647,0,0,1,1,2,2],"right_children":[2,4,6,-1,-1,-1,-1],"split_conditions":[2.8123736E-1,1.8749157E-1,4.2185605E-1,-4.2251204E-3,-1.6274019E-3,4.1584094E-4,3.4851278E-3],"split_indices":[2,2,2,0,0,0,0],"split_type":[0,0,0,0,0,0,0],"sum_hessian":[4.0561813E2,1.688208E2,2.3679733E2,1.2524612E2,4.357469E1,6.1751564E1,1.7504576E2],"tree_param":{"num_deleted":"0","num_feature":"12","num_nodes":"7","size_leaf_vector":"1"}},{"base_weights":[3.288922E-2,-1.6681612E0,1.023665E0,-4.4518914E-3,-2.8076975E-3,3.9673186E-4,1.4541686E0,1.0732105E0,3.8309034E-3,1.8851036E-3,3.8314653E-3],"categories":[],"categories_nodes":[],"categories_segments":[],"categories_sizes":[],"default_left":[0,0,0,0,0,0,0,0,0,0,0],"id":95,"left_children":[1,3,5,-1,-1,-1,7,9,-1,-1,-1],"loss_changes":[6.886482E2,1.5420868E1,9.515869E1,0E0,0E0,0E0,1.0760071E1,7.8201523E0,0E0,0E0,0E0],"parents":[2147483647,0,0,1,1,2,2,6,6,7,7],"right_children":[2,4,6,-1,-1,-1,8,10,-1,-1,-1],"split_conditions":[2.3436446E-1,1.4061868E-1,4.2185605E-1,-4.4518914E-3,-2.8076975E-3,3.9673186E-4,5.624747E-1,6.233239E-1,3.8309034E-3,1.8851036E-3,3.8314653E-3],"split_indices":[2,2,2,0,0,0,2,1,0,0,0],"split_type":[0,0,0,0,0,0,0,0,0,0,0],"sum_hessian":[4.086061E2,1.5039494E2,2.5821118E2,1.0433026E2,4.6064674E1,8.640239E1,1.7180879E2,5.1791634E1,1.2001715E2,3.4361755E1,1.7429876E1],"tree_param":{"num_deleted":"0","num_feature":"12","num_nodes":"11","size_leaf_vector":"1"}},{"base_weights":[3.188223E-3,-1.483863E0,2.6005714E-3,-1.7878973E0,-6.549691E-1,-4.4518914E-3,-3.1255423E-3,-2.372564E-3,-7.103673E-4],"categories":[],"categories_nodes":[],"categories_segments":[],"categories_sizes":[],"default_left":[0,0,0,0,0,0,0,0,0],"id":96,"left_children":[1,3,-1,5,7,-1,-1,-1,-1],"loss_changes":[6.7704004E2,4.44274E1,0E0,5.6081543E0,5.832632E0,0E0,0E0,0E0,0E0],"parents":[2147483647,0,0,1,1,3,3,4,4],"right_children":[2,4,-1,6,8,-1,-1,-1,-1],"split_conditions":[2.8123736E-1,1.8749157E-1,2.6005714E-3,1.4061868E-1,2.3436446E-1,-4.4518914E-3,-3.1255423E-3,-2.372564E-3,-7.103673E-4],"split_indices":[2,2,0,2,2,0,0,0,0],"split_type":[0,0,0,0,0,0,0,0,0],"sum_hessian":[4.1557806E2,1.7629076E2,2.3928731E2,1.289811E2,4.7309666E1,1.0756724E2,2.1413849E1,2.3903831E1,2.3405834E1],"tree_param":{"num_deleted":"0","num_feature":"12","num_nodes":"9","size_leaf_vector":"1"}},{"base_weights":[-8.947221E-3,-1.4910742E0,1.1520523E0,-1.7858355E0,-1.6423858E-3,9.881754E-4,3.6165512E-3,-4.4518914E-3,-3.1779583E-3],"categories":[],"categories_nodes":[],"categories_segments":[],"categories_sizes":[],"default_left":[0,0,0,0,0,0,0,0,0],"id":97,"left_children":[1,3,5,7,-1,-1,-1,-1,-1],"loss_changes":[7.3352936E2,4.3997833E1,6.601083E1,5.7608337E0,0E0,0E0,0E0,0E0,0E0],"parents":[2147483647,0,0,1,1,2,2,3,3],"right_children":[2,4,6,8,-1,-1,-1,-1,-1],"split_conditions":[2.8123736E-1,1.8749157E-1,4.6872893E-1,1.4061868E-1,-1.6423858E-3,9.881754E-4,3.6165512E-3,-4.4518914E-3,-3.1779583E-3],"split_indices":[2,2,2,2,0,0,0,0,0],"split_type":[0,0,0,0,0,0,0,0,0],"sum_hessian":[4.2628497E2,1.8724667E2,2.3903831E2,1.3670003E2,5.0546642E1,8.092443E1,1.5811388E2,1.125472E2,2.415283E1],"tree_param":{"num_deleted":"0","num_feature":"12","num_nodes":"9","size_leaf_vector":"1"}},{"base_weights":[1.971648E-2,-1.4793249E0,1.1753652E0,-4.2647757E-3,-1.4814247E-3,8.6194323E-4,3.6737723E-3],"categories":[],"categories_nodes":[],"categories_segments":[],"categories_sizes":[],"default_left":[0,0,0,0,0,0,0],"id":98,"left_children":[1,3,5,-1,-1,-1,-1],"loss_changes":[6.9362036E2,4.7979645E1,6.910834E1,0E0,0E0,0E0,0E0],"parents":[2147483647,0,0,1,1,2,2],"right_children":[2,4,6,-1,-1,-1,-1],"split_conditions":[2.8123736E-1,1.8749157E-1,4.6872893E-1,-4.2647757E-3,-1.4814247E-3,8.6194323E-4,3.6737723E-3],"split_indices":[2,2,2,0,0,0,0],"split_type":[0,0,0,0,0,0,0],"sum_hessian":[4.0038916E2,1.7429877E2,2.2609041E2,1.26491104E2,4.7807663E1,7.1711494E1,1.543789E2],"tree_param":{"num_deleted":"0","num_feature":"12","num_nodes":"7","size_leaf_vector":"1"}},{"base_weights":[-2.1361735E-2,-3.5341198E-3,1.1322205E0,2.8775567E-1,1.5375637E0,5.7334435E-1,-4.750072E-2,3.1319135E-3,4.0429602E-3,4.1967366E-4,2.2715053E-3,-2.3854761E-3,3.421833E-4],"categories":[],"categories_nodes":[],"categories_segments":[],"categories_sizes":[],"default_left":[0,0,0,0,0,0,0,0,0,0,0,0,0],"id":99,"left_children":[1,-1,3,5,7,9,11,-1,-1,-1,-1,-1,-1],"loss_changes":[6.975593E2,0E0,7.88392E1,7.152133E0,5.690033E0,6.172289E0,6.338432E0,0E0,0E0,0E0,0E0,0E0,0E0],"parents":[2147483647,0,0,2,2,3,3,4,4,5,5,6,6],"right_children":[2,-1,4,6,8,10,12,-1,-1,-1,-1,-1,-1],"split_conditions":[2.8123736E-1,-3.5341198E-3,4.6872893E-1,4.981525E-1,6.562205E-1,3.7498313E-1,5.534961E-1,3.1319135E-3,4.0429602E-3,4.1967366E-4,2.2715053E-3,-2.3854761E-3,3.421833E-4],"split_indices":[2,0,2,1,2,2,1,0,0,0,0,0,0],"split_type":[0,0,0,0,0,0,0,0,0,0,0,0,0],"sum_hessian":[4.108471E2,1.8052373E2,2.3032336E2,7.469947E1,1.556239E2,4.0337715E1,3.4361755E1,6.897251E1,8.665139E1,1.9919859E1,2.0417856E1,5.7269597E0,2.8634798E1],"tree_param":{"num_deleted":"0","num_feature":"12","num_nodes":"13","size_leaf_vector":"1"}}]},"name":"gbtree"},"learner_model_param":{"base_score":"[4.6834937E-1]","boost_from_average":"1","num_class":"0","num_feature":"12","num_target":"1"},"objective":{"name":"reg:logistic","reg_loss_param":{"scale_pos_weight":"1"}}},"version":[3,1,2]}