{"learner":{"attributes":{"scikit_learn":"{\"_estimator_type\": \"classifier\"}"},"feature_names":["purchases","time_spent","n_visits","customer_group_2","customer_group_3","customer_group_4","customer_group_5","customer_group_6","customer_group_7","customer_group_8","customer_group_9","onboarding_True"],"feature_types":["float","float","float","float","float","float","float","float","float","float","float","float"],"gradient_booster":{"model":{"cats":{"enc":[],"feature_segments":[],"sorted_idx":[]},"gbtree_model_param":{"num_parallel_tree":"100","num_trees":"100"},"iteration_indptr":[0,100],"tree_info":[0,0,0,0,0,0,0,0,0,0,0,0,0,0,0,0,0,0,0,0,0,0,0,0,0,0,0,0,0,0,0,0,0,0,0,0,0,0,0,0,0,0,0,0,0,0,0,0,0,0,0,0,0,0,0,0,0,0,0,0,0,0,0,0,0,0,0,0,0,0,0,0,0,0,0,0,0,0,0,0,0,0,0,0,0,0,0,0,0,0,0,0,0,0,0,0,0,0,0,0],"trees":[{"base_weights":[-1.434758E-1,-1.5888547E0,1.0636194E0,-5.2732183E-3,-2.1937909E-3,4.88005E-1,1.5755386E0,-4.1268177E-5,7.3227644E-1,1.6826406E0,2.4231644E-3,1.5041957E-3,3.7844633E-3,5.097539E-3,2.0712775E-3],"categories":[],"categories_nodes":[],"categories_segments":[],"categories_sizes":[],"default_left":[0,0,0,0,0,0,0,0,0,0,0,0,0,0,0],"id":0,"left_children":[1,3,5,-1,-1,7,9,-1,11,13,-1,-1,-1,-1,-1],"loss_changes":[3.6752756E2,1.8935135E1,3.38244E1,0E0,0E0,6.629733E0,4.788498E0,0E0,4.4431114E0,4.283081E0,0E0,0E0,0E0,0E0,0E0],"parents":[2147483647,0,0,1,1,2,2,5,5,6,6,8,8,9,9],"right_children":[2,4,6,-1,-1,8,10,-1,12,14,-1,-1,-1,-1,-1],"split_conditions":[2.8123736E-1,1.8749157E-1,5.624747E-1,-5.2732183E-3,-2.1937909E-3,3.7498313E-1,1E0,-4.1268177E-5,7.2107476E-1,1E0,2.4231644E-3,1.5041957E-3,3.7844633E-3,5.097539E-3,2.0712775E-3],"split_indices":[2,2,2,0,0,2,6,0,1,8,0,0,0,0,0],"split_type":[0,0,0,0,0,0,0,0,0,0,0,0,0,0,0],"sum_hessian":[2.1065251E2,9.586432E1,1.14788185E2,7.445047E1,2.1413849E1,5.403262E1,6.075557E1,1.7678875E1,3.6353745E1,5.3036625E1,7.7189455E0,2.664281E1,9.710932E0,4.8803654E1,4.23297E0],"tree_param":{"num_deleted":"0","num_feature":"12","num_nodes":"15","size_leaf_vector":"1"}},{"base_weights":[1.4125316E-1,-4.037445E-3,1.3521464E0,7.4661547E-1,5.03902E-3,8.6764974E-4,3.1289924E-3],"categories":[],"categories_nodes":[],"categories_segments":[],"categories_sizes":[],"default_left":[0,0,0,0,0,0,0],"id":1,"left_children":[1,-1,3,5,-1,-1,-1],"loss_changes":[3.9567148E2,0E0,2.8330017E1,7.04797E0,0E0,0E0,0E0],"parents":[2147483647,0,0,2,2,3,3],"right_children":[2,-1,4,6,-1,-1,-1],"split_conditions":[3.2811025E-1,-4.037445E-3,5.624747E-1,4.2185605E-1,5.03902E-3,8.6764974E-4,3.1289924E-3],"split_indices":[2,0,2,2,0,0,0],"split_type":[0,0,0,0,0,0,0],"sum_hessian":[2.121465E2,9.337434E1,1.1877216E2,4.681167E1,7.1960495E1,2.0168858E1,2.664281E1],"tree_param":{"num_deleted":"0","num_feature":"12","num_nodes":"7","size_leaf_vector":"1"}},{"base_weights":[-1.4920551E-2,-1.7051455E0,9.449205E-1,-5.428271E-3,-3.808132E-3,1.9188763E-1,1.3605409E0,-2.3078246E-3,3.5301712E-1,1.058217E0,4.914898E-3,1.4561441E-3,-1.1355961E-3,2.5764836E-3,4.713166E-3],"categories":[],"categories_nodes":[],"categories_segments":[],"categories_sizes":[],"default_left":[0,0,0,0,0,0,0,0,0,0,0,0,0,0,0],"id":2,"left_children":[1,3,5,-1,-1,7,9,-1,11,13,-1,-1,-1,-1,-1],"loss_changes":[3.3124857E2,5.012787E0,4.0757614E1,0E0,0E0,7.399556E0,8.688919E0,0E0,4.5071206E0,4.239563E0,0E0,0E0,0E0,0E0,0E0],"parents":[2147483647,0,0,1,1,2,2,5,5,6,6,8,8,9,9],"right_children":[2,4,6,-1,-1,8,10,-1,12,14,-1,-1,-1,-1,-1],"split_conditions":[2.3436446E-1,1.4061868E-1,4.2185605E-1,-5.428271E-3,-3.808132E-3,2.7161184E-1,6.562205E-1,-2.3078246E-3,8.323676E-1,7.565547E-1,4.914898E-3,1.4561441E-3,-1.1355961E-3,2.5764836E-3,4.713166E-3],"split_indices":[2,2,2,0,0,0,2,0,0,1,0,0,0,0,0],"split_type":[0,0,0,0,0,0,0,0,0,0,0,0,0,0,0],"sum_hessian":[2.0417856E2,7.395248E1,1.3022607E2,5.079564E1,2.3156836E1,4.631367E1,8.391241E1,6.473954E0,3.9839718E1,4.4570686E1,3.934172E1,3.3116764E1,6.7229524E0,3.4610756E1,9.959929E0],"tree_param":{"num_deleted":"0","num_feature":"12","num_nodes":"15","size_leaf_vector":"1"}},{"base_weights":[-1.0205487E-1,-4.4425055E-3,2.943738E-3],"categories":[],"categories_nodes":[],"categories_segments":[],"categories_sizes":[],"default_left":[0,0,0],"id":3,"left_children":[1,-1,-1],"loss_changes":[3.553959E2,0E0,0E0],"parents":[2147483647,0,0],"right_children":[2,-1,-1],"split_conditions":[2.8123736E-1,-4.4425055E-3,2.943738E-3],"split_indices":[2,0,0],"split_type":[0,0,0],"sum_hessian":[2.2036345E2,9.661132E1,1.2375213E2],"tree_param":{"num_deleted":"0","num_feature":"12","num_nodes":"3","size_leaf_vector":"1"}},{"base_weights":[-1.22379884E-1,-1.2798271E0,1.3275744E0,-5.154178E-3,-3.7185702E-1,2.1305669E-3,4.8517487E-3,-2.8526643E-3,-5.765517E-4],"categories":[],"categories_nodes":[],"categories_segments":[],"categories_sizes":[],"default_left":[0,0,0,0,0,0,0,0,0],"id":4,"left_children":[1,3,5,-1,7,-1,-1,-1,-1],"loss_changes":[3.4642267E2,5.275119E1,1.9093903E1,0E0,4.3592963E0,0E0,0E0,0E0,0E0],"parents":[2147483647,0,0,1,1,2,2,4,4],"right_children":[2,4,6,-1,8,-1,-1,-1,-1],"split_conditions":[3.7498313E-1,1.8749157E-1,5.624747E-1,-5.154178E-3,2.8750074E-1,2.1305669E-3,4.8517487E-3,-2.8526643E-3,-5.765517E-4],"split_indices":[2,2,2,0,1,0,0,0,0],"split_type":[0,0,0,0,0,0,0,0,0],"sum_hessian":[2.0641954E2,1.14788185E2,9.1631355E1,7.3703476E1,4.108471E1,3.4361755E1,5.7269596E1,8.963937E0,3.2120773E1],"tree_param":{"num_deleted":"0","num_feature":"12","num_nodes":"9","size_leaf_vector":"1"}},{"base_weights":[5.5566397E-2,-3.585587E-3,1.4362793E0,2.4889905E-3,5.029069E-3],"categories":[],"categories_nodes":[],"categories_segments":[],"categories_sizes":[],"default_left":[0,0,0,0,0],"id":5,"left_children":[1,-1,3,-1,-1],"loss_changes":[3.757384E2,0E0,1.7857635E1,0E0,0E0],"parents":[2147483647,0,0,2,2],"right_children":[2,-1,4,-1,-1],"split_conditions":[3.7498313E-1,-3.585587E-3,5.624747E-1,2.4889905E-3,5.029069E-3],"split_indices":[2,0,2,0,0],"split_type":[0,0,0,0,0],"sum_hessian":[2.0965652E2,1.0806524E2,1.0159128E2,3.535775E1,6.623353E1],"tree_param":{"num_deleted":"0","num_feature":"12","num_nodes":"5","size_leaf_vector":"1"}},{"base_weights":[-5.236515E-3,-2.4939665E-1,7.813525E-2,-5.1816693E-3,8.685442E-1,-1.3053795E0,3.891349E-3,9.188305E-2,4.2567044E-3,-5.097122E-3,-1.081939E-3,2.4530739E-3,-1.444132E-3],"categories":[],"categories_nodes":[],"categories_segments":[],"categories_sizes":[],"default_left":[0,0,0,0,0,0,0,0,0,0,0,0,0],"id":6,"left_children":[1,3,5,-1,7,9,-1,11,-1,-1,-1,-1,-1],"loss_changes":[4.4603887E0,9.640456E1,2.870591E2,0E0,1.52459545E1,3.352385E1,0E0,6.3729835E0,0E0,0E0,0E0,0E0,0E0],"parents":[2147483647,0,0,1,1,2,2,4,4,5,5,7,7],"right_children":[2,4,6,-1,8,10,-1,12,-1,-1,-1,-1,-1],"split_conditions":[3.552754E-1,2.3436446E-1,3.2811025E-1,-5.1816693E-3,5.624747E-1,1.8749157E-1,3.891349E-3,1.7184308E-1,4.2567044E-3,-5.097122E-3,-1.081939E-3,2.4530739E-3,-1.444132E-3],"split_indices":[1,2,2,0,2,2,0,1,0,0,0,0,0],"split_type":[0,0,0,0,0,0,0,0,0,0,0,0,0],"sum_hessian":[2.1911845E2,5.5775604E1,1.6334285E2,2.3405834E1,3.236977E1,7.818545E1,8.5157394E1,1.41929E1,1.8176872E1,5.228963E1,2.5895817E1,6.224956E0,7.9679437E0],"tree_param":{"num_deleted":"0","num_feature":"12","num_nodes":"13","size_leaf_vector":"1"}},{"base_weights":[5.359084E-2],"categories":[],"categories_nodes":[],"categories_segments":[],"categories_sizes":[],"default_left":[0],"id":7,"left_children":[-1],"loss_changes":[0E0],"parents":[2147483647],"right_children":[-1],"split_conditions":[1.5466019E-4],"split_indices":[0],"split_type":[0],"sum_hessian":[2.1762447E2],"tree_param":{"num_deleted":"0","num_feature":"12","num_nodes":"1","size_leaf_vector":"1"}},{"base_weights":[-1.6842725E-2,-1.5443252E0,1.0911425E0,-5.428271E-3,-1.0490291E0,3.2947314E-1,3.9638025E-3,-5.028602E-3,-2.5046119E-3,1.307924E-3,-2.5307084E-3],"categories":[],"categories_nodes":[],"categories_segments":[],"categories_sizes":[],"default_left":[0,0,0,0,0,0,0,0,0,0,0],"id":8,"left_children":[1,3,5,-1,7,9,-1,-1,-1,-1,-1],"loss_changes":[3.4682178E2,1.4363571E1,2.5542175E1,0E0,4.3791275E0,4.7945967E0,0E0,0E0,0E0,0E0,0E0],"parents":[2147483647,0,0,1,1,2,2,4,4,5,5],"right_children":[2,4,6,-1,8,10,-1,-1,-1,-1,-1],"split_conditions":[2.8123736E-1,1.4061868E-1,4.2185605E-1,-5.428271E-3,2.7515766E-1,1E0,3.9638025E-3,-5.028602E-3,-2.5046119E-3,1.307924E-3,-2.5307084E-3],"split_indices":[2,2,2,0,1,4,0,0,0,0,0],"split_type":[0,0,0,0,0,0,0,0,0,0,0],"sum_hessian":[2.0492555E2,8.615339E1,1.1877216E2,5.1293636E1,3.4859753E1,3.2120773E1,8.665139E1,7.220949E0,2.7638805E1,2.9132793E1,2.987979E0],"tree_param":{"num_deleted":"0","num_feature":"12","num_nodes":"11","size_leaf_vector":"1"}},{"base_weights":[-4.6661243E-2,-1.4937077E0,1.0733341E0,-5.428271E-3,-9.115324E-1,3.7997696E-1,1.3535832E0,-3.342031E-3,-1.0497434E-3,8.6099457E-4,6.1619068E-3,1.2342095E0,5.18249E-3,1.723139E-3,3.961952E-3],"categories":[],"categories_nodes":[],"categories_segments":[],"categories_sizes":[],"default_left":[0,0,0,0,0,0,0,0,0,0,0,0,0,0,0],"id":9,"left_children":[1,3,5,-1,7,9,11,-1,-1,-1,-1,13,-1,-1,-1],"loss_changes":[3.3575177E2,2.0376099E1,2.269188E1,0E0,4.8753185E0,4.8164988E0,4.3898773E0,0E0,0E0,0E0,0E0,5.7843018E0,0E0,0E0,0E0],"parents":[2147483647,0,0,1,1,2,2,4,4,5,5,6,6,11,11],"right_children":[2,4,6,-1,8,10,12,-1,-1,-1,-1,14,-1,-1,-1],"split_conditions":[2.8123736E-1,1.4061868E-1,4.2185605E-1,-5.428271E-3,2.3436446E-1,9.4451874E-1,7.13184E-1,-3.342031E-3,-1.0497434E-3,8.6099457E-4,6.1619068E-3,5.156018E-1,5.18249E-3,1.723139E-3,3.961952E-3],"split_indices":[2,2,2,0,2,0,1,0,0,0,0,2,0,0,0],"split_type":[0,0,0,0,0,0,0,0,0,0,0,0,0,0,0],"sum_hessian":[2.0716653E2,9.038636E1,1.16780174E2,5.4281616E1,3.6104744E1,3.361476E1,8.316541E1,2.4899824E1,1.1204921E1,3.2120773E1,1.4939895E0,6.5486534E1,1.7678875E1,1.1702917E1,5.378362E1],"tree_param":{"num_deleted":"0","num_feature":"12","num_nodes":"15","size_leaf_vector":"1"}},{"base_weights":[-4.5272492E-2,-1.5044255E0,1.1269342E0,-5.3862776E-3,-1.6721814E-3,6.0767E-1,4.6894196E-3,1.0107389E-3,9.080185E-1,3.0325875E-3,-2.5307043E-3],"categories":[],"categories_nodes":[],"categories_segments":[],"categories_sizes":[],"default_left":[0,0,0,0,0,0,0,0,0,0,0],"id":10,"left_children":[1,3,5,-1,-1,7,-1,-1,9,-1,-1],"loss_changes":[3.6712045E2,3.2013107E1,3.0777023E1,0E0,0E0,4.505228E0,0E0,0E0,6.854122E0,0E0,0E0],"parents":[2147483647,0,0,1,1,2,2,5,5,8,8],"right_children":[2,4,6,-1,-1,8,-1,-1,10,-1,-1],"split_conditions":[2.8123736E-1,1.8749157E-1,5.624747E-1,-5.3862776E-3,-1.6721814E-3,4.2185605E-1,4.6894196E-3,1.0107389E-3,1E0,3.0325875E-3,-2.5307043E-3],"split_indices":[2,2,2,0,0,2,0,0,9,0,0],"split_type":[0,0,0,0,0,0,0,0,0,0,0],"sum_hessian":[2.1463649E2,9.5615326E1,1.1902116E2,6.872351E1,2.689181E1,5.8265587E1,6.075557E1,3.1373777E1,2.689181E1,2.4899824E1,1.9919859E0],"tree_param":{"num_deleted":"0","num_feature":"12","num_nodes":"11","size_leaf_vector":"1"}},{"base_weights":[-1.5836929E-1,-1.7037536E0,9.139382E-1,-5.428271E-3,-3.8034734E-3,8.3135563E-1,1.4264352E0,-4.8034578E-3,1.2332988E0,7.1009225E-1,5.8486927E-3,6.161899E-3,-2.4779467E-4,3.297955E-3,6.1619384E-3,-3.110203E-3,3.0414995E-3],"categories":[],"categories_nodes":[],"categories_segments":[],"categories_sizes":[],"default_left":[0,0,0,0,0,0,0,0,0,0,0,0,0,0,0,0,0],"id":11,"left_children":[1,3,5,-1,-1,7,9,11,13,15,-1,-1,-1,-1,-1,-1,-1],"loss_changes":[3.424761E2,5.7873077E0,5.1638184E0,0E0,0E0,3.5315254E1,7.279564E0,5.917273E0,5.794136E0,4.7445526E0,0E0,0E0,0E0,0E0,0E0,0E0,0E0],"parents":[2147483647,0,0,1,1,2,2,5,5,6,6,7,7,8,8,9,9],"right_children":[2,4,6,-1,-1,8,10,12,14,16,-1,-1,-1,-1,-1,-1,-1],"split_conditions":[2.3436446E-1,1.4061868E-1,7.835166E-1,-5.428271E-3,-3.8034734E-3,4.2185605E-1,5.156018E-1,1.5946066E-1,1E0,2.7161184E-1,5.8486927E-3,6.161899E-3,-2.4779467E-4,3.297955E-3,6.1619384E-3,-3.110203E-3,3.0414995E-3],"split_indices":[2,2,1,0,0,2,2,0,3,0,0,0,0,0,0,0,0],"split_type":[0,0,0,0,0,0,0,0,0,0,0,0,0,0,0,0,0],"sum_hessian":[2.0666853E2,8.46594E1,1.2200914E2,5.801659E1,2.664281E1,1.05077255E2,1.693188E1,3.411276E1,7.09645E1,7.7189455E0,9.2129345E0,1.2449912E0,3.2867767E1,6.449055E1,6.473954E0,1.2449912E0,6.473954E0],"tree_param":{"num_deleted":"0","num_feature":"12","num_nodes":"17","size_leaf_vector":"1"}},{"base_weights":[9.915775E-2,4.95909E-2,7.7377045E-1,-1.6240124E0,1.0319233E0,-2.908654E-3,5.518041E-3,-5.428271E-3,-2.9814465E-3,9.1039285E-2,1.4954265E0,8.664163E-4,-1.1103459E-3,3.041503E-3,4.879625E-3],"categories":[],"categories_nodes":[],"categories_segments":[],"categories_sizes":[],"default_left":[0,0,0,0,0,0,0,0,0,0,0,0,0,0,0],"id":12,"left_children":[1,3,5,7,9,-1,-1,-1,-1,11,13,-1,-1,-1,-1],"loss_changes":[7.1771054E0,3.287175E2,2.9792969E1,1.12274475E1,5.4945953E1,0E0,0E0,0E0,0E0,4.138483E0,7.2823334E0,0E0,0E0,0E0,0E0],"parents":[2147483647,0,0,1,1,2,2,3,3,4,4,9,9,10,10],"right_children":[2,4,6,8,10,-1,-1,-1,-1,12,14,-1,-1,-1,-1],"split_conditions":[9.4451874E-1,2.3436446E-1,2.8123736E-1,1.4061868E-1,4.2185605E-1,-2.908654E-3,5.518041E-3,-5.428271E-3,-2.9814465E-3,6.112021E-1,5.624747E-1,8.664163E-4,-1.1103459E-3,3.041503E-3,4.879625E-3],"split_indices":[0,2,2,2,2,0,0,0,0,1,2,0,0,0,0],"split_type":[0,0,0,0,0,0,0,0,0,0,0,0,0,0,0],"sum_hessian":[2.1463649E2,1.9994559E2,1.4690896E1,7.395248E1,1.2599311E2,5.7269597E0,8.963937E0,5.1542637E1,2.2409842E1,4.1582706E1,8.44104E1,2.8883797E1,1.269891E1,2.5895817E1,5.8514587E1],"tree_param":{"num_deleted":"0","num_feature":"12","num_nodes":"15","size_leaf_vector":"1"}},{"base_weights":[5.430563E-2,-1.6807966E0,9.970237E-1,-5.428271E-3,-3.496567E-3,1.742492E-1,1.510956E0,6.1619133E-3,3.105749E-4,5.0821127E-3,3.715123E-3],"categories":[],"categories_nodes":[],"categories_segments":[],"categories_sizes":[],"default_left":[0,0,0,0,0,0,0,0,0,0,0],"id":13,"left_children":[1,3,5,-1,-1,7,9,-1,-1,-1,-1],"loss_changes":[3.482325E2,7.038147E0,5.8330124E1,0E0,0E0,6.92977E0,4.7477875E0,0E0,0E0,0E0,0E0],"parents":[2147483647,0,0,1,1,2,2,5,5,6,6],"right_children":[2,4,6,-1,-1,8,10,-1,-1,-1,-1],"split_conditions":[2.3436446E-1,1.4061868E-1,4.6872893E-1,-5.428271E-3,-3.496567E-3,1.5946066E-1,1E0,6.1619133E-3,3.105749E-4,5.0821127E-3,3.715123E-3],"split_indices":[2,2,2,0,0,0,11,0,0,0,0],"split_type":[0,0,0,0,0,0,0,0,0,0,0],"sum_hessian":[2.128935E2,7.494847E1,1.3794502E2,5.2538628E1,2.2409842E1,5.3036625E1,8.49084E1,1.7429876E0,5.1293636E1,4.008872E1,4.4819683E1],"tree_param":{"num_deleted":"0","num_feature":"12","num_nodes":"11","size_leaf_vector":"1"}},{"base_weights":[-6.4397817E-3,-1.4804374E0,1.0998245E0,-5.2001174E-3,-2.0703569E-3,4.995504E-4,1.4466851E0,1.1732197E0,4.8952564E-3,4.5814607E-3,2.604553E-3],"categories":[],"categories_nodes":[],"categories_segments":[],"categories_sizes":[],"default_left":[0,0,0,0,0,0,0,0,0,0,0],"id":14,"left_children":[1,3,5,-1,-1,-1,7,9,-1,-1,-1],"loss_changes":[3.4187244E2,2.204715E1,3.84989E1,0E0,0E0,0E0,5.947464E0,4.6638145E0,0E0,0E0,0E0],"parents":[2147483647,0,0,1,1,2,2,6,6,7,7],"right_children":[2,4,6,-1,-1,-1,8,10,-1,-1,-1],"split_conditions":[2.8123736E-1,1.8749157E-1,4.2185605E-1,-5.2001174E-3,-2.0703569E-3,4.995504E-4,6.562205E-1,4.9591413E-1,4.8952564E-3,4.5814607E-3,2.604553E-3],"split_indices":[2,2,2,0,0,0,2,0,0,0,0],"split_type":[0,0,0,0,0,0,0,0,0,0,0],"sum_hessian":[2.0965652E2,8.988837E1,1.1976815E2,6.3245552E1,2.664281E1,3.261877E1,8.714938E1,4.1582706E1,4.5566677E1,1.6433884E1,2.5148823E1],"tree_param":{"num_deleted":"0","num_feature":"12","num_nodes":"11","size_leaf_vector":"1"}},{"base_weights":[-3.020039E-2,-7.41836E-2,1.9894675E-3,-4.903242E-2,-1.0777136E0,-1.5147947E0,3.1801239E-3,-5.4282537E-3,3.6683632E-4,-5.428271E-3,-2.9222777E-3],"categories":[],"categories_nodes":[],"categories_segments":[],"categories_sizes":[],"default_left":[0,0,0,0,0,0,0,0,0,0,0],"id":15,"left_children":[1,3,-1,5,7,9,-1,-1,-1,-1,-1],"loss_changes":[6.8402643E0,5.14089E0,0E0,3.3521686E2,4.8192873E0,1.607051E1,0E0,0E0,0E0,0E0,0E0],"parents":[2147483647,0,0,1,1,3,3,4,4,5,5],"right_children":[2,4,-1,6,8,10,-1,-1,-1,-1,-1],"split_conditions":[8.9515656E-1,8.379747E-1,1.9894675E-3,2.8123736E-1,2.8123736E-1,1.4061868E-1,3.1801239E-3,-5.4282537E-3,3.6683632E-4,-5.428271E-3,-2.9222777E-3],"split_indices":[1,1,0,2,2,2,0,0,0,0,0],"split_type":[0,0,0,0,0,0,0,0,0,0,0],"sum_hessian":[2.1613048E2,2.0368056E2,1.2449912E1,1.9870059E2,4.9799647E0,8.7398384E1,1.11302216E2,2.987979E0,1.9919859E0,5.0546642E1,3.6851738E1],"tree_param":{"num_deleted":"0","num_feature":"12","num_nodes":"11","size_leaf_vector":"1"}},{"base_weights":[2.1182943E-2,-5.400591E-2,5.587479E-1,-1.3300985E0,3.9012183E-3,-5.0143283E-3,1.3726084E0,-5.2001174E-3,-5.149163E-1,2.388386E-3,5.8399914E-3,1.8156111E-3,-1.8892728E-3],"categories":[],"categories_nodes":[],"categories_segments":[],"categories_sizes":[],"default_left":[0,0,0,0,0,0,0,0,0,0,0,0,0],"id":16,"left_children":[1,3,5,7,-1,-1,9,-1,11,-1,-1,-1,-1],"loss_changes":[8.776011E0,3.4171585E2,4.9790806E1,3.8400208E1,0E0,0E0,6.9792023E0,0E0,5.8511934E0,0E0,0E0,0E0,0E0],"parents":[2147483647,0,0,1,1,2,2,3,3,6,6,8,8],"right_children":[2,4,6,8,-1,-1,10,-1,12,-1,-1,-1,-1],"split_conditions":[7.875693E-1,3.7498313E-1,2.3436446E-1,1.8749157E-1,3.9012183E-3,-5.0143283E-3,5.624747E-1,-5.2001174E-3,2.7161184E-1,2.388386E-3,5.8399914E-3,1.8156111E-3,-1.8892728E-3],"split_indices":[1,2,2,2,0,0,2,0,0,0,0,0,0],"split_type":[0,0,0,0,0,0,0,0,0,0,0,0,0],"sum_hessian":[2.1712646E2,1.9048366E2,2.664281E1,9.98483E1,9.063536E1,6.9719505E0,1.967086E1,6.3245552E1,3.660274E1,1.0706924E1,8.963937E0,3.9839718E0,3.261877E1],"tree_param":{"num_deleted":"0","num_feature":"12","num_nodes":"13","size_leaf_vector":"1"}},{"base_weights":[4.4524893E-2,-1.6424786E0,3.0624918E-3,-5.428271E-3,-3.3507783E-3],"categories":[],"categories_nodes":[],"categories_segments":[],"categories_sizes":[],"default_left":[0,0,0,0,0],"id":17,"left_children":[1,3,-1,-1,-1],"loss_changes":[3.634238E2,9.146759E0,0E0,0E0,0E0],"parents":[2147483647,0,0,1,1],"right_children":[2,4,-1,-1,-1],"split_conditions":[2.3436446E-1,1.4061868E-1,3.0624918E-3,-5.428271E-3,-3.3507783E-3],"split_indices":[2,2,0,0,0],"split_type":[0,0,0,0,0],"sum_hessian":[2.118975E2,7.9679436E1,1.3221806E2,5.328562E1,2.6393814E1],"tree_param":{"num_deleted":"0","num_feature":"12","num_nodes":"5","size_leaf_vector":"1"}},{"base_weights":[7.1461745E-2,2.9396841E-2,8.573099E-1,-3.7959114E-1,9.0602055E-2,-4.2692325E-3,4.457499E-3,-4.8073637E-3,1.0327007E0,-1.6808988E0,1.10902E0,9.0880356E-5,5.0029196E-3,-5.428271E-3,-3.5681115E-3,1.0179739E-3,4.6081864E-3],"categories":[],"categories_nodes":[],"categories_segments":[],"categories_sizes":[],"default_left":[0,0,0,0,0,0,0,0,0,0,0,0,0,0,0,0,0],"id":18,"left_children":[1,3,5,7,9,-1,-1,-1,11,13,15,-1,-1,-1,-1,-1,-1],"loss_changes":[7.1280823E0,5.123504E0,1.7593456E1,4.839621E1,3.2119574E2,0E0,0E0,0E0,8.910757E0,5.778763E0,4.16998E1,0E0,0E0,0E0,0E0,0E0,0E0],"parents":[2147483647,0,0,1,1,2,2,3,3,4,4,8,8,9,9,10,10],"right_children":[2,4,6,8,10,-1,-1,-1,12,14,16,-1,-1,-1,-1,-1,-1],"split_conditions":[9.4451874E-1,2.2773747E-1,2.3436446E-1,2.8123736E-1,2.3436446E-1,-4.2692325E-3,4.457499E-3,-4.8073637E-3,5.156018E-1,1.4061868E-1,4.6872893E-1,9.0880356E-5,5.0029196E-3,-5.428271E-3,-3.5681115E-3,1.0179739E-3,4.6081864E-3],"split_indices":[0,1,2,2,2,0,0,0,2,2,2,0,0,0,0,0,0],"split_type":[0,0,0,0,0,0,0,0,0,0,0,0,0,0,0,0,0],"sum_hessian":[2.1563248E2,2.0467656E2,1.0955922E1,2.664281E1,1.7803374E2,2.4899824E0,8.46594E0,1.3943901E1,1.269891E1,6.498854E1,1.13045204E2,5.228963E0,7.4699473E0,4.4819683E1,2.0168858E1,4.4321686E1,6.872351E1],"tree_param":{"num_deleted":"0","num_feature":"12","num_nodes":"17","size_leaf_vector":"1"}},{"base_weights":[-1.2973113E-1,-4.3514296E-3,1.1200039E0,1.0291361E-3,4.224033E-3],"categories":[],"categories_nodes":[],"categories_segments":[],"categories_sizes":[],"default_left":[0,0,0,0,0],"id":19,"left_children":[1,-1,3,-1,-1],"loss_changes":[3.687941E2,0E0,2.9460907E1,0E0,0E0],"parents":[2147483647,0,0,2,2],"right_children":[2,-1,4,-1,-1],"split_conditions":[2.8123736E-1,-4.3514296E-3,4.6872893E-1,1.0291361E-3,4.224033E-3],"split_indices":[2,0,2,0,0],"split_type":[0,0,0,0,0],"sum_hessian":[2.1413849E2,1.0184028E2,1.122982E2,3.4859753E1,7.743845E1],"tree_param":{"num_deleted":"0","num_feature":"12","num_nodes":"5","size_leaf_vector":"1"}},{"base_weights":[-5.808331E-3,-1.4739702E0,3.356672E-3,-5.299012E-3,-5.548658E-1,-4.1404604E-3,-1.0819389E-3],"categories":[],"categories_nodes":[],"categories_segments":[],"categories_sizes":[],"default_left":[0,0,0,0,0,0,0],"id":20,"left_children":[1,3,-1,-1,5,-1,-1],"loss_changes":[3.615138E2,3.1082092E1,0E0,0E0,4.179201E0,0E0,0E0],"parents":[2147483647,0,0,1,1,4,4],"right_children":[2,4,-1,-1,6,-1,-1],"split_conditions":[2.8123736E-1,1.8749157E-1,3.356672E-3,-5.299012E-3,2.8070077E-1,-4.1404604E-3,-1.0819389E-3],"split_indices":[2,2,0,0,1,0,0],"split_type":[0,0,0,0,0,0,0],"sum_hessian":[2.1065251E2,9.337434E1,1.1727817E2,6.698053E1,2.6393814E1,4.4819684E0,2.1911844E1],"tree_param":{"num_deleted":"0","num_feature":"12","num_nodes":"7","size_leaf_vector":"1"}},{"base_weights":[-1.6488036E-2,-4.595825E-3,3.3057022E-3],"categories":[],"categories_nodes":[],"categories_segments":[],"categories_sizes":[],"default_left":[0,0,0],"id":21,"left_children":[1,-1,-1],"loss_changes":[3.8894077E2,0E0,0E0],"parents":[2147483647,0,0],"right_children":[2,-1,-1],"split_conditions":[2.8123736E-1,-4.595825E-3,3.3057022E-3],"split_indices":[2,0,0],"split_type":[0,0,0],"sum_hessian":[2.123955E2,9.013736E1,1.2225813E2],"tree_param":{"num_deleted":"0","num_feature":"12","num_nodes":"3","size_leaf_vector":"1"}},{"base_weights":[4.9351655E-2,-1.7298585E0,1.0646791E0,-5.3022904E-3,-3.0024091E-3,7.322954E-4,1.5988846E0,1.1007096E0,4.964434E-3,3.804613E-3,-2.1167684E-3],"categories":[],"categories_nodes":[],"categories_segments":[],"categories_sizes":[],"default_left":[0,0,0,0,0,0,0,0,0,0,0],"id":22,"left_children":[1,3,5,-1,-1,-1,7,9,-1,-1,-1],"loss_changes":[3.9493372E2,5.8832397E0,6.029785E1,0E0,0E0,0E0,5.071808E0,6.5595455E0,0E0,0E0,0E0],"parents":[2147483647,0,0,1,1,2,2,6,6,7,7],"right_children":[2,4,6,-1,-1,-1,8,10,-1,-1,-1],"split_conditions":[2.3436446E-1,1.8749157E-1,4.6872893E-1,-5.3022904E-3,-3.0024091E-3,7.322954E-4,5.624747E-1,1E0,4.964434E-3,3.804613E-3,-2.1167684E-3],"split_indices":[2,2,2,0,0,0,2,5,0,0,0],"split_type":[0,0,0,0,0,0,0,0,0,0,0],"sum_hessian":[2.1862045E2,7.9430435E1,1.3919002E2,6.872351E1,1.0706924E1,5.527761E1,8.391241E1,1.6433884E1,6.747852E1,1.4690896E1,1.7429876E0],"tree_param":{"num_deleted":"0","num_feature":"12","num_nodes":"11","size_leaf_vector":"1"}},{"base_weights":[-1.6825521E-2,-1.3493925E0,1.2104597E0,-5.2079246E-3,-1.5115764E-3,8.5309786E-1,4.958591E-3,2.4523222E-1,3.0832952E-3,6.161899E-3,2.748521E-4],"categories":[],"categories_nodes":[],"categories_segments":[],"categories_sizes":[],"default_left":[0,0,0,0,0,0,0,0,0,0,0],"id":23,"left_children":[1,3,5,-1,-1,7,-1,9,-1,-1,-1],"loss_changes":[3.465456E2,3.8179443E1,2.0014206E1,0E0,0E0,8.472126E0,0E0,4.799767E0,0E0,0E0,0E0],"parents":[2147483647,0,0,1,1,2,2,5,5,7,7],"right_children":[2,4,6,-1,-1,8,-1,10,-1,-1,-1],"split_conditions":[3.2811025E-1,1.8749157E-1,6.562205E-1,-5.2079246E-3,-1.5115764E-3,3.4099448E-1,4.958591E-3,2.7161184E-1,3.0832952E-3,6.161899E-3,2.748521E-4],"split_indices":[2,2,2,0,0,1,0,0,0,0,0],"split_type":[0,0,0,0,0,0,0,0,0,0,0],"sum_hessian":[2.118975E2,1.0159128E2,1.1030622E2,6.5486534E1,3.6104744E1,6.473954E1,4.5566677E1,1.693188E1,4.7807663E1,1.2449912E0,1.5686889E1],"tree_param":{"num_deleted":"0","num_feature":"12","num_nodes":"11","size_leaf_vector":"1"}},{"base_weights":[-1.194062E-1,-9.600426E-2,-3.1102216E-3,-4.4374056E-2,-4.9905276E-1,-7.198608E-2,9.3032867E-1,2.2985314E-3,-6.3785774E-1,-3.92644E-3,3.5533227E-3,-1.5648548E-3,4.5061894E-3,-4.4624167E-3,1.6546386E-3],"categories":[],"categories_nodes":[],"categories_segments":[],"categories_sizes":[],"default_left":[0,0,0,0,0,0,0,0,0,0,0,0,0,0,0],"id":24,"left_children":[1,3,-1,5,7,9,11,-1,13,-1,-1,-1,-1,-1,-1],"loss_changes":[4.6850576E0,4.2436676E0,0E0,4.8652306E0,4.1641426E0,2.9520712E2,4.6280503E0,0E0,2.3012825E1,0E0,0E0,0E0,0E0,0E0,0E0],"parents":[2147483647,0,0,1,1,3,3,4,4,5,5,6,6,8,8],"right_children":[2,4,-1,6,8,10,12,-1,14,-1,-1,-1,-1,-1,-1],"split_conditions":[9.9074274E-1,1E0,-3.1102216E-3,8.8767314E-1,1.7184308E-1,3.2811025E-1,2.3436446E-1,2.2985314E-3,3.2811025E-1,-3.92644E-3,3.5533227E-3,-1.5648548E-3,4.5061894E-3,-4.4624167E-3,1.6546386E-3],"split_indices":[1,8,0,1,1,2,2,0,2,0,0,0,0,0,0],"split_type":[0,0,0,0,0,0,0,0,0,0,0,0,0,0,0],"sum_hessian":[2.0890953E2,2.0392957E2,4.9799647E0,1.8077272E2,2.3156836E1,1.7579276E2,4.9799647E0,2.2409842E0,2.0915852E1,8.839438E1,8.7398384E1,1.4939895E0,3.4859753E0,1.1951916E1,8.963937E0],"tree_param":{"num_deleted":"0","num_feature":"12","num_nodes":"15","size_leaf_vector":"1"}},{"base_weights":[7.107349E-2,-4.6213577E-3,1.0425448E0,2.622689E-1,4.402718E-3,1.8302491E-3,-7.553486E-2,1.1145936E-3,-1.9758642E-3],"categories":[],"categories_nodes":[],"categories_segments":[],"categories_sizes":[],"default_left":[0,0,0,0,0,0,0,0,0],"id":25,"left_children":[1,-1,3,5,-1,-1,7,-1,-1],"loss_changes":[3.479097E2,0E0,5.1052322E1,6.506986E0,0E0,0E0,7.633599E0,0E0,0E0],"parents":[2147483647,0,0,2,2,3,3,6,6],"right_children":[2,-1,4,6,-1,-1,8,-1,-1],"split_conditions":[2.3436446E-1,-4.6213577E-3,4.6872893E-1,4.485334E-1,4.402718E-3,1.8302491E-3,6.080653E-1,1.1145936E-3,-1.9758642E-3],"split_indices":[2,0,2,1,0,0,0,0,0],"split_type":[0,0,0,0,0,0,0,0,0],"sum_hessian":[2.1413849E2,7.868344E1,1.3545505E2,5.1791634E1,8.366341E1,2.4650826E1,2.7140808E1,1.5437891E1,1.1702917E1],"tree_param":{"num_deleted":"0","num_feature":"12","num_nodes":"9","size_leaf_vector":"1"}},{"base_weights":[7.232544E-2,-1.3593637E0,1.2758197E0,-5.1638554E-3,-1.2481922E-3,1.6816945E-3,4.3840967E-3],"categories":[],"categories_nodes":[],"categories_segments":[],"categories_sizes":[],"default_left":[0,0,0,0,0,0,0],"id":26,"left_children":[1,3,5,-1,-1,-1,-1],"loss_changes":[3.6167343E2,3.820198E1,1.9230972E1,0E0,0E0,0E0,0E0],"parents":[2147483647,0,0,1,1,2,2],"right_children":[2,4,6,-1,-1,-1,-1],"split_conditions":[3.2811025E-1,1.8749157E-1,4.6872893E-1,-5.1638554E-3,-1.2481922E-3,1.6816945E-3,4.3840967E-3],"split_indices":[2,2,2,0,0,0,0],"split_type":[0,0,0,0,0,0,0],"sum_hessian":[2.0990552E2,9.586432E1,1.1404119E2,6.5486534E1,3.0377785E1,2.963079E1,8.44104E1],"tree_param":{"num_deleted":"0","num_feature":"12","num_nodes":"7","size_leaf_vector":"1"}},{"base_weights":[1.3390358E-1,-1.4347017E0,1.2054366E0,-5.428271E-3,-7.8063476E-1,8.524617E-4,4.8297388E-3,-3.6172976E-3,-1.1879469E-3],"categories":[],"categories_nodes":[],"categories_segments":[],"categories_sizes":[],"default_left":[0,0,0,0,0,0,0,0,0],"id":27,"left_children":[1,3,5,-1,7,-1,-1,-1,-1],"loss_changes":[3.7122665E2,2.6162674E1,5.5900238E1,0E0,6.342226E0,0E0,0E0,0E0,0E0],"parents":[2147483647,0,0,1,1,2,2,4,4],"right_children":[2,4,6,-1,8,-1,-1,-1,-1],"split_conditions":[2.8123736E-1,1.4061868E-1,4.6872893E-1,-5.428271E-3,4.453985E-1,8.524617E-4,4.8297388E-3,-3.6172976E-3,-1.1879469E-3],"split_indices":[2,2,2,0,1,0,0,0,0],"split_type":[0,0,0,0,0,0,0,0,0],"sum_hessian":[2.2086143E2,8.9639366E1,1.3122208E2,5.328562E1,3.6353745E1,4.4570686E1,8.665139E1,1.5935887E1,2.0417856E1],"tree_param":{"num_deleted":"0","num_feature":"12","num_nodes":"9","size_leaf_vector":"1"}},{"base_weights":[-5.455685E-2,-1.5499375E0,3.2207738E-3,-5.220561E-3,-2.0193828E-3],"categories":[],"categories_nodes":[],"categories_segments":[],"categories_sizes":[],"default_left":[0,0,0,0,0],"id":28,"left_children":[1,3,-1,-1,-1],"loss_changes":[3.61329E2,1.9960022E1,0E0,0E0,0E0],"parents":[2147483647,0,0,1,1],"right_children":[2,4,-1,-1,-1],"split_conditions":[2.8123736E-1,1.8749157E-1,3.2207738E-3,-5.220561E-3,-2.0193828E-3],"split_indices":[2,2,0,0,0],"split_type":[0,0,0,0,0],"sum_hessian":[2.0641954E2,9.063536E1,1.1578418E2,6.947051E1,2.116485E1],"tree_param":{"num_deleted":"0","num_feature":"12","num_nodes":"5","size_leaf_vector":"1"}},{"base_weights":[-2.5650075E-2,-1.340501E-1,3.232467E-1,-1.7004355E0,8.500086E-1,6.161899E-3,8.083702E-4,-5.428271E-3,-3.4965668E-3,-4.4306584E-2,1.4119537E0,-5.5701984E-4,2.1499458E-3,3.6301033E-3,5.7404814E-3],"categories":[],"categories_nodes":[],"categories_segments":[],"categories_sizes":[],"default_left":[0,0,0,0,0,0,0,0,0,0,0,0,0,0,0],"id":29,"left_children":[1,3,5,7,9,-1,-1,-1,-1,11,13,-1,-1,-1,-1],"loss_changes":[8.541416E0,2.655963E2,4.1846075E0,5.866165E0,5.318264E1,0E0,0E0,0E0,0E0,4.7928624E0,5.779999E0,0E0,0E0,0E0,0E0],"parents":[2147483647,0,0,1,1,2,2,3,3,4,4,9,9,10,10],"right_children":[2,4,6,8,10,-1,-1,-1,-1,12,14,-1,-1,-1,-1],"split_conditions":[7.2021645E-1,2.3436446E-1,1.2140185E-1,1.4061868E-1,4.6872893E-1,6.161899E-3,8.083702E-4,-5.428271E-3,-3.4965668E-3,1E0,8.9058495E-1,-5.5701984E-4,2.1499458E-3,3.6301033E-3,5.7404814E-3],"split_indices":[0,2,1,2,2,0,0,0,0,3,2,0,0,0,0],"split_type":[0,0,0,0,0,0,0,0,0,0,0,0,0,0,0],"sum_hessian":[2.258414E2,1.7230678E2,5.3534622E1,6.648253E1,1.0582425E2,1.2449912E0,5.228963E1,4.8554657E1,1.7927874E1,4.0835712E1,6.498854E1,3.4361755E1,6.473954E0,5.1293636E1,1.3694903E1],"tree_param":{"num_deleted":"0","num_feature":"12","num_nodes":"15","size_leaf_vector":"1"}},{"base_weights":[2.5788553E-2,-1.472882E0,1.1512961E0,-5.179019E-3,-1.5241972E-3,1.5848766E-1,4.3137777E-3,5.28721E-1,-4.585678E-1,3.6683786E-4,4.2302376E-3,-3.772519E-3,5.81471E-4],"categories":[],"categories_nodes":[],"categories_segments":[],"categories_sizes":[],"default_left":[0,0,0,0,0,0,0,0,0,0,0,0,0],"id":30,"left_children":[1,3,5,-1,-1,7,-1,9,11,-1,-1,-1,-1],"loss_changes":[3.662414E2,2.8301453E1,4.2282913E1,0E0,0E0,7.2812552E0,0E0,7.496688E0,6.6948013E0,0E0,0E0,0E0,0E0],"parents":[2147483647,0,0,1,1,2,2,5,5,7,7,8,8],"right_children":[2,4,6,-1,-1,8,-1,10,12,-1,-1,-1,-1],"split_conditions":[2.8123736E-1,1.8749157E-1,4.2185605E-1,-5.179019E-3,-1.5241972E-3,5.0604844E-1,4.3137777E-3,3.7498313E-1,6.1832017E-1,3.6683786E-4,4.2302376E-3,-3.772519E-3,5.81471E-4],"split_indices":[2,2,2,0,0,1,0,2,1,0,0,0,0],"split_type":[0,0,0,0,0,0,0,0,0,0,0,0,0],"sum_hessian":[2.1712646E2,9.312534E1,1.2400112E2,6.947051E1,2.3654833E1,3.1871775E1,9.212935E1,1.9919859E1,1.1951916E1,1.3943901E1,5.975958E0,5.228963E0,6.7229524E0],"tree_param":{"num_deleted":"0","num_feature":"12","num_nodes":"13","size_leaf_vector":"1"}},{"base_weights":[1.6830271E-2,-4.8082846E-1,8.773853E-2,-1.2115849E0,3.918675E-3,-4.2876466E-3,1.1891453E0,-4.945342E-3,-1.178523E-3,4.0671328E-1,1.6125159E0,2.3537318E-3,2.3513101E-4,3.7869017E-3,5.275636E-3],"categories":[],"categories_nodes":[],"categories_segments":[],"categories_sizes":[],"default_left":[0,0,0,0,0,0,0,0,0,0,0,0,0,0,0],"id":31,"left_children":[1,3,5,7,-1,-1,9,-1,-1,11,13,-1,-1,-1,-1],"loss_changes":[7.6795573E0,3.64671E1,3.3010733E2,7.831362E0,0E0,0E0,3.7117264E1,0E0,0E0,5.231694E0,4.706299E0,0E0,0E0,0E0,0E0],"parents":[2147483647,0,0,1,1,2,2,3,3,6,6,9,9,10,10],"right_children":[2,4,6,8,-1,-1,10,-1,-1,12,14,-1,-1,-1,-1],"split_conditions":[2.345584E-1,5.156018E-1,2.8123736E-1,2.8123736E-1,3.918675E-3,-4.2876466E-3,4.6872893E-1,-4.945342E-3,-1.178523E-3,4.9591413E-1,6.562205E-1,2.3537318E-3,2.3513101E-4,3.7869017E-3,5.275636E-3],"split_indices":[1,2,2,2,0,0,2,0,0,0,2,0,0,0,0],"split_type":[0,0,0,0,0,0,0,0,0,0,0,0,0,0,0],"sum_hessian":[2.1762447E2,2.7140808E1,1.9048366E2,1.9421864E1,7.7189455E0,7.843445E1,1.1204921E2,1.1951916E1,7.4699473E0,3.934172E1,7.270749E1,1.7429876E1,2.1911844E1,3.0377785E1,4.23297E1],"tree_param":{"num_deleted":"0","num_feature":"12","num_nodes":"15","size_leaf_vector":"1"}},{"base_weights":[4.3249268E-2,-1.4681691E0,1.1271349E0,-5.127784E-3,-1.5648647E-3,3.1835443E-1,1.5339466E0,-1.9502519E-5,2.0013554E-3,1.216444E0,5.2014315E-3,2.8816962E-3,4.928942E-3],"categories":[],"categories_nodes":[],"categories_segments":[],"categories_sizes":[],"default_left":[0,0,0,0,0,0,0,0,0,0,0,0,0],"id":32,"left_children":[1,3,5,-1,-1,7,9,-1,-1,11,-1,-1,-1],"loss_changes":[3.5161853E2,2.5617447E1,4.1126724E1,0E0,0E0,5.101758E0,7.0867767E0,0E0,0E0,4.080105E0,0E0,0E0,0E0],"parents":[2147483647,0,0,1,1,2,2,5,5,6,6,9,9],"right_children":[2,4,6,-1,-1,8,10,-1,-1,12,-1,-1,-1],"split_conditions":[2.8123736E-1,1.8749157E-1,4.6872893E-1,-5.127784E-3,-1.5648647E-3,3.7498313E-1,6.562205E-1,-1.9502519E-5,2.0013554E-3,6.4793706E-1,5.2014315E-3,2.8816962E-3,4.928942E-3],"split_indices":[2,2,2,0,0,2,2,0,0,1,0,0,0],"split_type":[0,0,0,0,0,0,0,0,0,0,0,0,0],"sum_hessian":[2.1463649E2,8.9639366E1,1.24997116E2,6.722952E1,2.2409842E1,4.1831703E1,8.316541E1,2.2409842E1,1.9421864E1,3.809673E1,4.506868E1,2.6393814E1,1.1702917E1],"tree_param":{"num_deleted":"0","num_feature":"12","num_nodes":"13","size_leaf_vector":"1"}},{"base_weights":[1.175614E-2,-1.6015538E0,9.4720477E-1,-5.428271E-3,-3.1102267E-3,1.0868953E-1,4.1328906E-3,1.9774675E-1,-2.378209E-3,1.5507848E-3,-2.8921195E-4],"categories":[],"categories_nodes":[],"categories_segments":[],"categories_sizes":[],"default_left":[0,0,0,0,0,0,0,0,0,0,0],"id":33,"left_children":[1,3,5,-1,-1,7,-1,9,-1,-1,-1],"loss_changes":[3.5323352E2,1.2572098E1,6.02352E1,0E0,0E0,4.509102E0,0E0,5.014069E0,0E0,0E0,0E0],"parents":[2147483647,0,0,1,1,2,2,5,5,7,7],"right_children":[2,4,6,-1,-1,8,-1,10,-1,-1,-1],"split_conditions":[2.3436446E-1,1.4061868E-1,4.2185605E-1,-5.428271E-3,-3.1102267E-3,1E0,4.1328906E-3,4.794251E-1,-2.378209E-3,1.5507848E-3,-2.8921195E-4],"split_indices":[2,2,2,0,0,4,0,1,0,0,0],"split_type":[0,0,0,0,0,0,0,0,0,0,0],"sum_hessian":[2.3405835E2,8.5904396E1,1.4815395E2,5.6024605E1,2.987979E1,5.4281616E1,9.387234E1,4.955065E1,4.7309666E0,2.3156836E1,2.6393814E1],"tree_param":{"num_deleted":"0","num_feature":"12","num_nodes":"11","size_leaf_vector":"1"}},{"base_weights":[1.3716435E-2,-1.4862893E0,1.0434823E0,-5.156625E-3,-1.8224249E-3,1.0219374E-3,4.6814447E-3],"categories":[],"categories_nodes":[],"categories_segments":[],"categories_sizes":[],"default_left":[0,0,0,0,0,0,0],"id":34,"left_children":[1,3,5,-1,-1,-1,-1],"loss_changes":[3.2692386E2,2.213144E1,5.0062622E1,0E0,0E0,0E0,0E0],"parents":[2147483647,0,0,1,1,2,2],"right_children":[2,4,6,-1,-1,-1,-1],"split_conditions":[2.8123736E-1,1.8749157E-1,5.624747E-1,-5.156625E-3,-1.8224249E-3,1.0219374E-3,4.6814447E-3],"split_indices":[2,2,2,0,0,0,0],"split_type":[0,0,0,0,0,0,0],"sum_hessian":[2.116485E2,8.615339E1,1.2549511E2,6.374355E1,2.2409842E1,5.7269596E1,6.822552E1],"tree_param":{"num_deleted":"0","num_feature":"12","num_nodes":"7","size_leaf_vector":"1"}},{"base_weights":[8.566149E-2],"categories":[],"categories_nodes":[],"categories_segments":[],"categories_sizes":[],"default_left":[0],"id":35,"left_children":[-1],"loss_changes":[0E0],"parents":[2147483647],"right_children":[-1],"split_conditions":[2.472143E-4],"split_indices":[0],"split_type":[0],"sum_hessian":[2.1712646E2],"tree_param":{"num_deleted":"0","num_feature":"12","num_nodes":"1","size_leaf_vector":"1"}},{"base_weights":[1.0092976E-2,-1.5694367E0,1.1573973E0,-5.428271E-3,-2.8526667E-3,8.058614E-4,1.4749786E0,3.0712218E-3,4.735459E-3],"categories":[],"categories_nodes":[],"categories_segments":[],"categories_sizes":[],"default_left":[0,0,0,0,0,0,0,0,0],"id":36,"left_children":[1,3,5,-1,-1,-1,7,-1,-1],"loss_changes":[3.8715958E2,1.626709E1,3.451291E1,0E0,0E0,0E0,6.1932526E0,0E0,0E0],"parents":[2147483647,0,0,1,1,2,2,6,6],"right_children":[2,4,6,-1,-1,-1,8,-1,-1],"split_conditions":[2.8123736E-1,1.4061868E-1,4.2185605E-1,-5.428271E-3,-2.8526667E-3,8.058614E-4,5.624747E-1,3.0712218E-3,4.735459E-3],"split_indices":[2,2,2,0,0,0,2,0,0],"split_type":[0,0,0,0,0,0,0,0,0],"sum_hessian":[2.1364049E2,8.988837E1,1.2375213E2,5.8514587E1,3.1373777E1,3.2867767E1,9.088436E1,2.6144815E1,6.473954E1],"tree_param":{"num_deleted":"0","num_feature":"12","num_nodes":"9","size_leaf_vector":"1"}},{"base_weights":[2.804363E-3,-1.466229E0,1.1481524E0,-5.128893E-3,-1.7241802E-3,2.912918E-1,4.5696814E-3,-3.761245E-4,2.0123622E-3],"categories":[],"categories_nodes":[],"categories_segments":[],"categories_sizes":[],"default_left":[0,0,0,0,0,0,0,0,0],"id":37,"left_children":[1,3,5,-1,-1,7,-1,-1,-1],"loss_changes":[3.5192065E2,2.4755661E1,4.3834E1,0E0,0E0,6.777175E0,0E0,0E0,0E0],"parents":[2147483647,0,0,1,1,2,2,5,5],"right_children":[2,4,6,-1,-1,8,-1,-1,-1],"split_conditions":[2.8123736E-1,1.8749157E-1,4.6872893E-1,-5.128893E-3,-1.7241802E-3,1E0,4.5696814E-3,-3.761245E-4,2.0123622E-3],"split_indices":[2,2,2,0,0,11,0,0,0],"split_type":[0,0,0,0,0,0,0,0,0],"sum_hessian":[2.0915852E2,9.1631355E1,1.1752717E2,6.747852E1,2.415283E1,3.959072E1,7.793645E1,1.9421864E1,2.0168858E1],"tree_param":{"num_deleted":"0","num_feature":"12","num_nodes":"9","size_leaf_vector":"1"}},{"base_weights":[2.86559E-2,-1.6902591E0,3.1785395E-3,-5.428271E-3,-3.5551037E-3],"categories":[],"categories_nodes":[],"categories_segments":[],"categories_sizes":[],"default_left":[0,0,0,0,0],"id":38,"left_children":[1,3,-1,-1,-1],"loss_changes":[4.0266223E2,7.3342133E0,0E0,0E0,0E0],"parents":[2147483647,0,0,1,1],"right_children":[2,4,-1,-1,-1],"split_conditions":[2.3436446E-1,1.4061868E-1,3.1785395E-3,-5.428271E-3,-3.5551037E-3],"split_indices":[2,2,0,0,0],"split_type":[0,0,0,0,0],"sum_hessian":[2.1837146E2,8.391241E1,1.3445905E2,5.926158E1,2.4650826E1],"tree_param":{"num_deleted":"0","num_feature":"12","num_nodes":"5","size_leaf_vector":"1"}},{"base_weights":[5.6773644E-2,-1.6944283E0,1.0632474E0,-5.428271E-3,-3.654257E-3,2.144183E-1,1.476434E0,6.161899E-3,4.639628E-4,3.1077676E-3,5.0029256E-3],"categories":[],"categories_nodes":[],"categories_segments":[],"categories_sizes":[],"default_left":[0,0,0,0,0,0,0,0,0,0,0],"id":39,"left_children":[1,3,5,-1,-1,7,9,-1,-1,-1,-1],"loss_changes":[3.8839914E2,6.422989E0,4.907939E1,0E0,0E0,4.7213273E0,9.669586E0,0E0,0E0,0E0,0E0],"parents":[2147483647,0,0,1,1,2,2,5,5,6,6],"right_children":[2,4,6,-1,-1,8,10,-1,-1,-1,-1],"split_conditions":[2.3436446E-1,1.4061868E-1,4.2185605E-1,-5.428271E-3,-3.654257E-3,1.5946066E-1,6.0934764E-1,6.161899E-3,4.639628E-4,3.1077676E-3,5.0029256E-3],"split_indices":[2,2,2,0,0,0,2,0,0,0,0],"split_type":[0,0,0,0,0,0,0,0,0,0,0],"sum_hessian":[2.2036345E2,8.042643E1,1.3993701E2,5.6024605E1,2.4401827E1,4.5815678E1,9.412134E1,1.2449912E0,4.4570686E1,3.6851738E1,5.7269596E1],"tree_param":{"num_deleted":"0","num_feature":"12","num_nodes":"11","size_leaf_vector":"1"}},{"base_weights":[-5.2749824E-2,-4.8163654E-3,1.0028319E0,2.5749637E-4,1.4377528E0,2.5400028E-3,4.530731E-3],"categories":[],"categories_nodes":[],"categories_segments":[],"categories_sizes":[],"default_left":[0,0,0,0,0,0,0],"id":40,"left_children":[1,-1,3,-1,5,-1,-1],"loss_changes":[3.462013E2,0E0,4.8776787E1,0E0,6.129715E0,0E0,0E0],"parents":[2147483647,0,0,2,2,4,4],"right_children":[2,-1,4,-1,6,-1,-1],"split_conditions":[2.3436446E-1,-4.8163654E-3,4.2185605E-1,2.5749637E-4,5.156018E-1,2.5400028E-3,4.530731E-3],"split_indices":[2,0,2,0,2,0,0],"split_type":[0,0,0,0,0,0,0],"sum_hessian":[2.0293356E2,8.017744E1,1.22756134E2,3.959072E1,8.316541E1,1.5935887E1,6.722952E1],"tree_param":{"num_deleted":"0","num_feature":"12","num_nodes":"7","size_leaf_vector":"1"}},{"base_weights":[3.465177E-2,-1.5462598E0,1.1371713E0,-5.2420828E-3,-2.5014477E-3,4.3681058E-1,4.645107E-3,2.0457946E-3,1.2711194E-1,-8.830869E-4,1.8493065E-3],"categories":[],"categories_nodes":[],"categories_segments":[],"categories_sizes":[],"default_left":[0,0,0,0,0,0,0,0,0,0,0],"id":41,"left_children":[1,3,5,-1,-1,7,-1,-1,9,-1,-1],"loss_changes":[3.675984E2,1.5906616E1,4.110739E1,0E0,0E0,4.217108E0,0E0,0E0,5.207364E0,0E0,0E0],"parents":[2147483647,0,0,1,1,2,2,5,5,8,8],"right_children":[2,4,6,-1,-1,8,-1,-1,10,-1,-1],"split_conditions":[2.8123736E-1,1.8749157E-1,5.156018E-1,-5.2420828E-3,-2.5014477E-3,5.0604844E-1,4.645107E-3,2.0457946E-3,4.2185605E-1,-8.830869E-4,1.8493065E-3],"split_indices":[2,2,2,0,0,1,0,0,2,0,0],"split_type":[0,0,0,0,0,0,0,0,0,0,0],"sum_hessian":[2.109015E2,8.665139E1,1.2425012E2,6.200056E1,2.4650826E1,5.0048645E1,7.420148E1,2.664281E1,2.3405834E1,1.269891E1,1.0706924E1],"tree_param":{"num_deleted":"0","num_feature":"12","num_nodes":"11","size_leaf_vector":"1"}},{"base_weights":[-3.530352E-2],"categories":[],"categories_nodes":[],"categories_segments":[],"categories_sizes":[],"default_left":[0],"id":42,"left_children":[-1],"loss_changes":[0E0],"parents":[2147483647],"right_children":[-1],"split_conditions":[-1.0188399E-4],"split_indices":[0],"split_type":[0],"sum_hessian":[2.0318256E2],"tree_param":{"num_deleted":"0","num_feature":"12","num_nodes":"1","size_leaf_vector":"1"}},{"base_weights":[7.230179E-2],"categories":[],"categories_nodes":[],"categories_segments":[],"categories_sizes":[],"default_left":[0],"id":43,"left_children":[-1],"loss_changes":[0E0],"parents":[2147483647],"right_children":[-1],"split_conditions":[2.0865895E-4],"split_indices":[0],"split_type":[0],"sum_hessian":[2.0069258E2],"tree_param":{"num_deleted":"0","num_feature":"12","num_nodes":"1","size_leaf_vector":"1"}},{"base_weights":[-1.0584001E-1,-1.5225427E0,1.0163299E0,-5.220561E-3,-2.1330125E-3,1.3124836E-3,4.53357E-3],"categories":[],"categories_nodes":[],"categories_segments":[],"categories_sizes":[],"default_left":[0,0,0,0,0,0,0],"id":44,"left_children":[1,3,5,-1,-1,-1,-1],"loss_changes":[3.4122507E2,2.1287613E1,3.7298637E1,0E0,0E0,0E0,0E0],"parents":[2147483647,0,0,1,1,2,2],"right_children":[2,4,6,-1,-1,-1,-1],"split_conditions":[2.8123736E-1,1.8749157E-1,5.624747E-1,-5.220561E-3,-2.1330125E-3,1.3124836E-3,4.53357E-3],"split_indices":[2,2,2,0,0,0,0],"split_type":[0,0,0,0,0,0,0],"sum_hessian":[2.1463649E2,9.486833E1,1.1976815E2,6.947051E1,2.539782E1,5.951058E1,6.0257572E1],"tree_param":{"num_deleted":"0","num_feature":"12","num_nodes":"7","size_leaf_vector":"1"}},{"base_weights":[-3.647147E-2],"categories":[],"categories_nodes":[],"categories_segments":[],"categories_sizes":[],"default_left":[0],"id":45,"left_children":[-1],"loss_changes":[0E0],"parents":[2147483647],"right_children":[-1],"split_conditions":[-1.0525464E-4],"split_indices":[0],"split_type":[0],"sum_hessian":[2.109015E2],"tree_param":{"num_deleted":"0","num_feature":"12","num_nodes":"1","size_leaf_vector":"1"}},{"base_weights":[-6.4018145E-2,-1.5271851E0,3.3204746E-3,-5.1884735E-3,-2.0477902E-3],"categories":[],"categories_nodes":[],"categories_segments":[],"categories_sizes":[],"default_left":[0,0,0,0,0],"id":46,"left_children":[1,3,-1,-1,-1],"loss_changes":[3.7657196E2,2.1269135E1,0E0,0E0,0E0],"parents":[2147483647,0,0,1,1],"right_children":[2,4,-1,-1,-1],"split_conditions":[2.8123736E-1,1.8749157E-1,3.3204746E-3,-5.1884735E-3,-2.0477902E-3],"split_indices":[2,2,0,0,0],"split_type":[0,0,0,0,0],"sum_hessian":[2.118975E2,9.611332E1,1.1578418E2,7.220949E1,2.3903831E1],"tree_param":{"num_deleted":"0","num_feature":"12","num_nodes":"5","size_leaf_vector":"1"}},{"base_weights":[1.6067956E-2,-4.389372E-3,1.0898738E0,3.6683804E-4,1.4824048E0,2.834062E-3,4.834823E-3],"categories":[],"categories_nodes":[],"categories_segments":[],"categories_sizes":[],"default_left":[0,0,0,0,0,0,0],"id":47,"left_children":[1,-1,3,-1,5,-1,-1],"loss_changes":[3.567141E2,0E0,4.8085068E1,0E0,8.724182E0,0E0,0E0],"parents":[2147483647,0,0,2,2,4,4],"right_children":[2,-1,4,-1,6,-1,-1],"split_conditions":[2.8123736E-1,-4.389372E-3,4.2185605E-1,3.6683804E-4,5.624747E-1,2.834062E-3,4.834823E-3],"split_indices":[2,0,2,0,2,0,0],"split_type":[0,0,0,0,0,0,0],"sum_hessian":[2.1613048E2,8.889237E1,1.272381E2,3.6851738E1,9.038636E1,2.5148823E1,6.523754E1],"tree_param":{"num_deleted":"0","num_feature":"12","num_nodes":"7","size_leaf_vector":"1"}},{"base_weights":[3.171234E-2,-1.5178354E0,1.167425E0,-5.2999663E-3,-5.992024E-1,1.3996297E-3,1.6331465E0,-3.882904E-3,-2.4939653E-1,5.0029256E-3,2.620489E-3,5.0741193E-5,-5.4282476E-3],"categories":[],"categories_nodes":[],"categories_segments":[],"categories_sizes":[],"default_left":[0,0,0,0,0,0,0,0,0,0,0,0,0],"id":48,"left_children":[1,3,5,-1,7,-1,9,-1,11,-1,-1,-1,-1],"loss_changes":[3.7816434E2,2.6603058E1,3.9411102E1,0E0,6.109929E0,0E0,5.3659363E0,0E0,6.941416E0,0E0,0E0,0E0,0E0],"parents":[2147483647,0,0,1,1,2,2,4,4,6,6,8,8],"right_children":[2,4,6,-1,8,-1,10,-1,12,-1,-1,-1,-1],"split_conditions":[2.8123736E-1,1.8749157E-1,5.156018E-1,-5.2999663E-3,3.8911584E-1,1.3996297E-3,1E0,-3.882904E-3,1E0,5.0029256E-3,2.620489E-3,5.0741193E-5,-5.4282476E-3],"split_indices":[2,2,2,0,1,0,9,0,10,0,0,0,0],"split_type":[0,0,0,0,0,0,0,0,0,0,0,0,0],"sum_hessian":[2.1488548E2,9.088436E1,1.2400112E2,6.747852E1,2.3405834E1,5.0297646E1,7.3703476E1,7.4699473E0,1.5935887E1,6.473954E1,8.963937E0,1.3694903E1,2.2409842E0],"tree_param":{"num_deleted":"0","num_feature":"12","num_nodes":"13","size_leaf_vector":"1"}},{"base_weights":[6.145997E-2,-1.4901792E0,1.1719174E0,-1.7024411E0,-7.921833E-4,5.192156E-1,1.4888904E0,-5.428271E-3,-3.8680485E-3,4.0671328E-1,6.1619254E-3,3.908294E-3,5.316826E-3,1.3503367E-4,2.1123523E-3],"categories":[],"categories_nodes":[],"categories_segments":[],"categories_sizes":[],"default_left":[0,0,0,0,0,0,0,0,0,0,0,0,0,0,0],"id":49,"left_children":[1,3,5,7,-1,9,11,-1,-1,13,-1,-1,-1,-1,-1],"loss_changes":[3.8055078E2,2.3773315E1,2.663321E1,5.0698547E0,0E0,7.650114E0,4.1233063E0,0E0,0E0,4.605278E0,0E0,0E0,0E0,0E0,0E0],"parents":[2147483647,0,0,1,1,2,2,3,3,5,5,6,6,9,9],"right_children":[2,4,6,8,-1,10,12,-1,-1,14,-1,-1,-1,-1,-1],"split_conditions":[2.8123736E-1,2.3436446E-1,4.6872893E-1,1.4061868E-1,-7.921833E-4,9.4451874E-1,6.509806E-1,-5.428271E-3,-3.8680485E-3,1E0,6.1619254E-3,3.908294E-3,5.316826E-3,1.3503367E-4,2.1123523E-3],"split_indices":[2,2,2,2,0,0,1,0,0,11,0,0,0,0,0],"split_type":[0,0,0,0,0,0,0,0,0,0,0,0,0,0,0],"sum_hessian":[2.2086143E2,9.212935E1,1.2873209E2,7.843445E1,1.3694903E1,4.2080704E1,8.665139E1,5.2538628E1,2.5895817E1,3.934172E1,2.7389805E0,6.2747555E1,2.3903831E1,1.8674868E1,2.0666853E1],"tree_param":{"num_deleted":"0","num_feature":"12","num_nodes":"15","size_leaf_vector":"1"}},{"base_weights":[-8.6303554E-2,-1.5694367E0,1.060187E0,-5.2985298E-3,-2.3126204E-3,2.8157702E-1,4.33396E-3,4.420992E-4,4.6165735E-3],"categories":[],"categories_nodes":[],"categories_segments":[],"categories_sizes":[],"default_left":[0,0,0,0,0,0,0,0,0],"id":50,"left_children":[1,3,5,-1,-1,7,-1,-1,-1],"loss_changes":[3.5057202E2,1.8402802E1,3.997821E1,0E0,0E0,7.1211505E0,0E0,0E0,0E0],"parents":[2147483647,0,0,1,1,2,2,5,5],"right_children":[2,4,6,-1,-1,8,-1,-1,-1],"split_conditions":[2.8123736E-1,1.8749157E-1,4.6872893E-1,-5.2985298E-3,-2.3126204E-3,1E0,4.33396E-3,4.420992E-4,4.6165735E-3],"split_indices":[2,2,2,0,0,7,0,0,0],"split_type":[0,0,0,0,0,0,0,0,0],"sum_hessian":[2.0617055E2,8.988837E1,1.1628218E2,6.673153E1,2.3156836E1,4.2080704E1,7.420148E1,3.834573E1,3.7349737E0],"tree_param":{"num_deleted":"0","num_feature":"12","num_nodes":"9","size_leaf_vector":"1"}},{"base_weights":[2.1177543E-2,-2.779445E-1,3.85532E-4,-4.7464925E-3,2.2690492E-3],"categories":[],"categories_nodes":[],"categories_segments":[],"categories_sizes":[],"default_left":[0,0,0,0,0],"id":51,"left_children":[1,3,-1,-1,-1],"loss_changes":[7.1417804E0,8.438368E1,0E0,0E0,0E0],"parents":[2147483647,0,0,1,1],"right_children":[2,4,-1,-1,-1],"split_conditions":[3.4493604E-1,2.8123736E-1,3.85532E-4,-4.7464925E-3,2.2690492E-3],"split_indices":[1,2,0,0,0],"split_type":[0,0,0,0,0],"sum_hessian":[2.123955E2,5.801659E1,1.543789E2,2.539782E1,3.261877E1],"tree_param":{"num_deleted":"0","num_feature":"12","num_nodes":"5","size_leaf_vector":"1"}},{"base_weights":[7.001115E-2],"categories":[],"categories_nodes":[],"categories_segments":[],"categories_sizes":[],"default_left":[0],"id":52,"left_children":[-1],"loss_changes":[0E0],"parents":[2147483647],"right_children":[-1],"split_conditions":[2.0204828E-4],"split_indices":[0],"split_type":[0],"sum_hessian":[2.1015451E2],"tree_param":{"num_deleted":"0","num_feature":"12","num_nodes":"1","size_leaf_vector":"1"}},{"base_weights":[-6.993928E-2],"categories":[],"categories_nodes":[],"categories_segments":[],"categories_sizes":[],"default_left":[0],"id":53,"left_children":[-1],"loss_changes":[0E0],"parents":[2147483647],"right_children":[-1],"split_conditions":[-2.0184087E-4],"split_indices":[0],"split_type":[0],"sum_hessian":[2.1314249E2],"tree_param":{"num_deleted":"0","num_feature":"12","num_nodes":"1","size_leaf_vector":"1"}},{"base_weights":[5.8531566E-3,8.285753E-2,-5.4223657E-1,-4.157086E-3,1.2180216E0,-4.358403E-3,3.3427018E-3,1.4082634E0,1.002414E0,2.244126E-3,4.9256566E-3,9.9371464E-5,4.2896806E-3],"categories":[],"categories_nodes":[],"categories_segments":[],"categories_sizes":[],"default_left":[0,0,0,0,0,0,0,0,0,0,0,0,0],"id":54,"left_children":[1,3,5,-1,7,-1,-1,9,11,-1,-1,-1,-1],"loss_changes":[8.701491E0,3.1259494E2,4.180629E1,0E0,4.248703E0,0E0,0E0,1.0359589E1,2.2747543E1,0E0,0E0,0E0,0E0],"parents":[2147483647,0,0,1,1,2,2,4,4,7,7,8,8],"right_children":[2,4,6,-1,8,-1,-1,10,12,-1,-1,-1,-1],"split_conditions":[1E0,2.8123736E-1,3.7498313E-1,-4.157086E-3,4.972696E-1,-4.358403E-3,3.3427018E-3,4.6872893E-1,5.156018E-1,2.244126E-3,4.9256566E-3,9.9371464E-5,4.2896806E-3],"split_indices":[8,2,2,0,1,0,0,2,2,0,0,0,0],"split_type":[0,0,0,0,0,0,0,0,0,0,0,0,0],"sum_hessian":[2.0617055E2,1.8077272E2,2.539782E1,7.718945E1,1.0358327E2,1.6184885E1,9.2129345E0,5.502861E1,4.8554657E1,1.7678875E1,3.7349735E1,1.6184885E1,3.236977E1],"tree_param":{"num_deleted":"0","num_feature":"12","num_nodes":"13","size_leaf_vector":"1"}},{"base_weights":[1.9954067E-2,-1.1233325E-3,2.2138625E-4],"categories":[],"categories_nodes":[],"categories_segments":[],"categories_sizes":[],"default_left":[0,0,0],"id":55,"left_children":[1,-1,-1],"loss_changes":[4.9849567E0,0E0,0E0],"parents":[2147483647,0,0],"right_children":[2,-1,-1],"split_conditions":[2.2773747E-1,-1.1233325E-3,2.2138625E-4],"split_indices":[1,0,0],"split_type":[0,0,0],"sum_hessian":[2.1463649E2,2.6144815E1,1.8849167E2],"tree_param":{"num_deleted":"0","num_feature":"12","num_nodes":"3","size_leaf_vector":"1"}},{"base_weights":[4.021408E-2,-1.4984492E0,1.1432317E0,-5.131086E-3,-5.900471E-1,2.758561E-1,4.506202E-3,-9.967166E-4,-4.7038714E-3,2.062967E-3,-1.7409487E-1,-1.6391602E-3,1.6086452E-3],"categories":[],"categories_nodes":[],"categories_segments":[],"categories_sizes":[],"default_left":[0,0,0,0,0,0,0,0,0,0,0,0,0],"id":56,"left_children":[1,3,5,-1,7,9,-1,-1,-1,-1,11,-1,-1],"loss_changes":[3.6131705E2,2.2570267E1,4.49796E1,0E0,5.3217206E0,7.9674234E0,0E0,0E0,0E0,0E0,5.739476E0,0E0,0E0],"parents":[2147483647,0,0,1,1,2,2,4,4,5,5,10,10],"right_children":[2,4,6,-1,8,10,-1,-1,-1,-1,12,-1,-1],"split_conditions":[2.8123736E-1,1.8749157E-1,4.6872893E-1,-5.131086E-3,8.323676E-1,4.794251E-1,4.506202E-3,-9.967166E-4,-4.7038714E-3,2.062967E-3,6.883678E-1,-1.6391602E-3,1.6086452E-3],"split_indices":[2,2,2,0,0,1,0,0,0,0,1,0,0],"split_type":[0,0,0,0,0,0,0,0,0,0,0,0,0],"sum_hessian":[2.128935E2,8.889237E1,1.2400112E2,6.797652E1,2.0915852E1,4.0337715E1,8.366341E1,1.693188E1,3.9839718E0,2.0417856E1,1.9919859E1,1.2947908E1,6.9719505E0],"tree_param":{"num_deleted":"0","num_feature":"12","num_nodes":"13","size_leaf_vector":"1"}},{"base_weights":[1.8696345E-2,-1.2412288E-3,1.4837722E-1,1.2620925E0,1.08227536E-1,8.936631E-4,6.1619277E-3,-4.899037E-3,1.0520593E0,3.6683804E-4,4.3756412E-3],"categories":[],"categories_nodes":[],"categories_segments":[],"categories_sizes":[],"default_left":[0,0,0,0,0,0,0,0,0,0,0],"id":57,"left_children":[1,-1,3,5,7,-1,-1,-1,9,-1,-1],"loss_changes":[1.2346841E1,0E0,7.3595963E0,4.7621346E0,2.707547E2,0E0,0E0,0E0,4.478865E1,0E0,0E0],"parents":[2147483647,0,0,2,2,3,3,4,4,8,8],"right_children":[2,-1,4,6,8,-1,-1,-1,10,-1,-1],"split_conditions":[3.147409E-1,-1.2412288E-3,3.355214E-1,4.2185605E-1,2.3436446E-1,8.936631E-4,6.1619277E-3,-4.899037E-3,4.2185605E-1,3.6683804E-4,4.3756412E-3],"split_indices":[1,0,1,2,2,0,0,0,2,0,0],"split_type":[0,0,0,0,0,0,0,0,0,0,0],"sum_hessian":[2.121465E2,4.7558662E1,1.6458783E2,5.7269597E0,1.5886087E2,2.7389805E0,2.987979E0,5.4530613E1,1.0433026E2,3.4859753E1,6.947051E1],"tree_param":{"num_deleted":"0","num_feature":"12","num_nodes":"11","size_leaf_vector":"1"}},{"base_weights":[3.2784224E-3,-4.2974105E-1,2.1950481E-4,-2.2742197E-2,-9.54143E-1,-4.4056E-3,4.405849E-3,-4.269246E-3,2.298534E-3],"categories":[],"categories_nodes":[],"categories_segments":[],"categories_sizes":[],"default_left":[0,0,0,0,0,0,0,0,0],"id":58,"left_children":[1,3,-1,5,7,-1,-1,-1,-1],"loss_changes":[6.489787E0,6.3241315E0,0E0,3.8871704E1,1.1904092E1,0E0,0E0,0E0,0E0],"parents":[2147483647,0,0,1,1,3,3,4,4],"right_children":[2,4,-1,6,8,-1,-1,-1,-1],"split_conditions":[2.345584E-1,1.4820045E-1,2.1950481E-4,3.7498313E-1,5.156018E-1,-4.4056E-3,4.405849E-3,-4.269246E-3,2.298534E-3],"split_indices":[1,1,0,2,2,0,0,0,0],"split_type":[0,0,0,0,0,0,0,0,0],"sum_hessian":[2.0592154E2,2.963079E1,1.7629076E2,1.6682882E1,1.2947908E1,8.46594E0,8.216942E0,9.959929E0,2.987979E0],"tree_param":{"num_deleted":"0","num_feature":"12","num_nodes":"9","size_leaf_vector":"1"}},{"base_weights":[4.4777516E-2],"categories":[],"categories_nodes":[],"categories_segments":[],"categories_sizes":[],"default_left":[0],"id":59,"left_children":[-1],"loss_changes":[0E0],"parents":[2147483647],"right_children":[-1],"split_conditions":[1.2922543E-4],"split_indices":[0],"split_type":[0],"sum_hessian":[2.1862045E2],"tree_param":{"num_deleted":"0","num_feature":"12","num_nodes":"1","size_leaf_vector":"1"}},{"base_weights":[-1.1730414E-1,-1.2758896E0,3.691401E-3,-1.6961446E0,-6.8681804E-4,-5.428271E-3,-3.5177947E-3],"categories":[],"categories_nodes":[],"categories_segments":[],"categories_sizes":[],"default_left":[0,0,0,0,0,0,0],"id":60,"left_children":[1,3,-1,5,-1,-1,-1],"loss_changes":[3.3758133E2,4.974289E1,0E0,7.158066E0,0E0,0E0,0E0],"parents":[2147483647,0,0,1,1,3,3],"right_children":[2,4,-1,6,-1,-1,-1],"split_conditions":[3.7498313E-1,2.3436446E-1,3.691401E-3,1.4061868E-1,-6.8681804E-4,-5.428271E-3,-3.5177947E-3],"split_indices":[2,2,0,2,0,0,0],"split_type":[0,0,0,0,0,0,0],"sum_hessian":[2.0866052E2,1.1404119E2,9.461933E1,8.117342E1,3.2867767E1,5.8514587E1,2.265884E1],"tree_param":{"num_deleted":"0","num_feature":"12","num_nodes":"7","size_leaf_vector":"1"}},{"base_weights":[-1.10499054E-1,-1.5375894E0,1.0467634E0,-5.1868083E-3,-2.235047E-3,1.1083924E-3,4.5436905E-3],"categories":[],"categories_nodes":[],"categories_segments":[],"categories_sizes":[],"default_left":[0,0,0,0,0,0,0],"id":61,"left_children":[1,3,5,-1,-1,-1,-1],"loss_changes":[3.5447607E2,1.9046417E1,4.1444855E1,0E0,0E0,0E0,0E0],"parents":[2147483647,0,0,1,1,2,2],"right_children":[2,4,6,-1,-1,-1,-1],"split_conditions":[2.8123736E-1,1.8749157E-1,5.624747E-1,-5.1868083E-3,-2.235047E-3,1.1083924E-3,4.5436905E-3],"split_indices":[2,2,2,0,0,0,0],"split_type":[0,0,0,0,0,0,0],"sum_hessian":[2.1463649E2,9.611332E1,1.1852316E2,7.1711494E1,2.4401827E1,5.2538628E1,6.5984535E1],"tree_param":{"num_deleted":"0","num_feature":"12","num_nodes":"7","size_leaf_vector":"1"}},{"base_weights":[1.0669069E-2,-3.144915E-1,1.404103E-1,-1.3924903E0,4.0433044E-3,-3.6451556E-3,2.0354281E-1,-5.084006E-3,-5.992021E-1,-1.432626E0,1.1726236E0,-2.3927358E-3,3.8438733E-3,-5.4282704E-3,-2.3028182E-3,1.1227216E-3,4.1518356E-3],"categories":[],"categories_nodes":[],"categories_segments":[],"categories_sizes":[],"default_left":[0,0,0,0,0,0,0,0,0,0,0,0,0,0,0,0,0],"id":62,"left_children":[1,3,5,7,-1,-1,9,-1,11,13,15,-1,-1,-1,-1,-1,-1],"loss_changes":[8.876239E0,1.1097591E2,1.33258E1,1.0791847E1,0E0,0E0,2.2819823E2,0E0,5.1956716E0,1.5232376E1,1.884092E1,0E0,0E0,0E0,0E0,0E0,0E0],"parents":[2147483647,0,0,1,1,2,2,3,3,6,6,8,8,9,9,10,10],"right_children":[2,4,6,8,-1,-1,10,-1,12,14,16,-1,-1,-1,-1,-1,-1],"split_conditions":[3.4493604E-1,3.7498313E-1,1.5946066E-1,2.3436446E-1,4.0433044E-3,-3.6451556E-3,2.8123736E-1,-5.084006E-3,1E0,1.4061868E-1,4.2185605E-1,-2.3927358E-3,3.8438733E-3,-5.4282704E-3,-2.3028182E-3,1.1227216E-3,4.1518356E-3],"split_indices":[1,2,0,2,0,0,2,0,9,2,2,0,0,0,0,0,0],"split_type":[0,0,0,0,0,0,0,0,0,0,0,0,0,0,0,0,0],"sum_hessian":[2.1040352E2,6.0008575E1,1.5039494E2,3.6851738E1,2.3156836E1,6.473954E0,1.4392099E2,2.5148823E1,1.1702917E1,5.3534622E1,9.038636E1,1.0457926E1,1.2449912E0,3.1373777E1,2.2160843E1,2.2907839E1,6.747852E1],"tree_param":{"num_deleted":"0","num_feature":"12","num_nodes":"17","size_leaf_vector":"1"}},{"base_weights":[-5.543767E-2,-1.5058047E0,3.2257587E-3,-5.428271E-3,-2.6916915E-3],"categories":[],"categories_nodes":[],"categories_segments":[],"categories_sizes":[],"default_left":[0,0,0,0,0],"id":63,"left_children":[1,3,-1,-1,-1],"loss_changes":[3.4487793E2,1.9485886E1,0E0,0E0,0E0],"parents":[2147483647,0,0,1,1],"right_children":[2,4,-1,-1,-1],"split_conditions":[2.8123736E-1,1.4061868E-1,3.2257587E-3,-5.428271E-3,-2.6916915E-3],"split_indices":[2,2,0,0,0],"split_type":[0,0,0,0,0],"sum_hessian":[2.0268457E2,9.063536E1,1.1204921E2,5.4779613E1,3.5855747E1],"tree_param":{"num_deleted":"0","num_feature":"12","num_nodes":"5","size_leaf_vector":"1"}},{"base_weights":[-4.4306595E-2,-1.1561617E0,1.4562198E0,-1.6847081E0,-4.8122663E-4,2.7668322E-3,4.7711213E-3,-5.428271E-3,-3.7725247E-3],"categories":[],"categories_nodes":[],"categories_segments":[],"categories_sizes":[],"default_left":[0,0,0,0,0,0,0,0,0],"id":64,"left_children":[1,3,5,7,-1,-1,-1,-1,-1],"loss_changes":[3.40645E2,6.1330734E1,8.517059E0,5.662491E0,0E0,0E0,0E0,0E0,0E0],"parents":[2147483647,0,0,1,1,2,2,3,3],"right_children":[2,4,6,8,-1,-1,-1,-1,-1],"split_conditions":[4.2185605E-1,2.3436446E-1,5.624747E-1,1.4061868E-1,-4.8122663E-4,2.7668322E-3,4.7711213E-3,-5.428271E-3,-3.7725247E-3],"split_indices":[2,2,2,2,0,0,0,0,0],"split_type":[0,0,0,0,0,0,0,0,0],"sum_hessian":[2.0417856E2,1.1727817E2,8.690038E1,7.644246E1,4.0835712E1,2.4650826E1,6.224956E1,5.0297646E1,2.6144815E1],"tree_param":{"num_deleted":"0","num_feature":"12","num_nodes":"9","size_leaf_vector":"1"}},{"base_weights":[-3.963805E-2,-1.5788882E0,1.0744563E0,-4.949945E-3,-1.740473E-3,2.1441829E-1,1.4059793E0,-3.7725046E-3,8.534502E-4,1.0327011E0,4.4867983E-3,2.0102262E-3,4.8373463E-3],"categories":[],"categories_nodes":[],"categories_segments":[],"categories_sizes":[],"default_left":[0,0,0,0,0,0,0,0,0,0,0,0,0],"id":65,"left_children":[1,3,5,-1,-1,7,9,-1,-1,11,-1,-1,-1],"loss_changes":[3.650847E2,1.1889282E1,3.52135E1,0E0,0E0,4.2512407E0,4.948822E0,0E0,0E0,5.4935226E0,0E0,0E0,0E0],"parents":[2147483647,0,0,1,1,2,2,5,5,6,6,9,9],"right_children":[2,4,6,-1,-1,8,10,-1,-1,12,-1,-1,-1],"split_conditions":[2.8123736E-1,2.3436446E-1,4.2185605E-1,-4.949945E-3,-1.740473E-3,1.0201767E-1,5.624747E-1,-3.7725046E-3,8.534502E-4,6.148222E-1,4.4867983E-3,2.0102262E-3,4.8373463E-3],"split_indices":[2,2,2,0,0,1,2,0,0,1,0,0,0],"split_type":[0,0,0,0,0,0,0,0,0,0,0,0,0],"sum_hessian":[2.128935E2,8.9390366E1,1.2350313E2,7.843445E1,1.0955922E1,3.4361755E1,8.914137E1,1.7429876E0,3.261877E1,2.539782E1,6.374355E1,1.6682882E1,8.714938E0],"tree_param":{"num_deleted":"0","num_feature":"12","num_nodes":"13","size_leaf_vector":"1"}},{"base_weights":[-9.4449446E-2,-1.1328386E0,1.4143211E0,-5.215996E-3,-3.558358E-1,2.6957132E-3,4.6894196E-3,-6.7985964E-1,-8.913912E-2,-2.5002153E-3,2.298534E-3,-5.4282355E-3,-7.0399215E-6],"categories":[],"categories_nodes":[],"categories_segments":[],"categories_sizes":[],"default_left":[0,0,0,0,0,0,0,0,0,0,0,0,0],"id":66,"left_children":[1,3,5,-1,7,-1,-1,9,11,-1,-1,-1,-1],"loss_changes":[3.3587894E2,6.6557526E1,8.839111E0,0E0,5.099636E0,0E0,0E0,7.3349733E0,5.028551E0,0E0,0E0,0E0,0E0],"parents":[2147483647,0,0,1,1,2,2,4,4,7,7,8,8],"right_children":[2,4,6,-1,8,-1,-1,10,12,-1,-1,-1,-1],"split_conditions":[4.2185605E-1,1.8749157E-1,5.624747E-1,-5.215996E-3,2.8123736E-1,2.6957132E-3,4.6894196E-3,1E0,7.95321E-2,-2.5002153E-3,2.298534E-3,-5.4282355E-3,-7.0399215E-6],"split_indices":[2,2,2,0,2,0,0,8,1,0,0,0,0],"split_type":[0,0,0,0,0,0,0,0,0,0,0,0,0],"sum_hessian":[2.1438748E2,1.26989105E2,8.7398384E1,6.797652E1,5.9012585E1,2.664281E1,6.075557E1,2.664281E1,3.236977E1,2.3654833E1,2.987979E0,1.4939895E0,3.0875782E1],"tree_param":{"num_deleted":"0","num_feature":"12","num_nodes":"13","size_leaf_vector":"1"}},{"base_weights":[-2.5222555E-2,-1.57619E0,1.1171068E0,-5.063799E-3,-1.337605E-3,1.8692737E-3,1.5592068E0,3.6683632E-4,4.6320385E-3],"categories":[],"categories_nodes":[],"categories_segments":[],"categories_sizes":[],"default_left":[0,0,0,0,0,0,0,0,0],"id":67,"left_children":[1,3,5,-1,-1,-1,7,-1,-1],"loss_changes":[3.8380408E2,1.8244095E1,2.588742E1,0E0,0E0,0E0,4.2160797E0,0E0,0E0],"parents":[2147483647,0,0,1,1,2,2,6,6],"right_children":[2,4,6,-1,-1,-1,8,-1,-1],"split_conditions":[2.8123736E-1,2.3436446E-1,5.624747E-1,-5.063799E-3,-1.337605E-3,1.8692737E-3,2.0933054E-2,3.6683632E-4,4.6320385E-3],"split_indices":[2,2,2,0,0,0,1,0,0],"split_type":[0,0,0,0,0,0,0,0,0],"sum_hessian":[2.1662846E2,9.188035E1,1.24748116E2,7.918144E1,1.269891E1,6.0506573E1,6.424155E1,1.9919859E0,6.224956E1],"tree_param":{"num_deleted":"0","num_feature":"12","num_nodes":"9","size_leaf_vector":"1"}},{"base_weights":[-1.4632453E-2,-1.5068324E0,1.1083634E0,-5.428271E-3,-2.7105645E-3,2.992302E-1,1.565132E0,1.773131E-1,4.6165735E-3,3.048156E-3,4.921842E-3,6.183234E-5,2.727805E-3],"categories":[],"categories_nodes":[],"categories_segments":[],"categories_sizes":[],"default_left":[0,0,0,0,0,0,0,0,0,0,0,0,0],"id":68,"left_children":[1,3,5,-1,-1,7,9,11,-1,-1,-1,-1,-1],"loss_changes":[3.546667E2,1.9298492E1,4.4632828E1,0E0,0E0,6.9086113E0,5.5122986E0,4.769004E0,0E0,0E0,0E0,0E0,0E0],"parents":[2147483647,0,0,1,1,2,2,5,5,6,6,7,7],"right_children":[2,4,6,-1,-1,8,10,12,-1,-1,-1,-1,-1],"split_conditions":[2.8123736E-1,1.4061868E-1,4.6872893E-1,-5.428271E-3,-2.7105645E-3,1E0,5.624747E-1,8.323676E-1,4.6165735E-3,3.048156E-3,4.921842E-3,6.183234E-5,2.727805E-3],"split_indices":[2,2,2,0,0,3,2,0,0,0,0,0,0],"split_type":[0,0,0,0,0,0,0,0,0,0,0,0,0],"sum_hessian":[2.116485E2,9.088436E1,1.20764145E2,5.4779613E1,3.6104744E1,4.357469E1,7.718945E1,3.9839718E1,3.7349737E0,1.6682882E1,6.0506573E1,3.3116764E1,6.7229524E0],"tree_param":{"num_deleted":"0","num_feature":"12","num_nodes":"13","size_leaf_vector":"1"}},{"base_weights":[5.326924E-2,-4.4376543E-3,1.1882746E0,5.7616866E-1,5.071103E-3,7.8077434E-4,2.9358033E-3],"categories":[],"categories_nodes":[],"categories_segments":[],"categories_sizes":[],"default_left":[0,0,0,0,0,0,0],"id":69,"left_children":[1,-1,3,5,-1,-1,-1],"loss_changes":[3.7903357E2,0E0,4.2660156E1,7.9556904E0,0E0,0E0,0E0],"parents":[2147483647,0,0,2,2,3,3],"right_children":[2,-1,4,6,-1,-1,-1],"split_conditions":[2.8123736E-1,-4.4376543E-3,5.624747E-1,4.2185605E-1,5.071103E-3,7.8077434E-4,2.9358033E-3],"split_indices":[2,0,2,2,0,0,0],"split_type":[0,0,0,0,0,0,0],"sum_hessian":[2.0990552E2,8.7398384E1,1.2250713E2,5.9012585E1,6.3494553E1,3.4859753E1,2.415283E1],"tree_param":{"num_deleted":"0","num_feature":"12","num_nodes":"7","size_leaf_vector":"1"}},{"base_weights":[2.0515283E-3],"categories":[],"categories_nodes":[],"categories_segments":[],"categories_sizes":[],"default_left":[0],"id":70,"left_children":[-1],"loss_changes":[0E0],"parents":[2147483647],"right_children":[-1],"split_conditions":[5.920597E-6],"split_indices":[0],"split_type":[0],"sum_hessian":[2.118975E2],"tree_param":{"num_deleted":"0","num_feature":"12","num_nodes":"1","size_leaf_vector":"1"}},{"base_weights":[-1.1146934E-2,-4.4425055E-3,1.1139885E0,1.0253731E-3,4.3127956E-3],"categories":[],"categories_nodes":[],"categories_segments":[],"categories_sizes":[],"default_left":[0,0,0,0,0],"id":71,"left_children":[1,-1,3,-1,-1],"loss_changes":[3.9174722E2,0E0,3.7873947E1,0E0,0E0],"parents":[2147483647,0,0,2,2],"right_children":[2,-1,4,-1,-1],"split_conditions":[2.8123736E-1,-4.4425055E-3,4.6872893E-1,1.0253731E-3,4.3127956E-3],"split_indices":[2,0,2,0,0],"split_type":[0,0,0,0,0],"sum_hessian":[2.2783339E2,9.661132E1,1.3122208E2,4.382369E1,8.7398384E1],"tree_param":{"num_deleted":"0","num_feature":"12","num_nodes":"5","size_leaf_vector":"1"}},{"base_weights":[-1.9104972E-2,-1.5546969E0,1.1547844E0,-5.251321E-3,-2.378213E-3,5.129332E-4,1.4888904E0,2.9898866E-3,4.787613E-3],"categories":[],"categories_nodes":[],"categories_segments":[],"categories_sizes":[],"default_left":[0,0,0,0,0,0,0,0,0],"id":72,"left_children":[1,3,5,-1,-1,-1,7,-1,-1],"loss_changes":[3.6985077E2,1.7206024E1,3.7958923E1,0E0,0E0,0E0,6.6731567E0,0E0,0E0],"parents":[2147483647,0,0,1,1,2,2,6,6],"right_children":[2,4,6,-1,-1,-1,8,-1,-1],"split_conditions":[2.8123736E-1,1.8749157E-1,4.2185605E-1,-5.251321E-3,-2.378213E-3,5.129332E-4,5.624747E-1,2.9898866E-3,4.787613E-3],"split_indices":[2,2,2,0,0,0,2,0,0],"split_type":[0,0,0,0,0,0,0,0,0],"sum_hessian":[2.0517455E2,8.889237E1,1.1628218E2,6.523754E1,2.3654833E1,2.963079E1,8.665139E1,2.3654833E1,6.2996555E1],"tree_param":{"num_deleted":"0","num_feature":"12","num_nodes":"9","size_leaf_vector":"1"}},{"base_weights":[-3.4483988E-4,-5.0116293E-3,1.0039715E0,1.2711197E-1,4.2246776E-3,6.5358414E-5,6.1619207E-3],"categories":[],"categories_nodes":[],"categories_segments":[],"categories_sizes":[],"default_left":[0,0,0,0,0,0,0],"id":73,"left_children":[1,-1,3,5,-1,-1,-1],"loss_changes":[3.6254178E2,0E0,5.311949E1,9.506254E0,0E0,0E0,0E0],"parents":[2147483647,0,0,2,2,3,3],"right_children":[2,-1,4,6,-1,-1,-1],"split_conditions":[2.3436446E-1,-5.0116293E-3,4.2185605E-1,1E0,4.2246776E-3,6.5358414E-5,6.1619207E-3],"split_indices":[2,0,2,4,0,0,0],"split_type":[0,0,0,0,0,0,0],"sum_hessian":[2.0791353E2,7.619346E1,1.3172006E2,4.531768E1,8.640239E1,4.3076694E1,2.2409842E0],"tree_param":{"num_deleted":"0","num_feature":"12","num_nodes":"7","size_leaf_vector":"1"}},{"base_weights":[-6.468069E-2],"categories":[],"categories_nodes":[],"categories_segments":[],"categories_sizes":[],"default_left":[0],"id":74,"left_children":[-1],"loss_changes":[0E0],"parents":[2147483647],"right_children":[-1],"split_conditions":[-1.8666487E-4],"split_indices":[0],"split_type":[0],"sum_hessian":[2.1637947E2],"tree_param":{"num_deleted":"0","num_feature":"12","num_nodes":"1","size_leaf_vector":"1"}},{"base_weights":[5.9319973E-2,-4.238749E-3,1.2715725E0,5.0772196E-1,4.704282E-3,9.954558E-1,1.467706E-4,1.2448836E-3,4.183126E-3],"categories":[],"categories_nodes":[],"categories_segments":[],"categories_sizes":[],"default_left":[0,0,0,0,0,0,0,0,0],"id":75,"left_children":[1,-1,3,5,-1,7,-1,-1,-1],"loss_changes":[3.9621194E2,0E0,3.2660446E1,8.489035E0,0E0,4.719124E0,0E0,0E0,0E0],"parents":[2147483647,0,0,2,2,3,3,5,5],"right_children":[2,-1,4,6,-1,8,-1,-1,-1],"split_conditions":[2.8123736E-1,-4.238749E-3,4.6872893E-1,5.0350773E-1,4.704282E-3,1E0,1.467706E-4,1.2448836E-3,4.183126E-3],"split_indices":[2,0,2,1,0,11,0,0,0],"split_type":[0,0,0,0,0,0,0,0,0],"sum_hessian":[2.1388948E2,9.461933E1,1.1927016E2,3.809673E1,8.117342E1,1.8425869E1,1.967086E1,8.216942E0,1.0208928E1],"tree_param":{"num_deleted":"0","num_feature":"12","num_nodes":"9","size_leaf_vector":"1"}},{"base_weights":[-4.0283532E-5],"categories":[],"categories_nodes":[],"categories_segments":[],"categories_sizes":[],"default_left":[0],"id":76,"left_children":[-1],"loss_changes":[0E0],"parents":[2147483647],"right_children":[-1],"split_conditions":[-1.1625603E-7],"split_indices":[0],"split_type":[0],"sum_hessian":[2.0841153E2],"tree_param":{"num_deleted":"0","num_feature":"12","num_nodes":"1","size_leaf_vector":"1"}},{"base_weights":[-2.2955526E-2,-1.2314067E0,1.2901882E0,-1.6736519E0,-4.8670507E-4,1.4343577E-3,4.253802E-3,-5.428271E-3,-3.367787E-3],"categories":[],"categories_nodes":[],"categories_segments":[],"categories_sizes":[],"default_left":[0,0,0,0,0,0,0,0,0],"id":77,"left_children":[1,3,5,7,-1,-1,-1,-1,-1],"loss_changes":[3.330928E2,5.137587E1,1.4664032E1,8.107025E0,0E0,0E0,0E0,0E0,0E0],"parents":[2147483647,0,0,1,1,2,2,3,3],"right_children":[2,4,6,8,-1,-1,-1,-1,-1],"split_conditions":[3.7498313E-1,2.3436446E-1,4.6872893E-1,1.4061868E-1,-4.8670507E-4,1.4343577E-3,4.253802E-3,-5.428271E-3,-3.367787E-3],"split_indices":[2,2,2,2,0,0,0,0,0],"split_type":[0,0,0,0,0,0,0,0,0],"sum_hessian":[2.0990552E2,1.0931023E2,1.0059529E2,7.718945E1,3.2120773E1,1.8923866E1,8.1671425E1,5.4779613E1,2.2409842E1],"tree_param":{"num_deleted":"0","num_feature":"12","num_nodes":"9","size_leaf_vector":"1"}},{"base_weights":[-6.258823E-2,-1.5489372E0,1.0680017E0,-5.2578268E-3,-2.390058E-3,4.5754993E-1,4.71317E-3,3.6683804E-4,2.4790736E-3],"categories":[],"categories_nodes":[],"categories_segments":[],"categories_sizes":[],"default_left":[0,0,0,0,0,0,0,0,0],"id":78,"left_children":[1,3,5,-1,-1,7,-1,-1,-1],"loss_changes":[3.6319675E2,1.8368881E1,4.2350067E1,0E0,0E0,7.828594E0,0E0,0E0,0E0],"parents":[2147483647,0,0,1,1,2,2,5,5],"right_children":[2,4,6,-1,-1,8,-1,-1,-1],"split_conditions":[2.8123736E-1,1.8749157E-1,5.624747E-1,-5.2578268E-3,-2.390058E-3,4.2185605E-1,4.71317E-3,3.6683804E-4,2.4790736E-3],"split_indices":[2,2,2,0,0,2,0,0,0],"split_type":[0,0,0,0,0,0,0,0,0],"sum_hessian":[2.1613048E2,9.337434E1,1.22756134E2,6.772752E1,2.5646818E1,5.9012585E1,6.374355E1,3.236977E1,2.664281E1],"tree_param":{"num_deleted":"0","num_feature":"12","num_nodes":"9","size_leaf_vector":"1"}},{"base_weights":[1.366741E-1,-1.5582124E0,1.2665985E0,-5.0286083E-3,-1.1449287E-3,3.5557225E-1,1.7180566E0,6.161899E-3,8.676499E-4,3.4348355E-3,5.3433073E-3],"categories":[],"categories_nodes":[],"categories_segments":[],"categories_sizes":[],"default_left":[0,0,0,0,0,0,0,0,0,0,0],"id":79,"left_children":[1,3,5,-1,-1,7,9,-1,-1,-1,-1],"loss_changes":[4.0055817E2,1.7902908E1,5.16149E1,0E0,0E0,4.064441E0,5.9104614E0,0E0,0E0,0E0,0E0],"parents":[2147483647,0,0,1,1,2,2,5,5,6,6],"right_children":[2,4,6,-1,-1,8,10,-1,-1,-1,-1],"split_conditions":[2.8123736E-1,2.3436446E-1,4.6872893E-1,-5.0286083E-3,-1.1449287E-3,3.4238912E-2,5.624747E-1,6.161899E-3,8.676499E-4,3.4348355E-3,5.3433073E-3],"split_indices":[2,2,2,0,0,1,2,0,0,0,0],"split_type":[0,0,0,0,0,0,0,0,0,0,0],"sum_hessian":[2.0915852E2,8.366341E1,1.2549511E2,7.220949E1,1.1453919E1,4.1582706E1,8.391241E1,1.2449912E0,4.0337715E1,1.693188E1,6.698053E1],"tree_param":{"num_deleted":"0","num_feature":"12","num_nodes":"11","size_leaf_vector":"1"}},{"base_weights":[4.4467147E-2,-1.6397274E0,1.0353448E0,-5.428271E-3,-3.1102267E-3,1.589857E-1,1.4746867E0,-4.990976E-4,4.4209948E-1,3.2919878E-3,4.6279477E-3,8.1261544E-4,5.108273E-3],"categories":[],"categories_nodes":[],"categories_segments":[],"categories_sizes":[],"default_left":[0,0,0,0,0,0,0,0,0,0,0,0,0],"id":80,"left_children":[1,3,5,-1,-1,7,9,-1,11,-1,-1,-1,-1],"loss_changes":[3.7356683E2,1.1240219E1,5.426219E1,0E0,0E0,4.4224324E0,4.042221E0,0E0,5.413958E0,0E0,0E0,0E0,0E0],"parents":[2147483647,0,0,1,1,2,2,5,5,6,6,8,8],"right_children":[2,4,6,-1,-1,8,10,-1,12,-1,-1,-1,-1],"split_conditions":[2.3436446E-1,1.4061868E-1,4.2185605E-1,-5.428271E-3,-3.1102267E-3,1E0,5.624747E-1,-4.990976E-4,1E0,3.2919878E-3,4.6279477E-3,8.1261544E-4,5.108273E-3],"split_indices":[2,2,2,0,0,11,2,0,5,0,0,0,0],"split_type":[0,0,0,0,0,0,0,0,0,0,0,0,0],"sum_hessian":[2.2384941E2,8.291641E1,1.40933E2,5.801659E1,2.4899824E1,4.706067E1,9.387234E1,2.1662848E1,2.539782E1,2.6144815E1,6.772752E1,2.265884E1,2.7389805E0],"tree_param":{"num_deleted":"0","num_feature":"12","num_nodes":"13","size_leaf_vector":"1"}},{"base_weights":[-2.8876808E-2,-1.4736685E0,1.0959061E0,-4.8837643E-3,-3.3086324E-1,4.9897233E-1,1.6331464E0,1.9188744E-1,-2.7536016E-3,1.3050939E-3,6.1619068E-3,-1.5648548E-3,1.6889255E0,-2.8526548E-3,1.9473191E-3,5.1960954E-3,2.6848787E-3],"categories":[],"categories_nodes":[],"categories_segments":[],"categories_sizes":[],"default_left":[0,0,0,0,0,0,0,0,0,0,0,0,0,0,0,0,0],"id":81,"left_children":[1,3,5,-1,7,9,11,13,-1,-1,-1,-1,15,-1,-1,-1,-1],"loss_changes":[3.2816412E2,2.2081467E1,3.641295E1,0E0,4.624329E0,4.1137934E0,7.2512665E0,4.399499E0,0E0,0E0,0E0,0E0,4.930847E0,0E0,0E0,0E0,0E0],"parents":[2147483647,0,0,1,1,2,2,4,4,5,5,6,6,7,7,12,12],"right_children":[2,4,6,-1,8,10,12,14,-1,-1,-1,-1,16,-1,-1,-1,-1],"split_conditions":[2.8123736E-1,2.3436446E-1,5.624747E-1,-4.8837643E-3,1E0,1E0,4.006521E-2,3.83763E-1,-2.7536016E-3,1.3050939E-3,6.1619068E-3,-1.5648548E-3,1E0,-2.8526548E-3,1.9473191E-3,5.1960954E-3,2.6848787E-3],"split_indices":[2,2,2,0,11,0,1,0,0,0,0,0,10,0,0,0,0],"split_type":[0,0,0,0,0,0,0,0,0,0,0,0,0,0,0,0,0],"sum_hessian":[2.0193758E2,8.839438E1,1.135432E2,7.420148E1,1.41929E1,5.378362E1,5.975958E1,7.7189455E0,6.473954E0,5.228963E1,1.4939895E0,1.4939895E0,5.8265587E1,2.2409842E0,5.477961E0,5.079564E1,7.4699473E0],"tree_param":{"num_deleted":"0","num_feature":"12","num_nodes":"17","size_leaf_vector":"1"}},{"base_weights":[-1.7193407E-2,-1.2507745E0,1.3197079E0,-1.715322E0,-7.410503E-4,2.4256266E-3,4.67725E-3,-5.428271E-3,-3.7112003E-3],"categories":[],"categories_nodes":[],"categories_segments":[],"categories_sizes":[],"default_left":[0,0,0,0,0,0,0,0,0],"id":82,"left_children":[1,3,5,7,-1,-1,-1,-1,-1],"loss_changes":[3.371371E2,4.9095154E1,1.4150574E1,5.152359E0,0E0,0E0,0E0,0E0,0E0],"parents":[2147483647,0,0,1,1,2,2,3,3],"right_children":[2,4,6,8,-1,-1,-1,-1,-1],"split_conditions":[3.7498313E-1,2.3436446E-1,5.624747E-1,1.4061868E-1,-7.410503E-4,2.4256266E-3,4.67725E-3,-5.428271E-3,-3.7112003E-3],"split_indices":[2,2,2,2,0,0,0,0,0],"split_type":[0,0,0,0,0,0,0,0,0],"sum_hessian":[2.0442755E2,1.0632225E2,9.810531E1,7.245849E1,3.386376E1,3.7847733E1,6.0257572E1,5.228963E1,2.0168858E1],"tree_param":{"num_deleted":"0","num_feature":"12","num_nodes":"9","size_leaf_vector":"1"}},{"base_weights":[-4.637653E-3,-1.2509589E0,1.3413893E0,-1.6662374E0,-3.1437328E-1,2.049289E-3,4.917072E-3,-5.428271E-3,-3.6206217E-3,-1.1671613E-3,6.161899E-3],"categories":[],"categories_nodes":[],"categories_segments":[],"categories_sizes":[],"default_left":[0,0,0,0,0,0,0,0,0,0,0],"id":83,"left_children":[1,3,5,7,9,-1,-1,-1,-1,-1,-1],"loss_changes":[3.6926004E2,4.445244E1,2.421138E1,6.9983215E0,7.7447963E0,0E0,0E0,0E0,0E0,0E0,0E0],"parents":[2147483647,0,0,1,1,2,2,3,3,4,4],"right_children":[2,4,6,8,10,-1,-1,-1,-1,-1,-1],"split_conditions":[3.7498313E-1,2.3436446E-1,5.624747E-1,1.4061868E-1,8.605001E-1,2.049289E-3,4.917072E-3,-5.428271E-3,-3.6206217E-3,-1.1671613E-3,6.161899E-3],"split_indices":[2,2,2,2,1,0,0,0,0,0,0],"split_type":[0,0,0,0,0,0,0,0,0,0,0],"sum_hessian":[2.2011444E2,1.1429019E2,1.0582425E2,7.918144E1,3.5108753E1,3.8594727E1,6.722952E1,5.204063E1,2.7140808E1,3.386376E1,1.2449912E0],"tree_param":{"num_deleted":"0","num_feature":"12","num_nodes":"11","size_leaf_vector":"1"}},{"base_weights":[6.325186E-2,-1.4479322E0,1.2361584E0,-5.428271E-3,-8.377932E-1,1.4343581E-3,4.5620706E-3,-3.0452348E-3,-9.894633E-4],"categories":[],"categories_nodes":[],"categories_segments":[],"categories_sizes":[],"default_left":[0,0,0,0,0,0,0,0,0],"id":84,"left_children":[1,3,5,-1,7,-1,-1,-1,-1],"loss_changes":[3.7470096E2,2.4405548E1,3.0318481E1,0E0,4.126007E0,0E0,0E0,0E0,0E0],"parents":[2147483647,0,0,1,1,2,2,4,4],"right_children":[2,4,6,-1,8,-1,-1,-1,-1],"split_conditions":[2.8123736E-1,1.4061868E-1,4.6872893E-1,-5.428271E-3,2.3436446E-1,1.4343581E-3,4.5620706E-3,-3.0452348E-3,-9.894633E-4],"split_indices":[2,2,2,0,2,0,0,0,0],"split_type":[0,0,0,0,0,0,0,0,0],"sum_hessian":[2.113995E2,9.237835E1,1.1902116E2,5.403262E1,3.834573E1,3.7847733E1,8.117342E1,2.664281E1,1.1702917E1],"tree_param":{"num_deleted":"0","num_feature":"12","num_nodes":"9","size_leaf_vector":"1"}},{"base_weights":[-7.3692635E-2],"categories":[],"categories_nodes":[],"categories_segments":[],"categories_sizes":[],"default_left":[0],"id":85,"left_children":[-1],"loss_changes":[0E0],"parents":[2147483647],"right_children":[-1],"split_conditions":[-2.1267285E-4],"split_indices":[0],"split_type":[0],"sum_hessian":[2.1413849E2],"tree_param":{"num_deleted":"0","num_feature":"12","num_nodes":"1","size_leaf_vector":"1"}},{"base_weights":[-3.907115E-2,-1.4072918E0,1.1636628E0,-5.1687886E-3,-1.9261905E-3,1.1075662E-3,1.4779793E0,4.5005507E-3,2.4029554E-3],"categories":[],"categories_nodes":[],"categories_segments":[],"categories_sizes":[],"default_left":[0,0,0,0,0,0,0,0,0],"id":86,"left_children":[1,3,5,-1,-1,-1,7,-1,-1],"loss_changes":[3.5648505E2,2.8771439E1,2.8260117E1,0E0,0E0,0E0,4.321335E0,0E0,0E0],"parents":[2147483647,0,0,1,1,2,2,6,6],"right_children":[2,4,6,-1,-1,-1,8,-1,-1],"split_conditions":[3.2811025E-1,1.8749157E-1,4.6872893E-1,-5.1687886E-3,-1.9261905E-3,1.1075662E-3,1E0,4.5005507E-3,2.4029554E-3],"split_indices":[2,2,2,0,0,0,10,0,0],"split_type":[0,0,0,0,0,0,0,0,0],"sum_hessian":[2.1662846E2,1.01342285E2,1.1528619E2,6.673153E1,3.4610756E1,3.3116764E1,8.216942E1,7.295648E1,9.2129345E0],"tree_param":{"num_deleted":"0","num_feature":"12","num_nodes":"9","size_leaf_vector":"1"}},{"base_weights":[-2.0398518E-2,-1.1492574E0,1.5729052E0,-5.1638554E-3,-4.2053694E-1,1.4681255E0,5.971941E-3,-8.667692E-1,-8.586259E-2,3.0009774E-3,4.6858345E-3,-3.057544E-3,1.9473156E-3,4.506177E-3,-5.140184E-4],"categories":[],"categories_nodes":[],"categories_segments":[],"categories_sizes":[],"default_left":[0,0,0,0,0,0,0,0,0,0,0,0,0,0,0],"id":87,"left_children":[1,3,5,-1,7,9,-1,11,13,-1,-1,-1,-1,-1,-1],"loss_changes":[3.7798715E2,5.737216E1,4.5329742E0,0E0,8.589971E0,4.7937317E0,0E0,7.322262E0,4.9945693E0,0E0,0E0,0E0,0E0,0E0,0E0],"parents":[2147483647,0,0,1,1,2,2,4,4,5,5,7,7,8,8],"right_children":[2,4,6,-1,8,10,-1,12,14,-1,-1,-1,-1,-1,-1],"split_conditions":[4.2185605E-1,1.8749157E-1,7.13184E-1,-5.1638554E-3,2.8123736E-1,5.624747E-1,5.971941E-3,1E0,1.2140185E-1,3.0009774E-3,4.6858345E-3,-3.057544E-3,1.9473156E-3,4.506177E-3,-5.140184E-4],"split_indices":[2,2,1,0,2,2,0,5,1,0,0,0,0,0,0],"split_type":[0,0,0,0,0,0,0,0,0,0,0,0,0,0,0],"sum_hessian":[2.1015451E2,1.2300513E2,8.714938E1,6.5486534E1,5.7518593E1,7.1960495E1,1.5188892E1,2.4650826E1,3.2867767E1,1.9172865E1,5.278763E1,2.1911844E1,2.7389805E0,1.7429876E0,3.112478E1],"tree_param":{"num_deleted":"0","num_feature":"12","num_nodes":"15","size_leaf_vector":"1"}},{"base_weights":[5.596978E-2,-2.905616E-1,1.9458234E-1,-5.120565E-3,9.332617E-1,-1.6020387E0,1.1434091E0,4.7617947E-4,4.092264E-3,-5.4282704E-3,-3.0467182E-3,3.66838E-4,4.405854E-3],"categories":[],"categories_nodes":[],"categories_segments":[],"categories_sizes":[],"default_left":[0,0,0,0,0,0,0,0,0,0,0,0,0],"id":88,"left_children":[1,3,5,-1,7,9,11,-1,-1,-1,-1,-1,-1],"loss_changes":[1.0465248E1,1.13035774E2,2.6528934E2,0E0,1.27037525E1,8.194931E0,3.966638E1,0E0,0E0,0E0,0E0,0E0,0E0],"parents":[2147483647,0,0,1,1,2,2,4,4,5,5,6,6],"right_children":[2,4,6,-1,8,10,12,-1,-1,-1,-1,-1,-1],"split_conditions":[3.6373737E-1,2.8123736E-1,2.3436446E-1,-5.120565E-3,4.6872893E-1,1.4061868E-1,4.2185605E-1,4.7617947E-4,4.092264E-3,-5.4282704E-3,-3.0467182E-3,3.66838E-4,4.405854E-3],"split_indices":[1,2,2,0,2,2,2,0,0,0,0,0,0],"split_type":[0,0,0,0,0,0,0,0,0,0,0,0,0],"sum_hessian":[2.1787346E2,6.224956E1,1.556239E2,2.81368E1,3.411276E1,5.378362E1,1.0184028E2,1.3196907E1,2.0915852E1,3.5606747E1,1.8176872E1,2.7887802E1,7.395248E1],"tree_param":{"num_deleted":"0","num_feature":"12","num_nodes":"13","size_leaf_vector":"1"}},{"base_weights":[-9.749264E-3,-4.7527677E-3,9.28213E-1,-4.6171185E-2,1.4442174E0,-1.0361881E-3,2.4523227E-1,3.3235261E-3,4.719609E-3,3.0009737E-3,7.70826E-5],"categories":[],"categories_nodes":[],"categories_segments":[],"categories_sizes":[],"default_left":[0,0,0,0,0,0,0,0,0,0,0],"id":89,"left_children":[1,-1,3,5,7,-1,9,-1,-1,-1,-1],"loss_changes":[3.4220374E2,0E0,7.123481E1,4.4722757E0,5.1808167E0,0E0,4.4101753E0,0E0,0E0,0E0,0E0],"parents":[2147483647,0,0,2,2,3,3,4,4,6,6],"right_children":[2,-1,4,6,8,-1,10,-1,-1,-1,-1],"split_conditions":[2.3436446E-1,-4.7527677E-3,4.2185605E-1,1E0,6.0934764E-1,-1.0361881E-3,3.078796E-1,3.3235261E-3,4.719609E-3,3.0009737E-3,7.70826E-5],"split_indices":[2,0,2,11,2,0,1,0,0,0,0],"split_type":[0,0,0,0,0,0,0,0,0,0,0],"sum_hessian":[2.2285342E2,8.117342E1,1.4168E2,4.9052654E1,9.262734E1,2.3654833E1,2.539782E1,3.660274E1,5.6024605E1,5.477961E0,1.9919859E1],"tree_param":{"num_deleted":"0","num_feature":"12","num_nodes":"11","size_leaf_vector":"1"}},{"base_weights":[-6.0490947E-2,-1.4912325E0,1.0096806E0,-5.428271E-3,-2.5506993E-3,4.3286383E-1,4.5127464E-3,7.807744E-4,3.2027403E-3],"categories":[],"categories_nodes":[],"categories_segments":[],"categories_sizes":[],"default_left":[0,0,0,0,0,0,0,0,0],"id":90,"left_children":[1,3,5,-1,-1,7,-1,-1,-1],"loss_changes":[3.3054456E2,2.1866272E1,3.946749E1,0E0,0E0,6.648203E0,0E0,0E0,0E0],"parents":[2147483647,0,0,1,1,2,2,5,5],"right_children":[2,4,6,-1,-1,8,-1,-1,-1],"split_conditions":[2.8123736E-1,1.4061868E-1,5.624747E-1,-5.428271E-3,-2.5506993E-3,7.13184E-1,4.5127464E-3,7.807744E-4,3.2027403E-3],"split_indices":[2,2,2,0,0,1,0,0,0],"split_type":[0,0,0,0,0,0,0,0,0],"sum_hessian":[2.1588147E2,9.237835E1,1.2350313E2,5.62736E1,3.6104744E1,6.0506573E1,6.2996555E1,4.8803654E1,1.1702917E1],"tree_param":{"num_deleted":"0","num_feature":"12","num_nodes":"9","size_leaf_vector":"1"}},{"base_weights":[4.8636615E-2,-4.025245E-3,1.1680175E0,1.2241027E-3,1.5596433E0,3.734266E-3,5.157015E-3],"categories":[],"categories_nodes":[],"categories_segments":[],"categories_sizes":[],"default_left":[0,0,0,0,0,0,0],"id":91,"left_children":[1,-1,3,-1,5,-1,-1],"loss_changes":[3.5001273E2,0E0,3.5542923E1,0E0,4.826996E0,0E0,0E0],"parents":[2147483647,0,0,2,2,4,4],"right_children":[2,-1,4,-1,6,-1,-1],"split_conditions":[2.8123736E-1,-4.025245E-3,4.6872893E-1,1.2241027E-3,6.562205E-1,3.734266E-3,5.157015E-3],"split_indices":[2,0,2,0,2,0,0],"split_type":[0,0,0,0,0,0,0],"sum_hessian":[2.1662846E2,9.461933E1,1.2200914E2,4.2080704E1,7.992844E1,3.6851738E1,4.3076694E1],"tree_param":{"num_deleted":"0","num_feature":"12","num_nodes":"7","size_leaf_vector":"1"}},{"base_weights":[1.8441249E-2,9.2898875E-2,-1.8313063E-3,-1.4740751E0,3.296095E-3,-5.1695607E-3,-1.7533232E-3],"categories":[],"categories_nodes":[],"categories_segments":[],"categories_sizes":[],"default_left":[0,0,0,0,0,0,0],"id":92,"left_children":[1,3,-1,5,-1,-1,-1],"loss_changes":[1.0290553E1,3.1235583E2,0E0,2.0943863E1,0E0,0E0,0E0],"parents":[2147483647,0,0,1,1,3,3],"right_children":[2,4,-1,6,-1,-1,-1],"split_conditions":[1E0,2.8123736E-1,-1.8313063E-3,1.8749157E-1,3.296095E-3,-5.1695607E-3,-1.7533232E-3],"split_indices":[9,2,0,2,0,0,0],"split_type":[0,0,0,0,0,0,0],"sum_hessian":[2.116485E2,1.8998566E2,2.1662848E1,7.619346E1,1.137922E2,5.5775604E1,2.0417856E1],"tree_param":{"num_deleted":"0","num_feature":"12","num_nodes":"7","size_leaf_vector":"1"}},{"base_weights":[4.4655982E-2,-1.5847621E0,1.1742526E0,-5.428271E-3,-3.072535E-3,3.1419608E-3,5.0581144E-3],"categories":[],"categories_nodes":[],"categories_segments":[],"categories_sizes":[],"default_left":[0,0,0,0,0,0,0],"id":93,"left_children":[1,3,5,-1,-1,-1,-1],"loss_changes":[3.794745E2,1.300264E1,6.0245056E0,0E0,0E0,0E0,0E0],"parents":[2147483647,0,0,1,1,2,2],"right_children":[2,4,6,-1,-1,-1,-1],"split_conditions":[2.8123736E-1,1.4061868E-1,8.015695E-1,-5.428271E-3,-3.072535E-3,3.1419608E-3,5.0581144E-3],"split_indices":[2,2,1,0,0,0,0],"split_type":[0,0,0,0,0,0,0],"sum_hessian":[2.0617055E2,8.44104E1,1.2176014E2,5.378362E1,3.0626783E1,1.0607325E2,1.5686889E1],"tree_param":{"num_deleted":"0","num_feature":"12","num_nodes":"7","size_leaf_vector":"1"}},{"base_weights":[7.513902E-2,-1.5296724E0,1.1608399E0,-5.428271E-3,-2.732871E-3,3.66838E-4,1.4606999E0,9.5092535E-1,4.5797904E-3,3.2643913E-3,-3.4965451E-3],"categories":[],"categories_nodes":[],"categories_segments":[],"categories_sizes":[],"default_left":[0,0,0,0,0,0,0,0,0,0,0],"id":94,"left_children":[1,3,5,-1,-1,-1,7,9,-1,-1,-1],"loss_changes":[3.6876477E2,1.7481384E1,3.913173E1,0E0,0E0,0E0,6.2969055E0,7.5687714E0,0E0,0E0,0E0],"parents":[2147483647,0,0,1,1,2,2,6,6,7,7],"right_children":[2,4,6,-1,-1,-1,8,10,-1,-1,-1],"split_conditions":[2.8123736E-1,1.4061868E-1,4.2185605E-1,-5.428271E-3,-2.732871E-3,3.66838E-4,5.156018E-1,1E0,4.5797904E-3,3.2643913E-3,-3.4965451E-3],"split_indices":[2,2,2,0,0,0,2,4,0,0,0],"split_type":[0,0,0,0,0,0,0,0,0,0,0],"sum_hessian":[2.116485E2,8.5406395E1,1.2624211E2,5.328562E1,3.2120773E1,2.83858E1,9.785631E1,1.9421864E1,7.843445E1,1.7927874E1,1.4939895E0],"tree_param":{"num_deleted":"0","num_feature":"12","num_nodes":"11","size_leaf_vector":"1"}},{"base_weights":[4.813043E-2],"categories":[],"categories_nodes":[],"categories_segments":[],"categories_sizes":[],"default_left":[0],"id":95,"left_children":[-1],"loss_changes":[0E0],"parents":[2147483647],"right_children":[-1],"split_conditions":[1.3890174E-4],"split_indices":[0],"split_type":[0],"sum_hessian":[2.0890953E2],"tree_param":{"num_deleted":"0","num_feature":"12","num_nodes":"1","size_leaf_vector":"1"}},{"base_weights":[4.887642E-2,-1.6614486E-3,7.9834566E-2,2.3199104E-2,1.5006633E-3,-1.6586411E0,1.0497278E0,-5.428271E-3,-3.4299565E-3,4.057314E-4,4.354659E-3],"categories":[],"categories_nodes":[],"categories_segments":[],"categories_sizes":[],"default_left":[0,0,0,0,0,0,0,0,0,0,0],"id":96,"left_children":[1,-1,3,5,-1,7,9,-1,-1,-1,-1],"loss_changes":[4.0779586E0,0E0,5.009158E0,3.0736768E2,0E0,7.052017E0,4.6153442E1,0E0,0E0,0E0,0E0],"parents":[2147483647,0,0,2,2,3,3,5,5,6,6],"right_children":[2,-1,4,6,-1,8,10,-1,-1,-1,-1],"split_conditions":[1.11186035E-1,-1.6614486E-3,1E0,2.3436446E-1,1.5006633E-3,1.4061868E-1,4.2185605E-1,-5.428271E-3,-3.4299565E-3,4.057314E-4,4.354659E-3],"split_indices":[1,0,9,2,0,2,2,0,0,0,0],"split_type":[0,0,0,0,0,0,0,0,0,0,0],"sum_hessian":[2.109015E2,9.959929E0,2.0094157E2,1.7803374E2,2.2907839E1,6.747852E1,1.1055522E2,4.5815678E1,2.1662848E1,3.710074E1,7.345448E1],"tree_param":{"num_deleted":"0","num_feature":"12","num_nodes":"11","size_leaf_vector":"1"}},{"base_weights":[-8.851714E-2],"categories":[],"categories_nodes":[],"categories_segments":[],"categories_sizes":[],"default_left":[0],"id":97,"left_children":[-1],"loss_changes":[0E0],"parents":[2147483647],"right_children":[-1],"split_conditions":[-2.5545552E-4],"split_indices":[0],"split_type":[0],"sum_hessian":[2.2260443E2],"tree_param":{"num_deleted":"0","num_feature":"12","num_nodes":"1","size_leaf_vector":"1"}},{"base_weights":[6.325186E-2,-1.6192994E0,1.0162838E0,-5.428271E-3,-1.0354407E0,6.09424E-4,4.460631E-3,-4.4885194E-3,-2.031137E-3],"categories":[],"categories_nodes":[],"categories_segments":[],"categories_sizes":[],"default_left":[0,0,0,0,0,0,0,0,0],"id":98,"left_children":[1,3,5,-1,7,-1,-1,-1,-1],"loss_changes":[3.3898444E2,1.1677139E1,5.751764E1,0E0,4.078226E0,0E0,0E0,0E0,0E0],"parents":[2147483647,0,0,1,1,2,2,4,4],"right_children":[2,4,6,-1,8,-1,-1,-1,-1],"split_conditions":[2.3436446E-1,1.4061868E-1,4.6872893E-1,-5.428271E-3,4.270111E-1,6.09424E-4,4.460631E-3,-4.4885194E-3,-2.031137E-3],"split_indices":[2,2,2,0,1,0,0,0,0],"split_type":[0,0,0,0,0,0,0,0,0],"sum_hessian":[2.113995E2,7.644246E1,1.3495705E2,5.278763E1,2.3654833E1,5.3534622E1,8.1422424E1,9.2129345E0,1.4441898E1],"tree_param":{"num_deleted":"0","num_feature":"12","num_nodes":"9","size_leaf_vector":"1"}},{"base_weights":[-8.000173E-3,-1.4844086E0,1.2407821E0,-5.428271E-3,-2.6380331E-3,1.0543932E-3,4.435038E-3],"categories":[],"categories_nodes":[],"categories_segments":[],"categories_sizes":[],"default_left":[0,0,0,0,0,0,0],"id":99,"left_children":[1,3,5,-1,-1,-1,-1],"loss_changes":[3.9572803E2,2.2242126E1,3.0130737E1,0E0,0E0,0E0,0E0],"parents":[2147483647,0,0,1,1,2,2],"right_children":[2,4,6,-1,-1,-1,-1],"split_conditions":[2.8123736E-1,1.4061868E-1,4.2185605E-1,-5.428271E-3,-2.6380331E-3,1.0543932E-3,4.435038E-3],"split_indices":[2,2,2,0,0,0,0],"split_type":[0,0,0,0,0,0,0],"sum_hessian":[2.1463649E2,9.83543E1,1.1628218E2,5.801659E1,4.0337715E1,2.9381792E1,8.690038E1],"tree_param":{"num_deleted":"0","num_feature":"12","num_nodes":"7","size_leaf_vector":"1"}}]},"name":"gbtree"},"learner_model_param":{"base_score":"[4.6834937E-1]","boost_from_average":"1","num_class":"0","num_feature":"12","num_target":"1"},"objective":{"name":"reg:logistic","reg_loss_param":{"scale_pos_weight":"1"}}},"version":[3,1,2]}